<?xml version="1.0"?>
<opencv_storage>
<haarcascade_frontcow_30_24_36 type_id="opencv-haar-classifier">
  <size>
    24 36</size>
  <stages>
    <_>
      <trees>
        <_>
          <_>
            <feature>
              <rects>
                <_>
                  2 4 20 25 -1.</_>
                <_>
                  7 4 10 25 2.</_></rects>
              <tilted>0</tilted></feature>
            <threshold>0.0934917181730270</threshold>
            <left_val>-0.4760833084583283</left_val>
            <right_val>0.8202965855598450</right_val></_></_>
        <_>
          <_>
            <feature>
              <rects>
                <_>
                  3 7 18 15 -1.</_>
                <_>
                  3 12 18 5 3.</_></rects>
              <tilted>0</tilted></feature>
            <threshold>-2.8129110578447580e-003</threshold>
            <left_val>0.4381237924098969</left_val>
            <right_val>-0.6099473834037781</right_val></_></_>
        <_>
          <_>
            <feature>
              <rects>
                <_>
                  6 3 2 6 -1.</_>
                <_>
                  6 3 2 3 2.</_></rects>
              <tilted>1</tilted></feature>
            <threshold>4.3567330576479435e-003</threshold>
            <left_val>-0.4137845933437347</left_val>
            <right_val>0.4591698944568634</right_val></_></_>
        <_>
          <_>
            <feature>
              <rects>
                <_>
                  5 22 14 12 -1.</_>
                <_>
                  5 25 14 6 2.</_></rects>
              <tilted>0</tilted></feature>
            <threshold>0.0131650995463133</threshold>
            <left_val>-0.4567216038703919</left_val>
            <right_val>0.4058448076248169</right_val></_></_>
        <_>
          <_>
            <feature>
              <rects>
                <_>
                  1 0 22 36 -1.</_>
                <_>
                  1 18 22 18 2.</_></rects>
              <tilted>0</tilted></feature>
            <threshold>-1.5145390352699906e-004</threshold>
            <left_val>0.3589530885219574</left_val>
            <right_val>-0.5913292765617371</right_val></_></_>
        <_>
          <_>
            <feature>
              <rects>
                <_>
                  21 7 1 6 -1.</_>
                <_>
                  21 7 1 3 2.</_></rects>
              <tilted>1</tilted></feature>
            <threshold>-1.3606440006697085e-005</threshold>
            <left_val>0.2889133989810944</left_val>
            <right_val>-0.3132936060428619</right_val></_></_>
        <_>
          <_>
            <feature>
              <rects>
                <_>
                  6 1 12 8 -1.</_>
                <_>
                  9 1 6 8 2.</_></rects>
              <tilted>0</tilted></feature>
            <threshold>-0.0113927600905299</threshold>
            <left_val>0.6967504024505615</left_val>
            <right_val>-0.2839337885379791</right_val></_></_>
        <_>
          <_>
            <feature>
              <rects>
                <_>
                  10 5 12 1 -1.</_>
                <_>
                  10 5 6 1 2.</_></rects>
              <tilted>0</tilted></feature>
            <threshold>5.0523839890956879e-003</threshold>
            <left_val>-0.0922650992870331</left_val>
            <right_val>0.6009287238121033</right_val></_></_>
        <_>
          <_>
            <feature>
              <rects>
                <_>
                  2 24 16 7 -1.</_>
                <_>
                  6 24 8 7 2.</_></rects>
              <tilted>0</tilted></feature>
            <threshold>-0.0259745493531227</threshold>
            <left_val>0.7000036835670471</left_val>
            <right_val>-0.3310888111591339</right_val></_></_>
        <_>
          <_>
            <feature>
              <rects>
                <_>
                  12 18 5 4 -1.</_>
                <_>
                  12 20 5 2 2.</_></rects>
              <tilted>0</tilted></feature>
            <threshold>1.4931199984857813e-005</threshold>
            <left_val>-0.2521505057811737</left_val>
            <right_val>0.3529478907585144</right_val></_></_>
        <_>
          <_>
            <feature>
              <rects>
                <_>
                  3 3 12 3 -1.</_>
                <_>
                  3 3 6 3 2.</_></rects>
              <tilted>1</tilted></feature>
            <threshold>-4.6730428584851325e-004</threshold>
            <left_val>0.5170564055442810</left_val>
            <right_val>-0.4684039056301117</right_val></_></_></trees>
      <stage_threshold>-1.4176939725875854</stage_threshold>
      <parent>-1</parent>
      <next>-1</next></_>
    <_>
      <trees>
        <_>
          <_>
            <feature>
              <rects>
                <_>
                  4 10 12 3 -1.</_>
                <_>
                  4 10 6 3 2.</_></rects>
              <tilted>1</tilted></feature>
            <threshold>-7.3519367724657059e-003</threshold>
            <left_val>0.6236671805381775</left_val>
            <right_val>-0.5661792755126953</right_val></_></_>
        <_>
          <_>
            <feature>
              <rects>
                <_>
                  2 0 20 36 -1.</_>
                <_>
                  2 18 20 18 2.</_></rects>
              <tilted>0</tilted></feature>
            <threshold>-8.4995519137009978e-004</threshold>
            <left_val>0.3627743124961853</left_val>
            <right_val>-0.5973408222198486</right_val></_></_>
        <_>
          <_>
            <feature>
              <rects>
                <_>
                  6 20 11 15 -1.</_>
                <_>
                  6 25 11 5 3.</_></rects>
              <tilted>0</tilted></feature>
            <threshold>0.0230679195374250</threshold>
            <left_val>-0.3824683129787445</left_val>
            <right_val>0.5075681209564209</right_val></_></_>
        <_>
          <_>
            <feature>
              <rects>
                <_>
                  0 8 24 1 -1.</_>
                <_>
                  6 8 12 1 2.</_></rects>
              <tilted>0</tilted></feature>
            <threshold>7.9559460282325745e-003</threshold>
            <left_val>-0.3713009953498840</left_val>
            <right_val>0.6151927113533020</right_val></_></_>
        <_>
          <_>
            <feature>
              <rects>
                <_>
                  5 13 14 12 -1.</_>
                <_>
                  5 19 14 6 2.</_></rects>
              <tilted>0</tilted></feature>
            <threshold>5.1254348363727331e-005</threshold>
            <left_val>-0.5565807223320007</left_val>
            <right_val>0.4258950054645538</right_val></_></_>
        <_>
          <_>
            <feature>
              <rects>
                <_>
                  1 0 23 28 -1.</_>
                <_>
                  1 14 23 14 2.</_></rects>
              <tilted>0</tilted></feature>
            <threshold>-3.0265990644693375e-003</threshold>
            <left_val>0.2969267964363098</left_val>
            <right_val>-0.7275394201278687</right_val></_></_>
        <_>
          <_>
            <feature>
              <rects>
                <_>
                  10 8 10 2 -1.</_>
                <_>
                  10 8 10 1 2.</_></rects>
              <tilted>1</tilted></feature>
            <threshold>-7.1028232923708856e-005</threshold>
            <left_val>0.4637441933155060</left_val>
            <right_val>-0.4498580098152161</right_val></_></_>
        <_>
          <_>
            <feature>
              <rects>
                <_>
                  0 18 24 6 -1.</_>
                <_>
                  6 18 12 6 2.</_></rects>
              <tilted>0</tilted></feature>
            <threshold>-0.0334969200193882</threshold>
            <left_val>0.7170013785362244</left_val>
            <right_val>-0.2672891914844513</right_val></_></_>
        <_>
          <_>
            <feature>
              <rects>
                <_>
                  1 10 4 1 -1.</_>
                <_>
                  3 10 2 1 2.</_></rects>
              <tilted>0</tilted></feature>
            <threshold>1.5731450403109193e-003</threshold>
            <left_val>-0.1737363040447235</left_val>
            <right_val>0.7117279171943665</right_val></_></_>
        <_>
          <_>
            <feature>
              <rects>
                <_>
                  19 23 5 2 -1.</_>
                <_>
                  19 24 5 1 2.</_></rects>
              <tilted>0</tilted></feature>
            <threshold>8.7052740127546713e-006</threshold>
            <left_val>-0.3502180874347687</left_val>
            <right_val>0.3250805139541626</right_val></_></_>
        <_>
          <_>
            <feature>
              <rects>
                <_>
                  7 16 6 1 -1.</_>
                <_>
                  10 16 3 1 2.</_></rects>
              <tilted>0</tilted></feature>
            <threshold>7.6718797572539188e-006</threshold>
            <left_val>-0.5304906964302063</left_val>
            <right_val>0.4352776110172272</right_val></_></_>
        <_>
          <_>
            <feature>
              <rects>
                <_>
                  10 16 8 1 -1.</_>
                <_>
                  10 16 4 1 2.</_></rects>
              <tilted>0</tilted></feature>
            <threshold>9.6350013336632401e-005</threshold>
            <left_val>-0.5219932794570923</left_val>
            <right_val>0.2753815054893494</right_val></_></_>
        <_>
          <_>
            <feature>
              <rects>
                <_>
                  9 4 6 24 -1.</_>
                <_>
                  11 12 2 8 9.</_></rects>
              <tilted>0</tilted></feature>
            <threshold>-8.3887578512076288e-005</threshold>
            <left_val>0.5732240080833435</left_val>
            <right_val>-0.7047510743141174</right_val></_></_>
        <_>
          <_>
            <feature>
              <rects>
                <_>
                  18 9 2 16 -1.</_>
                <_>
                  14 13 2 8 2.</_></rects>
              <tilted>1</tilted></feature>
            <threshold>2.7987069915980101e-003</threshold>
            <left_val>-0.3450618088245392</left_val>
            <right_val>0.5157378911972046</right_val></_></_>
        <_>
          <_>
            <feature>
              <rects>
                <_>
                  3 8 16 22 -1.</_>
                <_>
                  3 8 8 11 2.</_>
                <_>
                  11 19 8 11 2.</_></rects>
              <tilted>0</tilted></feature>
            <threshold>-1.9882589112967253e-003</threshold>
            <left_val>0.5349051952362061</left_val>
            <right_val>-0.6193302869796753</right_val></_></_>
        <_>
          <_>
            <feature>
              <rects>
                <_>
                  9 17 15 12 -1.</_>
                <_>
                  14 21 5 4 9.</_></rects>
              <tilted>0</tilted></feature>
            <threshold>0.1361919939517975</threshold>
            <left_val>-0.1733140945434570</left_val>
            <right_val>0.8672754764556885</right_val></_></_>
        <_>
          <_>
            <feature>
              <rects>
                <_>
                  0 0 10 36 -1.</_>
                <_>
                  0 18 10 18 2.</_></rects>
              <tilted>0</tilted></feature>
            <threshold>-3.6109071515966207e-005</threshold>
            <left_val>0.4990453124046326</left_val>
            <right_val>-0.7452741265296936</right_val></_></_>
        <_>
          <_>
            <feature>
              <rects>
                <_>
                  22 3 2 8 -1.</_>
                <_>
                  22 5 2 4 2.</_></rects>
              <tilted>0</tilted></feature>
            <threshold>-1.8776489887386560e-003</threshold>
            <left_val>0.6013063192367554</left_val>
            <right_val>-0.4129698872566223</right_val></_></_>
        <_>
          <_>
            <feature>
              <rects>
                <_>
                  2 5 3 26 -1.</_>
                <_>
                  2 18 3 13 2.</_></rects>
              <tilted>0</tilted></feature>
            <threshold>3.0499129934469238e-005</threshold>
            <left_val>-0.4069693088531494</left_val>
            <right_val>0.6713821291923523</right_val></_></_>
        <_>
          <_>
            <feature>
              <rects>
                <_>
                  11 28 3 2 -1.</_>
                <_>
                  12 28 1 2 3.</_></rects>
              <tilted>0</tilted></feature>
            <threshold>1.0375990314059891e-005</threshold>
            <left_val>-0.5602043271064758</left_val>
            <right_val>0.4274399876594544</right_val></_></_>
        <_>
          <_>
            <feature>
              <rects>
                <_>
                  9 2 6 3 -1.</_>
                <_>
                  11 2 2 3 3.</_></rects>
              <tilted>0</tilted></feature>
            <threshold>-6.5331587393302470e-005</threshold>
            <left_val>0.5536624193191528</left_val>
            <right_val>-0.7124696969985962</right_val></_></_>
        <_>
          <_>
            <feature>
              <rects>
                <_>
                  13 2 2 4 -1.</_>
                <_>
                  12 3 2 2 2.</_></rects>
              <tilted>1</tilted></feature>
            <threshold>9.6129078883677721e-006</threshold>
            <left_val>-0.3763844072818756</left_val>
            <right_val>0.5235006809234619</right_val></_></_>
        <_>
          <_>
            <feature>
              <rects>
                <_>
                  8 2 6 6 -1.</_>
                <_>
                  8 2 3 3 2.</_>
                <_>
                  11 5 3 3 2.</_></rects>
              <tilted>0</tilted></feature>
            <threshold>-1.0564699914539233e-004</threshold>
            <left_val>0.6455438733100891</left_val>
            <right_val>-0.6598036885261536</right_val></_></_>
        <_>
          <_>
            <feature>
              <rects>
                <_>
                  18 29 2 5 -1.</_>
                <_>
                  18 29 1 5 2.</_></rects>
              <tilted>0</tilted></feature>
            <threshold>-8.6932859630906023e-006</threshold>
            <left_val>0.3965576887130737</left_val>
            <right_val>-0.2413015961647034</right_val></_></_>
        <_>
          <_>
            <feature>
              <rects>
                <_>
                  4 29 2 5 -1.</_>
                <_>
                  5 29 1 5 2.</_></rects>
              <tilted>0</tilted></feature>
            <threshold>-1.4070909855945501e-005</threshold>
            <left_val>0.6288856863975525</left_val>
            <right_val>-0.4356527924537659</right_val></_></_>
        <_>
          <_>
            <feature>
              <rects>
                <_>
                  21 19 2 8 -1.</_>
                <_>
                  21 19 1 8 2.</_></rects>
              <tilted>1</tilted></feature>
            <threshold>7.2830473072826862e-005</threshold>
            <left_val>-0.2039027959108353</left_val>
            <right_val>0.2730011940002441</right_val></_></_>
        <_>
          <_>
            <feature>
              <rects>
                <_>
                  2 26 6 10 -1.</_>
                <_>
                  5 26 3 10 2.</_></rects>
              <tilted>0</tilted></feature>
            <threshold>2.2557160264113918e-005</threshold>
            <left_val>-0.5054990053176880</left_val>
            <right_val>0.4767118096351624</right_val></_></_>
        <_>
          <_>
            <feature>
              <rects>
                <_>
                  6 30 16 4 -1.</_>
                <_>
                  14 30 8 2 2.</_>
                <_>
                  6 32 8 2 2.</_></rects>
              <tilted>0</tilted></feature>
            <threshold>3.9616489084437490e-004</threshold>
            <left_val>-0.4452581107616425</left_val>
            <right_val>0.2542758882045746</right_val></_></_>
        <_>
          <_>
            <feature>
              <rects>
                <_>
                  0 29 16 6 -1.</_>
                <_>
                  0 29 8 3 2.</_>
                <_>
                  8 32 8 3 2.</_></rects>
              <tilted>0</tilted></feature>
            <threshold>-2.4955059052444994e-004</threshold>
            <left_val>0.5036442875862122</left_val>
            <right_val>-0.6423879265785217</right_val></_></_>
        <_>
          <_>
            <feature>
              <rects>
                <_>
                  22 30 2 4 -1.</_>
                <_>
                  22 30 2 2 2.</_></rects>
              <tilted>1</tilted></feature>
            <threshold>-1.6433550626970828e-005</threshold>
            <left_val>0.3479973077774048</left_val>
            <right_val>-0.3252201974391937</right_val></_></_>
        <_>
          <_>
            <feature>
              <rects>
                <_>
                  2 30 4 2 -1.</_>
                <_>
                  2 30 2 2 2.</_></rects>
              <tilted>1</tilted></feature>
            <threshold>1.4219270269677509e-005</threshold>
            <left_val>-0.4396350979804993</left_val>
            <right_val>0.4733150899410248</right_val></_></_>
        <_>
          <_>
            <feature>
              <rects>
                <_>
                  10 28 10 2 -1.</_>
                <_>
                  15 28 5 1 2.</_>
                <_>
                  10 29 5 1 2.</_></rects>
              <tilted>0</tilted></feature>
            <threshold>-9.2219843281782232e-006</threshold>
            <left_val>0.2260385006666184</left_val>
            <right_val>-0.4222685098648071</right_val></_></_>
        <_>
          <_>
            <feature>
              <rects>
                <_>
                  0 8 12 1 -1.</_>
                <_>
                  6 8 6 1 2.</_></rects>
              <tilted>0</tilted></feature>
            <threshold>2.0032250322401524e-003</threshold>
            <left_val>-0.3668920993804932</left_val>
            <right_val>0.5518097281455994</right_val></_></_>
        <_>
          <_>
            <feature>
              <rects>
                <_>
                  3 6 21 15 -1.</_>
                <_>
                  3 11 21 5 3.</_></rects>
              <tilted>0</tilted></feature>
            <threshold>-4.0633548051118851e-003</threshold>
            <left_val>0.3405916094779968</left_val>
            <right_val>-0.6105648279190064</right_val></_></_>
        <_>
          <_>
            <feature>
              <rects>
                <_>
                  9 1 8 3 -1.</_>
                <_>
                  8 2 8 1 3.</_></rects>
              <tilted>1</tilted></feature>
            <threshold>2.3715070710750297e-005</threshold>
            <left_val>-0.4579738974571228</left_val>
            <right_val>0.4854938983917236</right_val></_></_>
        <_>
          <_>
            <feature>
              <rects>
                <_>
                  9 2 9 12 -1.</_>
                <_>
                  12 6 3 4 9.</_></rects>
              <tilted>0</tilted></feature>
            <threshold>-1.4386209659278393e-003</threshold>
            <left_val>0.2693381905555725</left_val>
            <right_val>-0.4107378125190735</right_val></_></_>
        <_>
          <_>
            <feature>
              <rects>
                <_>
                  3 6 12 5 -1.</_>
                <_>
                  6 6 6 5 2.</_></rects>
              <tilted>0</tilted></feature>
            <threshold>-3.0779180815443397e-004</threshold>
            <left_val>0.6134827136993408</left_val>
            <right_val>-0.4284701049327850</right_val></_></_>
        <_>
          <_>
            <feature>
              <rects>
                <_>
                  0 0 24 19 -1.</_>
                <_>
                  8 0 8 19 3.</_></rects>
              <tilted>0</tilted></feature>
            <threshold>0.1663127988576889</threshold>
            <left_val>-0.2409798949956894</left_val>
            <right_val>0.7224308252334595</right_val></_></_>
        <_>
          <_>
            <feature>
              <rects>
                <_>
                  3 15 12 3 -1.</_>
                <_>
                  7 19 4 3 3.</_></rects>
              <tilted>1</tilted></feature>
            <threshold>-1.4866630081087351e-003</threshold>
            <left_val>0.5038704276084900</left_val>
            <right_val>-0.5262832045555115</right_val></_></_>
        <_>
          <_>
            <feature>
              <rects>
                <_>
                  21 19 2 8 -1.</_>
                <_>
                  21 19 1 8 2.</_></rects>
              <tilted>1</tilted></feature>
            <threshold>-5.0900158385047689e-005</threshold>
            <left_val>0.2734627127647400</left_val>
            <right_val>-0.1649637073278427</right_val></_></_>
        <_>
          <_>
            <feature>
              <rects>
                <_>
                  1 19 6 13 -1.</_>
                <_>
                  4 19 3 13 2.</_></rects>
              <tilted>0</tilted></feature>
            <threshold>0.0126122701913118</threshold>
            <left_val>-0.3545210957527161</left_val>
            <right_val>0.6846451759338379</right_val></_></_>
        <_>
          <_>
            <feature>
              <rects>
                <_>
                  13 6 2 8 -1.</_>
                <_>
                  13 6 1 8 2.</_></rects>
              <tilted>0</tilted></feature>
            <threshold>-2.7665950256050564e-005</threshold>
            <left_val>0.2363474071025848</left_val>
            <right_val>-0.4163475930690765</right_val></_></_>
        <_>
          <_>
            <feature>
              <rects>
                <_>
                  3 21 6 1 -1.</_>
                <_>
                  3 21 3 1 2.</_></rects>
              <tilted>1</tilted></feature>
            <threshold>1.5591340343235061e-005</threshold>
            <left_val>-0.4254109859466553</left_val>
            <right_val>0.5831190943717957</right_val></_></_>
        <_>
          <_>
            <feature>
              <rects>
                <_>
                  15 11 9 6 -1.</_>
                <_>
                  15 11 9 3 2.</_></rects>
              <tilted>1</tilted></feature>
            <threshold>-1.8127809744328260e-003</threshold>
            <left_val>0.3397777080535889</left_val>
            <right_val>-0.5289232134819031</right_val></_></_>
        <_>
          <_>
            <feature>
              <rects>
                <_>
                  2 22 6 4 -1.</_>
                <_>
                  5 22 3 4 2.</_></rects>
              <tilted>0</tilted></feature>
            <threshold>3.1093420693650842e-004</threshold>
            <left_val>-0.4754728972911835</left_val>
            <right_val>0.5392690896987915</right_val></_></_>
        <_>
          <_>
            <feature>
              <rects>
                <_>
                  15 0 9 16 -1.</_>
                <_>
                  15 8 9 8 2.</_></rects>
              <tilted>0</tilted></feature>
            <threshold>-0.0141309304162860</threshold>
            <left_val>0.2842471897602081</left_val>
            <right_val>-0.5668880939483643</right_val></_></_>
        <_>
          <_>
            <feature>
              <rects>
                <_>
                  10 0 13 2 -1.</_>
                <_>
                  10 0 13 1 2.</_></rects>
              <tilted>1</tilted></feature>
            <threshold>-8.8233777205459774e-005</threshold>
            <left_val>0.6353672146797180</left_val>
            <right_val>-0.4262888133525848</right_val></_></_>
        <_>
          <_>
            <feature>
              <rects>
                <_>
                  23 3 1 9 -1.</_>
                <_>
                  23 6 1 3 3.</_></rects>
              <tilted>0</tilted></feature>
            <threshold>-6.1337131774052978e-004</threshold>
            <left_val>0.2705299854278565</left_val>
            <right_val>-0.1727094948291779</right_val></_></_>
        <_>
          <_>
            <feature>
              <rects>
                <_>
                  0 25 24 3 -1.</_>
                <_>
                  6 25 12 3 2.</_></rects>
              <tilted>0</tilted></feature>
            <threshold>-4.2567800846882164e-004</threshold>
            <left_val>0.5510883927345276</left_val>
            <right_val>-0.3590537905693054</right_val></_></_></trees>
      <stage_threshold>-1.7248790264129639</stage_threshold>
      <parent>0</parent>
      <next>-1</next></_>
    <_>
      <trees>
        <_>
          <_>
            <feature>
              <rects>
                <_>
                  0 5 24 21 -1.</_>
                <_>
                  8 5 8 21 3.</_></rects>
              <tilted>0</tilted></feature>
            <threshold>0.3401721119880676</threshold>
            <left_val>-0.2429616004228592</left_val>
            <right_val>0.8152065277099609</right_val></_></_>
        <_>
          <_>
            <feature>
              <rects>
                <_>
                  1 0 22 36 -1.</_>
                <_>
                  1 18 22 18 2.</_></rects>
              <tilted>0</tilted></feature>
            <threshold>0.2720134854316711</threshold>
            <left_val>0.1658556014299393</left_val>
            <right_val>-0.8643922209739685</right_val></_></_>
        <_>
          <_>
            <feature>
              <rects>
                <_>
                  1 12 21 24 -1.</_>
                <_>
                  8 20 7 8 9.</_></rects>
              <tilted>0</tilted></feature>
            <threshold>0.4407589137554169</threshold>
            <left_val>-0.1964603960514069</left_val>
            <right_val>0.6208938956260681</right_val></_></_>
        <_>
          <_>
            <feature>
              <rects>
                <_>
                  22 2 2 18 -1.</_>
                <_>
                  22 8 2 6 3.</_></rects>
              <tilted>0</tilted></feature>
            <threshold>-0.0226592794060707</threshold>
            <left_val>0.4666056036949158</left_val>
            <right_val>-0.1797260046005249</right_val></_></_>
        <_>
          <_>
            <feature>
              <rects>
                <_>
                  5 10 5 4 -1.</_>
                <_>
                  4 11 5 2 2.</_></rects>
              <tilted>1</tilted></feature>
            <threshold>-7.4961488135159016e-003</threshold>
            <left_val>0.5650745034217835</left_val>
            <right_val>-0.1804898977279663</right_val></_></_>
        <_>
          <_>
            <feature>
              <rects>
                <_>
                  10 12 7 2 -1.</_>
                <_>
                  10 13 7 1 2.</_></rects>
              <tilted>0</tilted></feature>
            <threshold>2.3280789609998465e-003</threshold>
            <left_val>0.1521514058113098</left_val>
            <right_val>-0.7729830145835877</right_val></_></_>
        <_>
          <_>
            <feature>
              <rects>
                <_>
                  0 1 15 26 -1.</_>
                <_>
                  5 1 5 26 3.</_></rects>
              <tilted>0</tilted></feature>
            <threshold>-0.0693962275981903</threshold>
            <left_val>0.5256615877151489</left_val>
            <right_val>-0.2324154973030090</right_val></_></_>
        <_>
          <_>
            <feature>
              <rects>
                <_>
                  11 19 8 3 -1.</_>
                <_>
                  11 20 8 1 3.</_></rects>
              <tilted>0</tilted></feature>
            <threshold>1.3278749538585544e-003</threshold>
            <left_val>0.1290524005889893</left_val>
            <right_val>-0.3298003077507019</right_val></_></_>
        <_>
          <_>
            <feature>
              <rects>
                <_>
                  5 19 8 3 -1.</_>
                <_>
                  5 20 8 1 3.</_></rects>
              <tilted>0</tilted></feature>
            <threshold>-1.6382100293412805e-003</threshold>
            <left_val>-0.5942459106445313</left_val>
            <right_val>0.1778530031442642</right_val></_></_>
        <_>
          <_>
            <feature>
              <rects>
                <_>
                  6 2 12 7 -1.</_>
                <_>
                  9 2 6 7 2.</_></rects>
              <tilted>0</tilted></feature>
            <threshold>-6.0919038951396942e-003</threshold>
            <left_val>0.3495357930660248</left_val>
            <right_val>-0.2696912884712219</right_val></_></_>
        <_>
          <_>
            <feature>
              <rects>
                <_>
                  0 3 24 8 -1.</_>
                <_>
                  6 3 12 8 2.</_></rects>
              <tilted>0</tilted></feature>
            <threshold>0.1374045014381409</threshold>
            <left_val>-0.1047921031713486</left_val>
            <right_val>0.7669094204902649</right_val></_></_>
        <_>
          <_>
            <feature>
              <rects>
                <_>
                  4 20 16 12 -1.</_>
                <_>
                  4 23 16 6 2.</_></rects>
              <tilted>0</tilted></feature>
            <threshold>0.0299454908818007</threshold>
            <left_val>-0.1606927961111069</left_val>
            <right_val>0.4661873877048492</right_val></_></_>
        <_>
          <_>
            <feature>
              <rects>
                <_>
                  8 8 5 4 -1.</_>
                <_>
                  8 9 5 2 2.</_></rects>
              <tilted>0</tilted></feature>
            <threshold>2.5732519570738077e-003</threshold>
            <left_val>0.1162946969270706</left_val>
            <right_val>-0.7381269931793213</right_val></_></_>
        <_>
          <_>
            <feature>
              <rects>
                <_>
                  22 0 2 20 -1.</_>
                <_>
                  22 5 2 10 2.</_></rects>
              <tilted>0</tilted></feature>
            <threshold>0.0264557804912329</threshold>
            <left_val>-0.0529298298060894</left_val>
            <right_val>0.7008150815963745</right_val></_></_>
        <_>
          <_>
            <feature>
              <rects>
                <_>
                  0 0 2 20 -1.</_>
                <_>
                  0 5 2 10 2.</_></rects>
              <tilted>0</tilted></feature>
            <threshold>-0.0212633796036243</threshold>
            <left_val>0.5858206748962402</left_val>
            <right_val>-0.1558967977762222</right_val></_></_>
        <_>
          <_>
            <feature>
              <rects>
                <_>
                  12 13 12 9 -1.</_>
                <_>
                  16 13 4 9 3.</_></rects>
              <tilted>0</tilted></feature>
            <threshold>-0.0333184190094471</threshold>
            <left_val>0.3499974012374878</left_val>
            <right_val>-0.1107347980141640</right_val></_></_>
        <_>
          <_>
            <feature>
              <rects>
                <_>
                  0 13 12 9 -1.</_>
                <_>
                  4 13 4 9 3.</_></rects>
              <tilted>0</tilted></feature>
            <threshold>0.0211476199328899</threshold>
            <left_val>-0.1859481930732727</left_val>
            <right_val>0.5200048089027405</right_val></_></_></trees>
      <stage_threshold>-1.1443799734115601</stage_threshold>
      <parent>1</parent>
      <next>-1</next></_>
    <_>
      <trees>
        <_>
          <_>
            <feature>
              <rects>
                <_>
                  3 11 18 20 -1.</_>
                <_>
                  9 11 6 20 3.</_></rects>
              <tilted>0</tilted></feature>
            <threshold>0.0603603310883045</threshold>
            <left_val>-0.3990744054317474</left_val>
            <right_val>0.3556017875671387</right_val></_></_>
        <_>
          <_>
            <feature>
              <rects>
                <_>
                  8 30 9 6 -1.</_>
                <_>
                  11 32 3 2 9.</_></rects>
              <tilted>0</tilted></feature>
            <threshold>-0.0225562807172537</threshold>
            <left_val>0.4849770069122315</left_val>
            <right_val>-0.1537948995828629</right_val></_></_>
        <_>
          <_>
            <feature>
              <rects>
                <_>
                  0 4 3 12 -1.</_>
                <_>
                  0 8 3 4 3.</_></rects>
              <tilted>0</tilted></feature>
            <threshold>-0.0205924306064844</threshold>
            <left_val>0.6471310853958130</left_val>
            <right_val>-0.1370451003313065</right_val></_></_>
        <_>
          <_>
            <feature>
              <rects>
                <_>
                  6 6 15 14 -1.</_>
                <_>
                  6 13 15 7 2.</_></rects>
              <tilted>0</tilted></feature>
            <threshold>0.0336114317178726</threshold>
            <left_val>0.1051459982991219</left_val>
            <right_val>-0.6163735985755920</right_val></_></_>
        <_>
          <_>
            <feature>
              <rects>
                <_>
                  10 4 4 2 -1.</_>
                <_>
                  10 4 4 1 2.</_></rects>
              <tilted>1</tilted></feature>
            <threshold>1.3653479982167482e-003</threshold>
            <left_val>0.2254718989133835</left_val>
            <right_val>-0.4396147131919861</right_val></_></_>
        <_>
          <_>
            <feature>
              <rects>
                <_>
                  19 21 4 9 -1.</_>
                <_>
                  16 24 4 3 3.</_></rects>
              <tilted>1</tilted></feature>
            <threshold>0.0272236391901970</threshold>
            <left_val>-0.1353621035814285</left_val>
            <right_val>0.3769671022891998</right_val></_></_>
        <_>
          <_>
            <feature>
              <rects>
                <_>
                  4 18 12 4 -1.</_>
                <_>
                  8 22 4 4 3.</_></rects>
              <tilted>1</tilted></feature>
            <threshold>0.0551077909767628</threshold>
            <left_val>-0.1454001963138580</left_val>
            <right_val>0.6523106098175049</right_val></_></_>
        <_>
          <_>
            <feature>
              <rects>
                <_>
                  21 3 3 9 -1.</_>
                <_>
                  21 6 3 3 3.</_></rects>
              <tilted>0</tilted></feature>
            <threshold>-6.8095340393483639e-003</threshold>
            <left_val>0.3794490098953247</left_val>
            <right_val>-0.1534830033779144</right_val></_></_>
        <_>
          <_>
            <feature>
              <rects>
                <_>
                  1 0 12 4 -1.</_>
                <_>
                  1 0 6 2 2.</_>
                <_>
                  7 2 6 2 2.</_></rects>
              <tilted>0</tilted></feature>
            <threshold>0.0154737001284957</threshold>
            <left_val>-0.0941174402832985</left_val>
            <right_val>0.8283094167709351</right_val></_></_>
        <_>
          <_>
            <feature>
              <rects>
                <_>
                  2 9 21 8 -1.</_>
                <_>
                  2 11 21 4 2.</_></rects>
              <tilted>0</tilted></feature>
            <threshold>-0.0151718296110630</threshold>
            <left_val>0.4377878010272980</left_val>
            <right_val>-0.1081797033548355</right_val></_></_>
        <_>
          <_>
            <feature>
              <rects>
                <_>
                  10 24 9 2 -1.</_>
                <_>
                  13 27 3 2 3.</_></rects>
              <tilted>1</tilted></feature>
            <threshold>0.0181057006120682</threshold>
            <left_val>-0.1337237060070038</left_val>
            <right_val>0.5474460721015930</right_val></_></_>
        <_>
          <_>
            <feature>
              <rects>
                <_>
                  23 21 1 4 -1.</_>
                <_>
                  23 23 1 2 2.</_></rects>
              <tilted>0</tilted></feature>
            <threshold>1.4123929431661963e-003</threshold>
            <left_val>0.0939270704984665</left_val>
            <right_val>-0.7200303077697754</right_val></_></_>
        <_>
          <_>
            <feature>
              <rects>
                <_>
                  3 0 4 16 -1.</_>
                <_>
                  3 0 2 8 2.</_>
                <_>
                  5 8 2 8 2.</_></rects>
              <tilted>0</tilted></feature>
            <threshold>3.0183331109583378e-003</threshold>
            <left_val>-0.2302632927894592</left_val>
            <right_val>0.3489210903644562</right_val></_></_>
        <_>
          <_>
            <feature>
              <rects>
                <_>
                  0 5 24 1 -1.</_>
                <_>
                  6 5 12 1 2.</_></rects>
              <tilted>0</tilted></feature>
            <threshold>0.0162652991712093</threshold>
            <left_val>-0.1403245031833649</left_val>
            <right_val>0.5345360040664673</right_val></_></_>
        <_>
          <_>
            <feature>
              <rects>
                <_>
                  0 0 24 1 -1.</_>
                <_>
                  12 0 12 1 2.</_></rects>
              <tilted>0</tilted></feature>
            <threshold>-0.0167518109083176</threshold>
            <left_val>-0.7252224087715149</left_val>
            <right_val>0.1070374026894569</right_val></_></_>
        <_>
          <_>
            <feature>
              <rects>
                <_>
                  0 0 24 14 -1.</_>
                <_>
                  0 0 12 14 2.</_></rects>
              <tilted>0</tilted></feature>
            <threshold>-0.2206421941518784</threshold>
            <left_val>-0.7994679808616638</left_val>
            <right_val>0.0939979031682014</right_val></_></_>
        <_>
          <_>
            <feature>
              <rects>
                <_>
                  0 17 1 6 -1.</_>
                <_>
                  0 20 1 3 2.</_></rects>
              <tilted>0</tilted></feature>
            <threshold>5.8956997236236930e-004</threshold>
            <left_val>0.1662542968988419</left_val>
            <right_val>-0.4300827980041504</right_val></_></_>
        <_>
          <_>
            <feature>
              <rects>
                <_>
                  20 10 2 3 -1.</_>
                <_>
                  20 10 1 3 2.</_></rects>
              <tilted>1</tilted></feature>
            <threshold>6.6603389568626881e-003</threshold>
            <left_val>-0.0600416697561741</left_val>
            <right_val>0.5491335988044739</right_val></_></_>
        <_>
          <_>
            <feature>
              <rects>
                <_>
                  8 18 4 3 -1.</_>
                <_>
                  8 19 4 1 3.</_></rects>
              <tilted>0</tilted></feature>
            <threshold>-9.2486682115122676e-004</threshold>
            <left_val>-0.5742859840393066</left_val>
            <right_val>0.1366145014762878</right_val></_></_>
        <_>
          <_>
            <feature>
              <rects>
                <_>
                  20 1 4 10 -1.</_>
                <_>
                  22 1 2 5 2.</_>
                <_>
                  20 6 2 5 2.</_></rects>
              <tilted>0</tilted></feature>
            <threshold>0.0157372094690800</threshold>
            <left_val>-0.0690128877758980</left_val>
            <right_val>0.6463959813117981</right_val></_></_>
        <_>
          <_>
            <feature>
              <rects>
                <_>
                  0 1 4 10 -1.</_>
                <_>
                  0 1 2 5 2.</_>
                <_>
                  2 6 2 5 2.</_></rects>
              <tilted>0</tilted></feature>
            <threshold>-7.3019592091441154e-003</threshold>
            <left_val>0.6104050874710083</left_val>
            <right_val>-0.1180016025900841</right_val></_></_>
        <_>
          <_>
            <feature>
              <rects>
                <_>
                  22 18 2 18 -1.</_>
                <_>
                  22 27 2 9 2.</_></rects>
              <tilted>0</tilted></feature>
            <threshold>-0.0133358696475625</threshold>
            <left_val>-0.2447472065687180</left_val>
            <right_val>0.1131926998496056</right_val></_></_>
        <_>
          <_>
            <feature>
              <rects>
                <_>
                  3 11 1 6 -1.</_>
                <_>
                  3 13 1 2 3.</_></rects>
              <tilted>0</tilted></feature>
            <threshold>-1.5032880473881960e-003</threshold>
            <left_val>0.4864130020141602</left_val>
            <right_val>-0.1627251952886581</right_val></_></_></trees>
      <stage_threshold>-1.1958030462265015</stage_threshold>
      <parent>2</parent>
      <next>-1</next></_>
    <_>
      <trees>
        <_>
          <_>
            <feature>
              <rects>
                <_>
                  0 2 24 27 -1.</_>
                <_>
                  6 2 12 27 2.</_></rects>
              <tilted>0</tilted></feature>
            <threshold>0.2293778955936432</threshold>
            <left_val>-0.2970004081726074</left_val>
            <right_val>0.6688234806060791</right_val></_></_>
        <_>
          <_>
            <feature>
              <rects>
                <_>
                  19 18 5 3 -1.</_>
                <_>
                  19 19 5 1 3.</_></rects>
              <tilted>0</tilted></feature>
            <threshold>-1.0789110092446208e-003</threshold>
            <left_val>-0.4727475941181183</left_val>
            <right_val>0.1606152057647705</right_val></_></_>
        <_>
          <_>
            <feature>
              <rects>
                <_>
                  3 20 12 2 -1.</_>
                <_>
                  3 21 12 1 2.</_></rects>
              <tilted>0</tilted></feature>
            <threshold>-1.5038199489936233e-003</threshold>
            <left_val>-0.5739083886146545</left_val>
            <right_val>0.1641522943973541</right_val></_></_>
        <_>
          <_>
            <feature>
              <rects>
                <_>
                  23 1 1 15 -1.</_>
                <_>
                  23 6 1 5 3.</_></rects>
              <tilted>0</tilted></feature>
            <threshold>-0.0129401795566082</threshold>
            <left_val>0.7795224785804749</left_val>
            <right_val>-0.1758158057928085</right_val></_></_>
        <_>
          <_>
            <feature>
              <rects>
                <_>
                  3 20 13 2 -1.</_>
                <_>
                  3 21 13 1 2.</_></rects>
              <tilted>0</tilted></feature>
            <threshold>2.2593620233237743e-003</threshold>
            <left_val>0.1993812024593353</left_val>
            <right_val>-0.5638471245765686</right_val></_></_>
        <_>
          <_>
            <feature>
              <rects>
                <_>
                  19 22 3 9 -1.</_>
                <_>
                  16 25 3 3 3.</_></rects>
              <tilted>1</tilted></feature>
            <threshold>0.0377628095448017</threshold>
            <left_val>-0.0960233137011528</left_val>
            <right_val>0.3043600916862488</right_val></_></_>
        <_>
          <_>
            <feature>
              <rects>
                <_>
                  8 10 5 4 -1.</_>
                <_>
                  8 11 5 2 2.</_></rects>
              <tilted>0</tilted></feature>
            <threshold>1.3528750278055668e-003</threshold>
            <left_val>0.1509989947080612</left_val>
            <right_val>-0.5255526900291443</right_val></_></_>
        <_>
          <_>
            <feature>
              <rects>
                <_>
                  18 8 6 10 -1.</_>
                <_>
                  21 8 3 5 2.</_>
                <_>
                  18 13 3 5 2.</_></rects>
              <tilted>0</tilted></feature>
            <threshold>-0.0152176897972822</threshold>
            <left_val>0.4022817015647888</left_val>
            <right_val>-0.1168584004044533</right_val></_></_>
        <_>
          <_>
            <feature>
              <rects>
                <_>
                  4 15 15 3 -1.</_>
                <_>
                  9 20 5 3 3.</_></rects>
              <tilted>1</tilted></feature>
            <threshold>0.0574992597103119</threshold>
            <left_val>-0.1609002947807312</left_val>
            <right_val>0.5407180786132813</right_val></_></_>
        <_>
          <_>
            <feature>
              <rects>
                <_>
                  8 13 16 11 -1.</_>
                <_>
                  12 13 8 11 2.</_></rects>
              <tilted>0</tilted></feature>
            <threshold>0.0398247987031937</threshold>
            <left_val>-0.0615131594240665</left_val>
            <right_val>0.2336432933807373</right_val></_></_>
        <_>
          <_>
            <feature>
              <rects>
                <_>
                  0 24 24 2 -1.</_>
                <_>
                  6 24 12 2 2.</_></rects>
              <tilted>0</tilted></feature>
            <threshold>-0.0137986503541470</threshold>
            <left_val>0.6445739269256592</left_val>
            <right_val>-0.1594980955123901</right_val></_></_>
        <_>
          <_>
            <feature>
              <rects>
                <_>
                  22 33 2 2 -1.</_>
                <_>
                  23 33 1 1 2.</_>
                <_>
                  22 34 1 1 2.</_></rects>
              <tilted>0</tilted></feature>
            <threshold>-9.2683528782799840e-004</threshold>
            <left_val>-0.7215610742568970</left_val>
            <right_val>0.1193403974175453</right_val></_></_>
        <_>
          <_>
            <feature>
              <rects>
                <_>
                  1 7 12 15 -1.</_>
                <_>
                  4 7 6 15 2.</_></rects>
              <tilted>0</tilted></feature>
            <threshold>-0.0357244014739990</threshold>
            <left_val>0.5724231004714966</left_val>
            <right_val>-0.1695467978715897</right_val></_></_>
        <_>
          <_>
            <feature>
              <rects>
                <_>
                  15 8 8 6 -1.</_>
                <_>
                  17 8 4 6 2.</_></rects>
              <tilted>0</tilted></feature>
            <threshold>-0.0137752797454596</threshold>
            <left_val>0.3432312905788422</left_val>
            <right_val>-0.0540341809391975</right_val></_></_>
        <_>
          <_>
            <feature>
              <rects>
                <_>
                  8 2 5 8 -1.</_>
                <_>
                  6 4 5 4 2.</_></rects>
              <tilted>1</tilted></feature>
            <threshold>0.0137579301372170</threshold>
            <left_val>-0.1908683925867081</left_val>
            <right_val>0.4268954098224640</right_val></_></_>
        <_>
          <_>
            <feature>
              <rects>
                <_>
                  15 0 8 4 -1.</_>
                <_>
                  15 2 8 2 2.</_></rects>
              <tilted>0</tilted></feature>
            <threshold>-8.9125521481037140e-003</threshold>
            <left_val>0.2555151879787445</left_val>
            <right_val>-0.0538142994046211</right_val></_></_>
        <_>
          <_>
            <feature>
              <rects>
                <_>
                  0 0 16 4 -1.</_>
                <_>
                  0 0 8 2 2.</_>
                <_>
                  8 2 8 2 2.</_></rects>
              <tilted>0</tilted></feature>
            <threshold>0.0128458896651864</threshold>
            <left_val>-0.1240196973085403</left_val>
            <right_val>0.6649671792984009</right_val></_></_>
        <_>
          <_>
            <feature>
              <rects>
                <_>
                  14 9 1 2 -1.</_>
                <_>
                  14 10 1 1 2.</_></rects>
              <tilted>0</tilted></feature>
            <threshold>1.9155959307681769e-004</threshold>
            <left_val>0.1159693971276283</left_val>
            <right_val>-0.3178662061691284</right_val></_></_>
        <_>
          <_>
            <feature>
              <rects>
                <_>
                  9 9 1 2 -1.</_>
                <_>
                  9 10 1 1 2.</_></rects>
              <tilted>0</tilted></feature>
            <threshold>4.5993790263310075e-004</threshold>
            <left_val>0.1050520986318588</left_val>
            <right_val>-0.7869476079940796</right_val></_></_>
        <_>
          <_>
            <feature>
              <rects>
                <_>
                  19 22 3 9 -1.</_>
                <_>
                  16 25 3 3 3.</_></rects>
              <tilted>1</tilted></feature>
            <threshold>-0.0358966588973999</threshold>
            <left_val>0.5516759753227234</left_val>
            <right_val>-0.0480644106864929</right_val></_></_>
        <_>
          <_>
            <feature>
              <rects>
                <_>
                  5 22 9 3 -1.</_>
                <_>
                  8 25 3 3 3.</_></rects>
              <tilted>1</tilted></feature>
            <threshold>0.0326283909380436</threshold>
            <left_val>-0.1258147954940796</left_val>
            <right_val>0.7138993144035339</right_val></_></_>
        <_>
          <_>
            <feature>
              <rects>
                <_>
                  12 22 5 9 -1.</_>
                <_>
                  9 25 5 3 3.</_></rects>
              <tilted>1</tilted></feature>
            <threshold>0.0446450300514698</threshold>
            <left_val>-0.0238797608762980</left_val>
            <right_val>0.3326095938682556</right_val></_></_>
        <_>
          <_>
            <feature>
              <rects>
                <_>
                  12 22 9 5 -1.</_>
                <_>
                  15 25 3 5 3.</_></rects>
              <tilted>1</tilted></feature>
            <threshold>0.0286774896085262</threshold>
            <left_val>-0.1957550942897797</left_val>
            <right_val>0.4420486986637116</right_val></_></_></trees>
      <stage_threshold>-1.0747270584106445</stage_threshold>
      <parent>3</parent>
      <next>-1</next></_>
    <_>
      <trees>
        <_>
          <_>
            <feature>
              <rects>
                <_>
                  0 3 24 25 -1.</_>
                <_>
                  8 3 8 25 3.</_></rects>
              <tilted>0</tilted></feature>
            <threshold>0.4703414142131805</threshold>
            <left_val>-0.1816125959157944</left_val>
            <right_val>0.8101478815078735</right_val></_></_>
        <_>
          <_>
            <feature>
              <rects>
                <_>
                  6 22 12 12 -1.</_>
                <_>
                  6 28 12 6 2.</_></rects>
              <tilted>0</tilted></feature>
            <threshold>-0.0384558513760567</threshold>
            <left_val>0.3913356959819794</left_val>
            <right_val>-0.2357905060052872</right_val></_></_>
        <_>
          <_>
            <feature>
              <rects>
                <_>
                  0 0 14 12 -1.</_>
                <_>
                  0 0 7 6 2.</_>
                <_>
                  7 6 7 6 2.</_></rects>
              <tilted>0</tilted></feature>
            <threshold>0.0477364808320999</threshold>
            <left_val>-0.2160277068614960</left_val>
            <right_val>0.5638129711151123</right_val></_></_>
        <_>
          <_>
            <feature>
              <rects>
                <_>
                  13 1 9 8 -1.</_>
                <_>
                  16 1 3 8 3.</_></rects>
              <tilted>0</tilted></feature>
            <threshold>3.2428139820694923e-003</threshold>
            <left_val>-0.1543895006179810</left_val>
            <right_val>0.2379563003778458</right_val></_></_>
        <_>
          <_>
            <feature>
              <rects>
                <_>
                  3 0 6 10 -1.</_>
                <_>
                  5 0 2 10 3.</_></rects>
              <tilted>0</tilted></feature>
            <threshold>7.7813039533793926e-003</threshold>
            <left_val>-0.2102687954902649</left_val>
            <right_val>0.4631538987159729</right_val></_></_>
        <_>
          <_>
            <feature>
              <rects>
                <_>
                  1 0 23 14 -1.</_>
                <_>
                  1 7 23 7 2.</_></rects>
              <tilted>0</tilted></feature>
            <threshold>-0.0725666731595993</threshold>
            <left_val>0.2736488878726959</left_val>
            <right_val>-0.2911345064640045</right_val></_></_>
        <_>
          <_>
            <feature>
              <rects>
                <_>
                  2 28 12 8 -1.</_>
                <_>
                  2 28 6 4 2.</_>
                <_>
                  8 32 6 4 2.</_></rects>
              <tilted>0</tilted></feature>
            <threshold>-0.0169244892895222</threshold>
            <left_val>0.4825277924537659</left_val>
            <right_val>-0.1902092993259430</right_val></_></_>
        <_>
          <_>
            <feature>
              <rects>
                <_>
                  11 7 7 4 -1.</_>
                <_>
                  11 8 7 2 2.</_></rects>
              <tilted>0</tilted></feature>
            <threshold>3.1724690925329924e-003</threshold>
            <left_val>0.0961703211069107</left_val>
            <right_val>-0.5339140295982361</right_val></_></_>
        <_>
          <_>
            <feature>
              <rects>
                <_>
                  0 0 13 28 -1.</_>
                <_>
                  0 7 13 14 2.</_></rects>
              <tilted>0</tilted></feature>
            <threshold>-0.2284846007823944</threshold>
            <left_val>-0.9551044106483460</left_val>
            <right_val>0.0840111374855042</right_val></_></_>
        <_>
          <_>
            <feature>
              <rects>
                <_>
                  22 22 2 3 -1.</_>
                <_>
                  22 23 2 1 3.</_></rects>
              <tilted>0</tilted></feature>
            <threshold>1.1536380043253303e-003</threshold>
            <left_val>0.0440246500074863</left_val>
            <right_val>-0.5881873965263367</right_val></_></_>
        <_>
          <_>
            <feature>
              <rects>
                <_>
                  4 31 15 1 -1.</_>
                <_>
                  9 31 5 1 3.</_></rects>
              <tilted>0</tilted></feature>
            <threshold>-3.2878948841243982e-003</threshold>
            <left_val>0.4145773053169251</left_val>
            <right_val>-0.1808038949966431</right_val></_></_>
        <_>
          <_>
            <feature>
              <rects>
                <_>
                  10 29 12 5 -1.</_>
                <_>
                  10 29 6 5 2.</_></rects>
              <tilted>0</tilted></feature>
            <threshold>0.0296672806143761</threshold>
            <left_val>-0.0966271683573723</left_val>
            <right_val>0.3569358885288239</right_val></_></_>
        <_>
          <_>
            <feature>
              <rects>
                <_>
                  0 22 2 3 -1.</_>
                <_>
                  0 23 2 1 3.</_></rects>
              <tilted>0</tilted></feature>
            <threshold>6.5008038654923439e-004</threshold>
            <left_val>0.1293645054101944</left_val>
            <right_val>-0.6167135834693909</right_val></_></_>
        <_>
          <_>
            <feature>
              <rects>
                <_>
                  10 32 14 2 -1.</_>
                <_>
                  10 32 7 2 2.</_></rects>
              <tilted>0</tilted></feature>
            <threshold>-2.2050749976187944e-003</threshold>
            <left_val>0.2832719087600708</left_val>
            <right_val>-0.1925936043262482</right_val></_></_>
        <_>
          <_>
            <feature>
              <rects>
                <_>
                  0 32 14 2 -1.</_>
                <_>
                  7 32 7 2 2.</_></rects>
              <tilted>0</tilted></feature>
            <threshold>7.1907308883965015e-003</threshold>
            <left_val>-0.1959107071161270</left_val>
            <right_val>0.4884425103664398</right_val></_></_>
        <_>
          <_>
            <feature>
              <rects>
                <_>
                  12 5 12 3 -1.</_>
                <_>
                  16 9 4 3 3.</_></rects>
              <tilted>1</tilted></feature>
            <threshold>-0.0793639421463013</threshold>
            <left_val>0.8973602056503296</left_val>
            <right_val>-3.6069450434297323e-003</right_val></_></_>
        <_>
          <_>
            <feature>
              <rects>
                <_>
                  0 15 12 3 -1.</_>
                <_>
                  4 15 4 3 3.</_></rects>
              <tilted>0</tilted></feature>
            <threshold>-0.0140467695891857</threshold>
            <left_val>0.4769184887409210</left_val>
            <right_val>-0.1709284931421280</right_val></_></_>
        <_>
          <_>
            <feature>
              <rects>
                <_>
                  9 26 10 6 -1.</_>
                <_>
                  14 26 5 3 2.</_>
                <_>
                  9 29 5 3 2.</_></rects>
              <tilted>0</tilted></feature>
            <threshold>0.0215222109109163</threshold>
            <left_val>-0.0184605997055769</left_val>
            <right_val>0.5178990960121155</right_val></_></_>
        <_>
          <_>
            <feature>
              <rects>
                <_>
                  0 17 16 12 -1.</_>
                <_>
                  4 17 8 12 2.</_></rects>
              <tilted>0</tilted></feature>
            <threshold>0.0937148332595825</threshold>
            <left_val>-0.1000168994069099</left_val>
            <right_val>0.8321315050125122</right_val></_></_>
        <_>
          <_>
            <feature>
              <rects>
                <_>
                  21 5 3 6 -1.</_>
                <_>
                  21 7 3 2 3.</_></rects>
              <tilted>0</tilted></feature>
            <threshold>-9.5442828023806214e-004</threshold>
            <left_val>0.2576443850994110</left_val>
            <right_val>-0.2074649035930634</right_val></_></_>
        <_>
          <_>
            <feature>
              <rects>
                <_>
                  0 5 3 6 -1.</_>
                <_>
                  0 7 3 2 3.</_></rects>
              <tilted>0</tilted></feature>
            <threshold>-1.9415810238569975e-003</threshold>
            <left_val>0.3952521085739136</left_val>
            <right_val>-0.2121617943048477</right_val></_></_>
        <_>
          <_>
            <feature>
              <rects>
                <_>
                  13 9 5 4 -1.</_>
                <_>
                  13 10 5 2 2.</_></rects>
              <tilted>0</tilted></feature>
            <threshold>-1.7384360544383526e-003</threshold>
            <left_val>-0.4232391119003296</left_val>
            <right_val>0.0843477174639702</right_val></_></_></trees>
      <stage_threshold>-1.1334079504013062</stage_threshold>
      <parent>4</parent>
      <next>-1</next></_>
    <_>
      <trees>
        <_>
          <_>
            <feature>
              <rects>
                <_>
                  0 3 1 15 -1.</_>
                <_>
                  0 8 1 5 3.</_></rects>
              <tilted>0</tilted></feature>
            <threshold>-4.8866630531847477e-003</threshold>
            <left_val>0.4162422120571137</left_val>
            <right_val>-0.2437725067138672</right_val></_></_>
        <_>
          <_>
            <feature>
              <rects>
                <_>
                  11 0 12 31 -1.</_>
                <_>
                  11 0 6 31 2.</_></rects>
              <tilted>0</tilted></feature>
            <threshold>0.0478323996067047</threshold>
            <left_val>-0.2681911885738373</left_val>
            <right_val>0.1966720968484879</right_val></_></_>
        <_>
          <_>
            <feature>
              <rects>
                <_>
                  5 9 13 15 -1.</_>
                <_>
                  5 14 13 5 3.</_></rects>
              <tilted>0</tilted></feature>
            <threshold>-7.7176038175821304e-003</threshold>
            <left_val>0.2316927015781403</left_val>
            <right_val>-0.3542197942733765</right_val></_></_>
        <_>
          <_>
            <feature>
              <rects>
                <_>
                  15 23 4 9 -1.</_>
                <_>
                  15 23 2 9 2.</_></rects>
              <tilted>1</tilted></feature>
            <threshold>0.0218927506357431</threshold>
            <left_val>-0.1034085974097252</left_val>
            <right_val>0.2410607039928436</right_val></_></_>
        <_>
          <_>
            <feature>
              <rects>
                <_>
                  0 2 2 8 -1.</_>
                <_>
                  0 4 2 4 2.</_></rects>
              <tilted>0</tilted></feature>
            <threshold>-2.5074589066207409e-003</threshold>
            <left_val>0.3849005103111267</left_val>
            <right_val>-0.2072608023881912</right_val></_></_>
        <_>
          <_>
            <feature>
              <rects>
                <_>
                  19 21 4 3 -1.</_>
                <_>
                  19 22 4 1 3.</_></rects>
              <tilted>0</tilted></feature>
            <threshold>-7.5654179090633988e-004</threshold>
            <left_val>-0.4074501991271973</left_val>
            <right_val>0.0904202535748482</right_val></_></_>
        <_>
          <_>
            <feature>
              <rects>
                <_>
                  9 23 9 4 -1.</_>
                <_>
                  9 23 9 2 2.</_></rects>
              <tilted>1</tilted></feature>
            <threshold>0.0174684096127748</threshold>
            <left_val>-0.2134514003992081</left_val>
            <right_val>0.3458420932292938</right_val></_></_>
        <_>
          <_>
            <feature>
              <rects>
                <_>
                  19 10 2 3 -1.</_>
                <_>
                  19 10 1 3 2.</_></rects>
              <tilted>1</tilted></feature>
            <threshold>1.2834389926865697e-003</threshold>
            <left_val>-0.1143084987998009</left_val>
            <right_val>0.1653268039226532</right_val></_></_>
        <_>
          <_>
            <feature>
              <rects>
                <_>
                  9 7 3 2 -1.</_>
                <_>
                  9 8 3 1 2.</_></rects>
              <tilted>0</tilted></feature>
            <threshold>1.0539459763094783e-003</threshold>
            <left_val>0.1061465963721275</left_val>
            <right_val>-0.7488688826560974</right_val></_></_>
        <_>
          <_>
            <feature>
              <rects>
                <_>
                  20 9 2 4 -1.</_>
                <_>
                  20 9 1 4 2.</_></rects>
              <tilted>1</tilted></feature>
            <threshold>-4.7953198663890362e-003</threshold>
            <left_val>0.3721750080585480</left_val>
            <right_val>-0.0492997616529465</right_val></_></_>
        <_>
          <_>
            <feature>
              <rects>
                <_>
                  5 10 3 2 -1.</_>
                <_>
                  5 10 3 1 2.</_></rects>
              <tilted>1</tilted></feature>
            <threshold>4.3220887891948223e-003</threshold>
            <left_val>-0.1117751002311707</left_val>
            <right_val>0.5944476127624512</right_val></_></_>
        <_>
          <_>
            <feature>
              <rects>
                <_>
                  20 22 3 4 -1.</_>
                <_>
                  20 24 3 2 2.</_></rects>
              <tilted>0</tilted></feature>
            <threshold>-8.7946476414799690e-003</threshold>
            <left_val>-0.9472184777259827</left_val>
            <right_val>0.0172850303351879</right_val></_></_>
        <_>
          <_>
            <feature>
              <rects>
                <_>
                  1 22 3 4 -1.</_>
                <_>
                  1 24 3 2 2.</_></rects>
              <tilted>0</tilted></feature>
            <threshold>5.4327049292623997e-004</threshold>
            <left_val>0.1926925927400589</left_val>
            <right_val>-0.3689534962177277</right_val></_></_>
        <_>
          <_>
            <feature>
              <rects>
                <_>
                  16 7 7 6 -1.</_>
                <_>
                  16 9 7 2 3.</_></rects>
              <tilted>0</tilted></feature>
            <threshold>-1.7328190151602030e-003</threshold>
            <left_val>0.2608852088451386</left_val>
            <right_val>-0.1643549948930740</right_val></_></_>
        <_>
          <_>
            <feature>
              <rects>
                <_>
                  0 9 24 1 -1.</_>
                <_>
                  12 9 12 1 2.</_></rects>
              <tilted>0</tilted></feature>
            <threshold>-5.2975150756537914e-003</threshold>
            <left_val>-0.3691020905971527</left_val>
            <right_val>0.1902538985013962</right_val></_></_>
        <_>
          <_>
            <feature>
              <rects>
                <_>
                  15 3 8 4 -1.</_>
                <_>
                  19 3 4 2 2.</_>
                <_>
                  15 5 4 2 2.</_></rects>
              <tilted>0</tilted></feature>
            <threshold>0.0114406403154135</threshold>
            <left_val>-0.0505734905600548</left_val>
            <right_val>0.4521985948085785</right_val></_></_>
        <_>
          <_>
            <feature>
              <rects>
                <_>
                  1 3 8 4 -1.</_>
                <_>
                  1 3 4 2 2.</_>
                <_>
                  5 5 4 2 2.</_></rects>
              <tilted>0</tilted></feature>
            <threshold>-4.6330778859555721e-003</threshold>
            <left_val>0.5198904275894165</left_val>
            <right_val>-0.1253004968166351</right_val></_></_>
        <_>
          <_>
            <feature>
              <rects>
                <_>
                  18 19 1 3 -1.</_>
                <_>
                  18 20 1 1 3.</_></rects>
              <tilted>0</tilted></feature>
            <threshold>-3.2879511127248406e-004</threshold>
            <left_val>-0.3945192098617554</left_val>
            <right_val>0.1151949018239975</right_val></_></_>
        <_>
          <_>
            <feature>
              <rects>
                <_>
                  5 19 1 3 -1.</_>
                <_>
                  5 20 1 1 3.</_></rects>
              <tilted>0</tilted></feature>
            <threshold>6.3160288846120238e-004</threshold>
            <left_val>0.0837692990899086</left_val>
            <right_val>-0.7669550776481628</right_val></_></_>
        <_>
          <_>
            <feature>
              <rects>
                <_>
                  0 0 24 30 -1.</_>
                <_>
                  0 15 24 15 2.</_></rects>
              <tilted>0</tilted></feature>
            <threshold>-0.3890297114849091</threshold>
            <left_val>-0.7178223133087158</left_val>
            <right_val>0.0821993127465248</right_val></_></_>
        <_>
          <_>
            <feature>
              <rects>
                <_>
                  3 0 18 30 -1.</_>
                <_>
                  3 15 18 15 2.</_></rects>
              <tilted>0</tilted></feature>
            <threshold>0.0935606136918068</threshold>
            <left_val>0.1182271987199783</left_val>
            <right_val>-0.6425750851631165</right_val></_></_>
        <_>
          <_>
            <feature>
              <rects>
                <_>
                  15 4 2 5 -1.</_>
                <_>
                  15 4 1 5 2.</_></rects>
              <tilted>1</tilted></feature>
            <threshold>-6.2031038105487823e-003</threshold>
            <left_val>-0.5758004784584045</left_val>
            <right_val>8.1246616318821907e-003</right_val></_></_>
        <_>
          <_>
            <feature>
              <rects>
                <_>
                  0 23 9 9 -1.</_>
                <_>
                  3 23 3 9 3.</_></rects>
              <tilted>0</tilted></feature>
            <threshold>-0.0170030202716589</threshold>
            <left_val>0.3675143122673035</left_val>
            <right_val>-0.1755834966897965</right_val></_></_>
        <_>
          <_>
            <feature>
              <rects>
                <_>
                  23 3 1 9 -1.</_>
                <_>
                  23 6 1 3 3.</_></rects>
              <tilted>0</tilted></feature>
            <threshold>-3.4271469339728355e-003</threshold>
            <left_val>0.3267832100391388</left_val>
            <right_val>-0.1120185032486916</right_val></_></_>
        <_>
          <_>
            <feature>
              <rects>
                <_>
                  9 4 5 2 -1.</_>
                <_>
                  9 4 5 1 2.</_></rects>
              <tilted>1</tilted></feature>
            <threshold>1.1649799998849630e-003</threshold>
            <left_val>0.1974574029445648</left_val>
            <right_val>-0.3671591877937317</right_val></_></_></trees>
      <stage_threshold>-0.8830685019493103</stage_threshold>
      <parent>5</parent>
      <next>-1</next></_>
    <_>
      <trees>
        <_>
          <_>
            <feature>
              <rects>
                <_>
                  5 23 13 8 -1.</_>
                <_>
                  5 25 13 4 2.</_></rects>
              <tilted>0</tilted></feature>
            <threshold>0.0213145092129707</threshold>
            <left_val>-0.1489730030298233</left_val>
            <right_val>0.5300688147544861</right_val></_></_>
        <_>
          <_>
            <feature>
              <rects>
                <_>
                  0 7 24 6 -1.</_>
                <_>
                  6 7 12 6 2.</_></rects>
              <tilted>0</tilted></feature>
            <threshold>0.1050952002406120</threshold>
            <left_val>-0.1613430976867676</left_val>
            <right_val>0.5353999137878418</right_val></_></_>
        <_>
          <_>
            <feature>
              <rects>
                <_>
                  9 19 3 2 -1.</_>
                <_>
                  10 19 1 2 3.</_></rects>
              <tilted>0</tilted></feature>
            <threshold>-1.8977030413225293e-003</threshold>
            <left_val>-0.7549129128456116</left_val>
            <right_val>0.0861351937055588</right_val></_></_>
        <_>
          <_>
            <feature>
              <rects>
                <_>
                  10 20 10 2 -1.</_>
                <_>
                  10 21 10 1 2.</_></rects>
              <tilted>0</tilted></feature>
            <threshold>-8.8735157623887062e-004</threshold>
            <left_val>-0.3263795077800751</left_val>
            <right_val>0.1250445991754532</right_val></_></_>
        <_>
          <_>
            <feature>
              <rects>
                <_>
                  0 0 22 6 -1.</_>
                <_>
                  0 2 22 2 3.</_></rects>
              <tilted>0</tilted></feature>
            <threshold>0.0261953994631767</threshold>
            <left_val>-0.1317882984876633</left_val>
            <right_val>0.5402619242668152</right_val></_></_>
        <_>
          <_>
            <feature>
              <rects>
                <_>
                  20 0 2 8 -1.</_>
                <_>
                  20 2 2 4 2.</_></rects>
              <tilted>0</tilted></feature>
            <threshold>-3.1923919450491667e-003</threshold>
            <left_val>0.3703129887580872</left_val>
            <right_val>-0.1258596926927567</right_val></_></_>
        <_>
          <_>
            <feature>
              <rects>
                <_>
                  10 11 4 3 -1.</_>
                <_>
                  10 12 4 1 3.</_></rects>
              <tilted>0</tilted></feature>
            <threshold>1.1162289883941412e-003</threshold>
            <left_val>0.0952992066740990</left_val>
            <right_val>-0.6461427211761475</right_val></_></_>
        <_>
          <_>
            <feature>
              <rects>
                <_>
                  20 22 4 2 -1.</_>
                <_>
                  20 23 4 1 2.</_></rects>
              <tilted>0</tilted></feature>
            <threshold>-1.0072659933939576e-003</threshold>
            <left_val>-0.3806372880935669</left_val>
            <right_val>0.0733635798096657</right_val></_></_>
        <_>
          <_>
            <feature>
              <rects>
                <_>
                  2 2 20 34 -1.</_>
                <_>
                  2 2 10 17 2.</_>
                <_>
                  12 19 10 17 2.</_></rects>
              <tilted>0</tilted></feature>
            <threshold>0.2349275946617127</threshold>
            <left_val>0.0891319587826729</left_val>
            <right_val>-0.7849761247634888</right_val></_></_>
        <_>
          <_>
            <feature>
              <rects>
                <_>
                  9 20 7 3 -1.</_>
                <_>
                  9 21 7 1 3.</_></rects>
              <tilted>0</tilted></feature>
            <threshold>1.7349040135741234e-003</threshold>
            <left_val>0.0563634000718594</left_val>
            <right_val>-0.5937361121177673</right_val></_></_>
        <_>
          <_>
            <feature>
              <rects>
                <_>
                  2 29 1 2 -1.</_>
                <_>
                  2 29 1 1 2.</_></rects>
              <tilted>1</tilted></feature>
            <threshold>9.1274769511073828e-004</threshold>
            <left_val>0.1273944973945618</left_val>
            <right_val>-0.4933652877807617</right_val></_></_>
        <_>
          <_>
            <feature>
              <rects>
                <_>
                  10 2 4 9 -1.</_>
                <_>
                  11 2 2 9 2.</_></rects>
              <tilted>0</tilted></feature>
            <threshold>-4.4206301681697369e-003</threshold>
            <left_val>-0.6239109039306641</left_val>
            <right_val>0.0836540609598160</right_val></_></_>
        <_>
          <_>
            <feature>
              <rects>
                <_>
                  4 10 3 3 -1.</_>
                <_>
                  3 11 3 1 3.</_></rects>
              <tilted>1</tilted></feature>
            <threshold>-5.1986780017614365e-003</threshold>
            <left_val>0.5275999903678894</left_val>
            <right_val>-0.1352851986885071</right_val></_></_>
        <_>
          <_>
            <feature>
              <rects>
                <_>
                  7 22 11 8 -1.</_>
                <_>
                  7 24 11 4 2.</_></rects>
              <tilted>0</tilted></feature>
            <threshold>-0.0138191301375628</threshold>
            <left_val>0.6246618032455444</left_val>
            <right_val>-0.1000571027398109</right_val></_></_>
        <_>
          <_>
            <feature>
              <rects>
                <_>
                  0 22 4 2 -1.</_>
                <_>
                  0 23 4 1 2.</_></rects>
              <tilted>0</tilted></feature>
            <threshold>-6.9318822352215648e-004</threshold>
            <left_val>-0.4175569117069244</left_val>
            <right_val>0.1647637039422989</right_val></_></_>
        <_>
          <_>
            <feature>
              <rects>
                <_>
                  22 22 2 4 -1.</_>
                <_>
                  22 23 2 2 2.</_></rects>
              <tilted>0</tilted></feature>
            <threshold>1.1750479461625218e-003</threshold>
            <left_val>0.0328118391335011</left_val>
            <right_val>-0.3474070131778717</right_val></_></_>
        <_>
          <_>
            <feature>
              <rects>
                <_>
                  0 22 2 4 -1.</_>
                <_>
                  0 23 2 2 2.</_></rects>
              <tilted>0</tilted></feature>
            <threshold>3.8085319101810455e-004</threshold>
            <left_val>0.1452023983001709</left_val>
            <right_val>-0.4434301853179932</right_val></_></_>
        <_>
          <_>
            <feature>
              <rects>
                <_>
                  20 1 3 6 -1.</_>
                <_>
                  20 3 3 2 3.</_></rects>
              <tilted>0</tilted></feature>
            <threshold>3.9470479823648930e-003</threshold>
            <left_val>-0.1059366986155510</left_val>
            <right_val>0.3293376863002777</right_val></_></_>
        <_>
          <_>
            <feature>
              <rects>
                <_>
                  2 0 2 8 -1.</_>
                <_>
                  2 2 2 4 2.</_></rects>
              <tilted>0</tilted></feature>
            <threshold>-3.7649408914148808e-003</threshold>
            <left_val>0.5281044840812683</left_val>
            <right_val>-0.1192182973027229</right_val></_></_>
        <_>
          <_>
            <feature>
              <rects>
                <_>
                  0 18 24 4 -1.</_>
                <_>
                  0 20 24 2 2.</_></rects>
              <tilted>0</tilted></feature>
            <threshold>-4.9901721067726612e-003</threshold>
            <left_val>-0.4178203940391541</left_val>
            <right_val>0.1518933027982712</right_val></_></_>
        <_>
          <_>
            <feature>
              <rects>
                <_>
                  0 18 12 2 -1.</_>
                <_>
                  0 19 12 1 2.</_></rects>
              <tilted>0</tilted></feature>
            <threshold>3.3178289886564016e-003</threshold>
            <left_val>0.0859154462814331</left_val>
            <right_val>-0.6888517737388611</right_val></_></_>
        <_>
          <_>
            <feature>
              <rects>
                <_>
                  12 0 8 2 -1.</_>
                <_>
                  16 0 4 1 2.</_>
                <_>
                  12 1 4 1 2.</_></rects>
              <tilted>0</tilted></feature>
            <threshold>-1.2027210323140025e-003</threshold>
            <left_val>0.3414073884487152</left_val>
            <right_val>-0.1152108982205391</right_val></_></_>
        <_>
          <_>
            <feature>
              <rects>
                <_>
                  7 2 3 3 -1.</_>
                <_>
                  8 2 1 3 3.</_></rects>
              <tilted>0</tilted></feature>
            <threshold>1.4876560308039188e-003</threshold>
            <left_val>0.1230740025639534</left_val>
            <right_val>-0.5314794778823853</right_val></_></_></trees>
      <stage_threshold>-0.9795566797256470</stage_threshold>
      <parent>6</parent>
      <next>-1</next></_>
    <_>
      <trees>
        <_>
          <_>
            <feature>
              <rects>
                <_>
                  3 11 18 18 -1.</_>
                <_>
                  9 11 6 18 3.</_></rects>
              <tilted>0</tilted></feature>
            <threshold>0.0968917831778526</threshold>
            <left_val>-0.3065235912799835</left_val>
            <right_val>0.3275653123855591</right_val></_></_>
        <_>
          <_>
            <feature>
              <rects>
                <_>
                  14 19 5 4 -1.</_>
                <_>
                  14 20 5 2 2.</_></rects>
              <tilted>0</tilted></feature>
            <threshold>-1.9144649850204587e-003</threshold>
            <left_val>-0.4265435934066773</left_val>
            <right_val>0.0586254596710205</right_val></_></_>
        <_>
          <_>
            <feature>
              <rects>
                <_>
                  4 10 6 4 -1.</_>
                <_>
                  3 11 6 2 2.</_></rects>
              <tilted>1</tilted></feature>
            <threshold>-0.0122475400567055</threshold>
            <left_val>0.5695192813873291</left_val>
            <right_val>-0.1037428006529808</right_val></_></_>
        <_>
          <_>
            <feature>
              <rects>
                <_>
                  18 2 6 9 -1.</_>
                <_>
                  18 5 6 3 3.</_></rects>
              <tilted>0</tilted></feature>
            <threshold>-9.8057407885789871e-003</threshold>
            <left_val>0.2462874948978424</left_val>
            <right_val>-0.1452398002147675</right_val></_></_>
        <_>
          <_>
            <feature>
              <rects>
                <_>
                  0 2 23 12 -1.</_>
                <_>
                  0 8 23 6 2.</_></rects>
              <tilted>0</tilted></feature>
            <threshold>-0.0378629192709923</threshold>
            <left_val>0.2362201958894730</left_val>
            <right_val>-0.2665542960166931</right_val></_></_>
        <_>
          <_>
            <feature>
              <rects>
                <_>
                  12 17 1 2 -1.</_>
                <_>
                  12 18 1 1 2.</_></rects>
              <tilted>0</tilted></feature>
            <threshold>3.9868301246315241e-004</threshold>
            <left_val>0.0852664932608604</left_val>
            <right_val>-0.5599316954612732</right_val></_></_>
        <_>
          <_>
            <feature>
              <rects>
                <_>
                  0 4 5 6 -1.</_>
                <_>
                  0 6 5 2 3.</_></rects>
              <tilted>0</tilted></feature>
            <threshold>-2.3777699097990990e-003</threshold>
            <left_val>0.3263289034366608</left_val>
            <right_val>-0.2064501941204071</right_val></_></_>
        <_>
          <_>
            <feature>
              <rects>
                <_>
                  22 35 2 1 -1.</_>
                <_>
                  22 35 1 1 2.</_></rects>
              <tilted>0</tilted></feature>
            <threshold>8.7679171701893210e-004</threshold>
            <left_val>0.0687321126461029</left_val>
            <right_val>-0.6333392262458801</right_val></_></_>
        <_>
          <_>
            <feature>
              <rects>
                <_>
                  0 6 1 6 -1.</_>
                <_>
                  0 8 1 2 3.</_></rects>
              <tilted>0</tilted></feature>
            <threshold>-9.6082809614017606e-004</threshold>
            <left_val>0.3381065130233765</left_val>
            <right_val>-0.1808115988969803</right_val></_></_>
        <_>
          <_>
            <feature>
              <rects>
                <_>
                  13 12 3 2 -1.</_>
                <_>
                  13 13 3 1 2.</_></rects>
              <tilted>0</tilted></feature>
            <threshold>9.2417432460933924e-004</threshold>
            <left_val>0.0245398506522179</left_val>
            <right_val>-0.3848977088928223</right_val></_></_>
        <_>
          <_>
            <feature>
              <rects>
                <_>
                  8 12 3 2 -1.</_>
                <_>
                  8 13 3 1 2.</_></rects>
              <tilted>0</tilted></feature>
            <threshold>8.5741648217663169e-004</threshold>
            <left_val>0.1013263016939163</left_val>
            <right_val>-0.6795613765716553</right_val></_></_>
        <_>
          <_>
            <feature>
              <rects>
                <_>
                  9 32 9 3 -1.</_>
                <_>
                  12 33 3 1 9.</_></rects>
              <tilted>0</tilted></feature>
            <threshold>-8.0677792429924011e-003</threshold>
            <left_val>0.2428379058837891</left_val>
            <right_val>-0.1073203980922699</right_val></_></_>
        <_>
          <_>
            <feature>
              <rects>
                <_>
                  4 20 5 3 -1.</_>
                <_>
                  4 21 5 1 3.</_></rects>
              <tilted>0</tilted></feature>
            <threshold>-1.4047060394659638e-003</threshold>
            <left_val>-0.6436921954154968</left_val>
            <right_val>0.0993213728070259</right_val></_></_>
        <_>
          <_>
            <feature>
              <rects>
                <_>
                  9 32 9 3 -1.</_>
                <_>
                  12 33 3 1 9.</_></rects>
              <tilted>0</tilted></feature>
            <threshold>7.6557351276278496e-003</threshold>
            <left_val>-0.0936744064092636</left_val>
            <right_val>0.2622100114822388</right_val></_></_>
        <_>
          <_>
            <feature>
              <rects>
                <_>
                  2 4 4 4 -1.</_>
                <_>
                  2 4 2 2 2.</_>
                <_>
                  4 6 2 2 2.</_></rects>
              <tilted>0</tilted></feature>
            <threshold>-2.5205649435520172e-003</threshold>
            <left_val>0.5340402126312256</left_val>
            <right_val>-0.1135623976588249</right_val></_></_>
        <_>
          <_>
            <feature>
              <rects>
                <_>
                  16 19 6 12 -1.</_>
                <_>
                  19 19 3 6 2.</_>
                <_>
                  16 25 3 6 2.</_></rects>
              <tilted>0</tilted></feature>
            <threshold>4.3444670736789703e-003</threshold>
            <left_val>-0.1310005933046341</left_val>
            <right_val>0.2571729123592377</right_val></_></_>
        <_>
          <_>
            <feature>
              <rects>
                <_>
                  2 19 6 12 -1.</_>
                <_>
                  2 19 3 6 2.</_>
                <_>
                  5 25 3 6 2.</_></rects>
              <tilted>0</tilted></feature>
            <threshold>-0.0165761094540358</threshold>
            <left_val>0.6730362772941589</left_val>
            <right_val>-0.1041378974914551</right_val></_></_>
        <_>
          <_>
            <feature>
              <rects>
                <_>
                  14 20 5 4 -1.</_>
                <_>
                  14 21 5 2 2.</_></rects>
              <tilted>0</tilted></feature>
            <threshold>1.2265680124983191e-003</threshold>
            <left_val>0.1214876994490624</left_val>
            <right_val>-0.3966974020004273</right_val></_></_>
        <_>
          <_>
            <feature>
              <rects>
                <_>
                  1 34 2 1 -1.</_>
                <_>
                  2 34 1 1 2.</_></rects>
              <tilted>0</tilted></feature>
            <threshold>3.0252290889620781e-004</threshold>
            <left_val>0.1479755043983460</left_val>
            <right_val>-0.4819887876510620</right_val></_></_>
        <_>
          <_>
            <feature>
              <rects>
                <_>
                  13 15 9 12 -1.</_>
                <_>
                  10 18 9 6 2.</_></rects>
              <tilted>1</tilted></feature>
            <threshold>-0.0626296103000641</threshold>
            <left_val>0.3781408965587616</left_val>
            <right_val>-0.0385023094713688</right_val></_></_>
        <_>
          <_>
            <feature>
              <rects>
                <_>
                  11 15 12 9 -1.</_>
                <_>
                  14 18 6 9 2.</_></rects>
              <tilted>1</tilted></feature>
            <threshold>0.0802116692066193</threshold>
            <left_val>-0.1487832963466644</left_val>
            <right_val>0.5049223899841309</right_val></_></_>
        <_>
          <_>
            <feature>
              <rects>
                <_>
                  13 14 4 6 -1.</_>
                <_>
                  13 14 4 3 2.</_></rects>
              <tilted>1</tilted></feature>
            <threshold>0.0304063297808170</threshold>
            <left_val>-0.0256859492510557</left_val>
            <right_val>0.5296819806098938</right_val></_></_>
        <_>
          <_>
            <feature>
              <rects>
                <_>
                  7 7 2 2 -1.</_>
                <_>
                  8 7 1 2 2.</_></rects>
              <tilted>0</tilted></feature>
            <threshold>-7.3897172114811838e-006</threshold>
            <left_val>0.2922571003437042</left_val>
            <right_val>-0.2277859002351761</right_val></_></_>
        <_>
          <_>
            <feature>
              <rects>
                <_>
                  2 0 22 6 -1.</_>
                <_>
                  2 2 22 2 3.</_></rects>
              <tilted>0</tilted></feature>
            <threshold>0.0227585006505251</threshold>
            <left_val>-0.0980212166905403</left_val>
            <right_val>0.4456230998039246</right_val></_></_>
        <_>
          <_>
            <feature>
              <rects>
                <_>
                  2 21 4 4 -1.</_>
                <_>
                  2 22 4 2 2.</_></rects>
              <tilted>0</tilted></feature>
            <threshold>-1.8879900453612208e-003</threshold>
            <left_val>-0.7437223792076111</left_val>
            <right_val>0.1004765033721924</right_val></_></_>
        <_>
          <_>
            <feature>
              <rects>
                <_>
                  23 19 1 12 -1.</_>
                <_>
                  23 23 1 4 3.</_></rects>
              <tilted>0</tilted></feature>
            <threshold>5.2207778207957745e-003</threshold>
            <left_val>0.0131940199062228</left_val>
            <right_val>-0.2378666996955872</right_val></_></_>
        <_>
          <_>
            <feature>
              <rects>
                <_>
                  0 19 1 12 -1.</_>
                <_>
                  0 23 1 4 3.</_></rects>
              <tilted>0</tilted></feature>
            <threshold>5.3555290214717388e-003</threshold>
            <left_val>0.0915371477603912</left_val>
            <right_val>-0.6518338918685913</right_val></_></_>
        <_>
          <_>
            <feature>
              <rects>
                <_>
                  21 9 3 6 -1.</_>
                <_>
                  22 10 1 6 3.</_></rects>
              <tilted>1</tilted></feature>
            <threshold>-6.2599331140518188e-003</threshold>
            <left_val>0.5746551752090454</left_val>
            <right_val>-0.1524886041879654</right_val></_></_>
        <_>
          <_>
            <feature>
              <rects>
                <_>
                  3 19 5 3 -1.</_>
                <_>
                  3 20 5 1 3.</_></rects>
              <tilted>0</tilted></feature>
            <threshold>-1.1308420216664672e-003</threshold>
            <left_val>-0.5218164920806885</left_val>
            <right_val>0.1236585974693298</right_val></_></_>
        <_>
          <_>
            <feature>
              <rects>
                <_>
                  21 9 3 6 -1.</_>
                <_>
                  22 10 1 6 3.</_></rects>
              <tilted>1</tilted></feature>
            <threshold>5.7558352127671242e-003</threshold>
            <left_val>-0.0832223668694496</left_val>
            <right_val>0.5275753140449524</right_val></_></_>
        <_>
          <_>
            <feature>
              <rects>
                <_>
                  3 9 6 3 -1.</_>
                <_>
                  2 10 6 1 3.</_></rects>
              <tilted>1</tilted></feature>
            <threshold>3.1217299401760101e-003</threshold>
            <left_val>-0.1232794970273972</left_val>
            <right_val>0.5243539214134216</right_val></_></_></trees>
      <stage_threshold>-1.1398669481277466</stage_threshold>
      <parent>7</parent>
      <next>-1</next></_>
    <_>
      <trees>
        <_>
          <_>
            <feature>
              <rects>
                <_>
                  0 13 24 21 -1.</_>
                <_>
                  8 20 8 7 9.</_></rects>
              <tilted>0</tilted></feature>
            <threshold>0.5421022176742554</threshold>
            <left_val>-0.1505151987075806</left_val>
            <right_val>0.4646655917167664</right_val></_></_>
        <_>
          <_>
            <feature>
              <rects>
                <_>
                  18 8 6 7 -1.</_>
                <_>
                  20 10 2 7 3.</_></rects>
              <tilted>1</tilted></feature>
            <threshold>-0.0251645203679800</threshold>
            <left_val>0.4647341072559357</left_val>
            <right_val>-0.0889924317598343</right_val></_></_>
        <_>
          <_>
            <feature>
              <rects>
                <_>
                  0 3 2 15 -1.</_>
                <_>
                  0 8 2 5 3.</_></rects>
              <tilted>0</tilted></feature>
            <threshold>-0.0248639509081841</threshold>
            <left_val>0.5630307197570801</left_val>
            <right_val>-0.1286550015211105</right_val></_></_>
        <_>
          <_>
            <feature>
              <rects>
                <_>
                  3 4 18 16 -1.</_>
                <_>
                  9 4 6 16 3.</_></rects>
              <tilted>0</tilted></feature>
            <threshold>0.2515223920345306</threshold>
            <left_val>-0.0998955965042114</left_val>
            <right_val>0.6861510276794434</right_val></_></_>
        <_>
          <_>
            <feature>
              <rects>
                <_>
                  5 30 6 1 -1.</_>
                <_>
                  7 30 2 1 3.</_></rects>
              <tilted>0</tilted></feature>
            <threshold>-2.1422179415822029e-003</threshold>
            <left_val>0.5097343921661377</left_val>
            <right_val>-0.1159925013780594</right_val></_></_>
        <_>
          <_>
            <feature>
              <rects>
                <_>
                  14 4 4 3 -1.</_>
                <_>
                  14 4 2 3 2.</_></rects>
              <tilted>1</tilted></feature>
            <threshold>4.7210708726197481e-004</threshold>
            <left_val>0.1614111065864563</left_val>
            <right_val>-0.1342692971229553</right_val></_></_>
        <_>
          <_>
            <feature>
              <rects>
                <_>
                  1 0 15 3 -1.</_>
                <_>
                  1 1 15 1 3.</_></rects>
              <tilted>0</tilted></feature>
            <threshold>-1.6081710346043110e-003</threshold>
            <left_val>0.3808904886245728</left_val>
            <right_val>-0.1534301042556763</right_val></_></_>
        <_>
          <_>
            <feature>
              <rects>
                <_>
                  6 0 13 4 -1.</_>
                <_>
                  6 1 13 2 2.</_></rects>
              <tilted>0</tilted></feature>
            <threshold>5.2486839704215527e-003</threshold>
            <left_val>-0.1277696043252945</left_val>
            <right_val>0.5720843076705933</right_val></_></_>
        <_>
          <_>
            <feature>
              <rects>
                <_>
                  7 18 5 3 -1.</_>
                <_>
                  7 19 5 1 3.</_></rects>
              <tilted>0</tilted></feature>
            <threshold>-1.6202520346269011e-003</threshold>
            <left_val>-0.6804773211479187</left_val>
            <right_val>0.1047909036278725</right_val></_></_>
        <_>
          <_>
            <feature>
              <rects>
                <_>
                  20 10 3 7 -1.</_>
                <_>
                  21 11 1 7 3.</_></rects>
              <tilted>1</tilted></feature>
            <threshold>3.3709779381752014e-003</threshold>
            <left_val>-0.1299796998500824</left_val>
            <right_val>0.3817943036556244</right_val></_></_>
        <_>
          <_>
            <feature>
              <rects>
                <_>
                  8 15 8 2 -1.</_>
                <_>
                  8 16 8 1 2.</_></rects>
              <tilted>0</tilted></feature>
            <threshold>1.2629110133275390e-003</threshold>
            <left_val>0.1282895952463150</left_val>
            <right_val>-0.4810521006584168</right_val></_></_>
        <_>
          <_>
            <feature>
              <rects>
                <_>
                  2 0 22 18 -1.</_>
                <_>
                  13 0 11 9 2.</_>
                <_>
                  2 9 11 9 2.</_></rects>
              <tilted>0</tilted></feature>
            <threshold>-0.1481529027223587</threshold>
            <left_val>-0.6839283704757690</left_val>
            <right_val>0.0335825309157372</right_val></_></_>
        <_>
          <_>
            <feature>
              <rects>
                <_>
                  2 4 8 1 -1.</_>
                <_>
                  4 4 4 1 2.</_></rects>
              <tilted>0</tilted></feature>
            <threshold>8.4042112575843930e-004</threshold>
            <left_val>-0.2166910022497177</left_val>
            <right_val>0.2723189890384674</right_val></_></_>
        <_>
          <_>
            <feature>
              <rects>
                <_>
                  22 33 1 2 -1.</_>
                <_>
                  22 33 1 1 2.</_></rects>
              <tilted>1</tilted></feature>
            <threshold>-3.0567651265300810e-004</threshold>
            <left_val>-0.1806430965662003</left_val>
            <right_val>0.0955979973077774</right_val></_></_>
        <_>
          <_>
            <feature>
              <rects>
                <_>
                  2 33 2 1 -1.</_>
                <_>
                  2 33 1 1 2.</_></rects>
              <tilted>1</tilted></feature>
            <threshold>1.0920310160145164e-003</threshold>
            <left_val>0.0981854125857353</left_val>
            <right_val>-0.5431084036827087</right_val></_></_>
        <_>
          <_>
            <feature>
              <rects>
                <_>
                  5 15 16 4 -1.</_>
                <_>
                  5 17 16 2 2.</_></rects>
              <tilted>0</tilted></feature>
            <threshold>-2.0112760830670595e-003</threshold>
            <left_val>-0.2873738110065460</left_val>
            <right_val>0.1444402933120728</right_val></_></_>
        <_>
          <_>
            <feature>
              <rects>
                <_>
                  11 21 9 4 -1.</_>
                <_>
                  10 22 9 2 2.</_></rects>
              <tilted>1</tilted></feature>
            <threshold>0.0102581102401018</threshold>
            <left_val>-0.1070114001631737</left_val>
            <right_val>0.5209519267082214</right_val></_></_>
        <_>
          <_>
