<?xml version="1.0"?>
<opencv_storage>
<haarcascade_face_cow_30_20_20 type_id="opencv-haar-classifier">
  <size>
    20 20</size>
  <stages>
    <_>
      <trees>
        <_>
          <_>
            <feature>
              <rects>
                <_>
                  0 3 20 4 -1.</_>
                <_>
                  5 3 10 4 2.</_></rects>
              <tilted>0</tilted></feature>
            <threshold>0.0644055530428886</threshold>
            <left_val>-0.3808104097843170</left_val>
            <right_val>0.7248973846435547</right_val></_></_>
        <_>
          <_>
            <feature>
              <rects>
                <_>
                  3 2 14 12 -1.</_>
                <_>
                  3 6 14 4 3.</_></rects>
              <tilted>0</tilted></feature>
            <threshold>-2.5519039481878281e-003</threshold>
            <left_val>0.3574719130992889</left_val>
            <right_val>-0.5934544205665588</right_val></_></_>
        <_>
          <_>
            <feature>
              <rects>
                <_>
                  7 14 6 6 -1.</_>
                <_>
                  7 17 6 3 2.</_></rects>
              <tilted>0</tilted></feature>
            <threshold>-0.0306964293122292</threshold>
            <left_val>0.5628374814987183</left_val>
            <right_val>-0.2921265065670013</right_val></_></_>
        <_>
          <_>
            <feature>
              <rects>
                <_>
                  18 1 1 6 -1.</_>
                <_>
                  18 4 1 3 2.</_></rects>
              <tilted>0</tilted></feature>
            <threshold>-0.0137801701202989</threshold>
            <left_val>0.5693457722663879</left_val>
            <right_val>-0.1186536997556686</right_val></_></_>
        <_>
          <_>
            <feature>
              <rects>
                <_>
                  0 0 19 16 -1.</_>
                <_>
                  0 8 19 8 2.</_></rects>
              <tilted>0</tilted></feature>
            <threshold>-2.1144549828022718e-003</threshold>
            <left_val>0.1992571949958801</left_val>
            <right_val>-0.4181945025920868</right_val></_></_>
        <_>
          <_>
            <feature>
              <rects>
                <_>
                  10 4 6 4 -1.</_>
                <_>
                  10 4 6 2 2.</_></rects>
              <tilted>1</tilted></feature>
            <threshold>-2.9603079892694950e-003</threshold>
            <left_val>0.2902922928333283</left_val>
            <right_val>-0.1496059000492096</right_val></_></_>
        <_>
          <_>
            <feature>
              <rects>
                <_>
                  10 2 6 6 -1.</_>
                <_>
                  10 2 3 6 2.</_></rects>
              <tilted>1</tilted></feature>
            <threshold>-2.3571359633933753e-004</threshold>
            <left_val>0.3841441869735718</left_val>
            <right_val>-0.2553147971630096</right_val></_></_>
        <_>
          <_>
            <feature>
              <rects>
                <_>
                  8 2 12 12 -1.</_>
                <_>
                  14 2 6 6 2.</_>
                <_>
                  8 8 6 6 2.</_></rects>
              <tilted>0</tilted></feature>
            <threshold>-0.1202458962798119</threshold>
            <left_val>0.6221460103988648</left_val>
            <right_val>-0.0925424322485924</right_val></_></_>
        <_>
          <_>
            <feature>
              <rects>
                <_>
                  0 9 16 7 -1.</_>
                <_>
                  4 9 8 7 2.</_></rects>
              <tilted>0</tilted></feature>
            <threshold>-0.0741134732961655</threshold>
            <left_val>0.5992267727851868</left_val>
            <right_val>-0.1231601983308792</right_val></_></_>
        <_>
          <_>
            <feature>
              <rects>
                <_>
                  13 6 6 12 -1.</_>
                <_>
                  13 6 3 12 2.</_></rects>
              <tilted>0</tilted></feature>
            <threshold>0.0638260468840599</threshold>
            <left_val>-0.0328291989862919</left_val>
            <right_val>0.4198203086853027</right_val></_></_>
        <_>
          <_>
            <feature>
              <rects>
                <_>
                  1 6 6 12 -1.</_>
                <_>
                  4 6 3 12 2.</_></rects>
              <tilted>0</tilted></feature>
            <threshold>0.0304937008768320</threshold>
            <left_val>-0.2197459042072296</left_val>
            <right_val>0.4263786077499390</right_val></_></_>
        <_>
          <_>
            <feature>
              <rects>
                <_>
                  19 1 1 9 -1.</_>
                <_>
                  19 4 1 3 3.</_></rects>
              <tilted>0</tilted></feature>
            <threshold>-0.0302294008433819</threshold>
            <left_val>0.8549017906188965</left_val>
            <right_val>-0.0641340687870979</right_val></_></_>
        <_>
          <_>
            <feature>
              <rects>
                <_>
                  0 1 2 9 -1.</_>
                <_>
                  0 4 2 3 3.</_></rects>
              <tilted>0</tilted></feature>
            <threshold>-0.0282429698854685</threshold>
            <left_val>0.7044628858566284</left_val>
            <right_val>-0.1189716011285782</right_val></_></_>
        <_>
          <_>
            <feature>
              <rects>
                <_>
                  14 1 6 6 -1.</_>
                <_>
                  17 1 3 3 2.</_>
                <_>
                  14 4 3 3 2.</_></rects>
              <tilted>0</tilted></feature>
            <threshold>-0.0223488006740808</threshold>
            <left_val>0.5630915760993958</left_val>
            <right_val>-0.0940921604633331</right_val></_></_>
        <_>
          <_>
            <feature>
              <rects>
                <_>
                  0 1 19 9 -1.</_>
                <_>
                  0 4 19 3 3.</_></rects>
              <tilted>0</tilted></feature>
            <threshold>0.0654192268848419</threshold>
            <left_val>-0.1304696053266525</left_val>
            <right_val>0.5893064737319946</right_val></_></_>
        <_>
          <_>
            <feature>
              <rects>
                <_>
                  2 0 16 20 -1.</_>
                <_>
                  2 10 16 10 2.</_></rects>
              <tilted>0</tilted></feature>
            <threshold>-7.6879328116774559e-004</threshold>
            <left_val>0.2020568996667862</left_val>
            <right_val>-0.4335033893585205</right_val></_></_>
        <_>
          <_>
            <feature>
              <rects>
                <_>
                  3 3 1 12 -1.</_>
                <_>
                  3 9 1 6 2.</_></rects>
              <tilted>0</tilted></feature>
            <threshold>2.0374609448481351e-005</threshold>
            <left_val>-0.2591314017772675</left_val>
            <right_val>0.3883791863918304</right_val></_></_>
        <_>
          <_>
            <feature>
              <rects>
                <_>
                  7 0 8 3 -1.</_>
                <_>
                  9 0 4 3 2.</_></rects>
              <tilted>0</tilted></feature>
            <threshold>-2.6963350828737020e-003</threshold>
            <left_val>0.2128318995237351</left_val>
            <right_val>-0.1977377980947495</right_val></_></_>
        <_>
          <_>
            <feature>
              <rects>
                <_>
                  6 0 4 1 -1.</_>
                <_>
                  7 0 2 1 2.</_></rects>
              <tilted>0</tilted></feature>
            <threshold>-2.0683999537141062e-005</threshold>
            <left_val>0.3174110949039459</left_val>
            <right_val>-0.2526780068874359</right_val></_></_>
        <_>
          <_>
            <feature>
              <rects>
                <_>
                  9 14 8 6 -1.</_>
                <_>
                  9 16 8 2 3.</_></rects>
              <tilted>0</tilted></feature>
            <threshold>-0.0320604890584946</threshold>
            <left_val>0.5216832160949707</left_val>
            <right_val>-0.1005183011293411</right_val></_></_>
        <_>
          <_>
            <feature>
              <rects>
                <_>
                  2 2 16 2 -1.</_>
                <_>
                  6 2 8 2 2.</_></rects>
              <tilted>0</tilted></feature>
            <threshold>0.0514419712126255</threshold>
            <left_val>-0.0908614173531532</left_val>
            <right_val>0.7829900979995728</right_val></_></_>
        <_>
          <_>
            <feature>
              <rects>
                <_>
                  3 0 17 12 -1.</_>
                <_>
                  3 6 17 6 2.</_></rects>
              <tilted>0</tilted></feature>
            <threshold>-0.0139595400542021</threshold>
            <left_val>0.1451320052146912</left_val>
            <right_val>-0.3860200941562653</right_val></_></_>
        <_>
          <_>
            <feature>
              <rects>
                <_>
                  5 3 9 4 -1.</_>
                <_>
                  5 5 9 2 2.</_></rects>
              <tilted>0</tilted></feature>
            <threshold>7.2200302383862436e-005</threshold>
            <left_val>-0.2151902019977570</left_val>
            <right_val>0.4126060903072357</right_val></_></_>
        <_>
          <_>
            <feature>
              <rects>
                <_>
                  13 5 3 5 -1.</_>
                <_>
                  14 5 1 5 3.</_></rects>
              <tilted>0</tilted></feature>
            <threshold>3.1214709451887757e-005</threshold>
            <left_val>-0.2103960961103439</left_val>
            <right_val>0.1603233069181442</right_val></_></_>
        <_>
          <_>
            <feature>
              <rects>
                <_>
                  4 3 11 8 -1.</_>
                <_>
                  4 5 11 4 2.</_></rects>
              <tilted>0</tilted></feature>
            <threshold>-4.3855020776391029e-003</threshold>
            <left_val>0.2970285117626190</left_val>
            <right_val>-0.3855885863304138</right_val></_></_>
        <_>
          <_>
            <feature>
              <rects>
                <_>
                  1 4 19 6 -1.</_>
                <_>
                  1 6 19 2 3.</_></rects>
              <tilted>0</tilted></feature>
            <threshold>2.1848499309271574e-003</threshold>
            <left_val>-0.2228914946317673</left_val>
            <right_val>0.4202680885791779</right_val></_></_>
        <_>
          <_>
            <feature>
              <rects>
                <_>
                  4 16 1 3 -1.</_>
                <_>
                  3 17 1 1 3.</_></rects>
              <tilted>1</tilted></feature>
            <threshold>-1.8416309103486128e-005</threshold>
            <left_val>0.2767086923122406</left_val>
            <right_val>-0.3885455131530762</right_val></_></_>
        <_>
          <_>
            <feature>
              <rects>
                <_>
                  17 15 3 2 -1.</_>
                <_>
                  18 16 1 2 3.</_></rects>
              <tilted>1</tilted></feature>
            <threshold>1.5558849554508924e-004</threshold>
            <left_val>-0.1191700026392937</left_val>
            <right_val>0.1794894933700562</right_val></_></_>
        <_>
          <_>
            <feature>
              <rects>
                <_>
                  3 15 2 3 -1.</_>
                <_>
                  2 16 2 1 3.</_></rects>
              <tilted>1</tilted></feature>
            <threshold>8.9488843514118344e-005</threshold>
            <left_val>-0.2933590114116669</left_val>
            <right_val>0.3858675062656403</right_val></_></_>
        <_>
          <_>
            <feature>
              <rects>
                <_>
                  5 5 12 8 -1.</_>
                <_>
                  5 7 12 4 2.</_></rects>
              <tilted>0</tilted></feature>
            <threshold>-5.5547221563756466e-005</threshold>
            <left_val>0.1953780949115753</left_val>
            <right_val>-0.4330093860626221</right_val></_></_>
        <_>
          <_>
            <feature>
              <rects>
                <_>
                  5 1 9 15 -1.</_>
                <_>
                  5 6 9 5 3.</_></rects>
              <tilted>0</tilted></feature>
            <threshold>1.9546719267964363e-003</threshold>
            <left_val>-0.2269587963819504</left_val>
            <right_val>0.5009931921958923</right_val></_></_>
        <_>
          <_>
            <feature>
              <rects>
                <_>
                  1 3 18 4 -1.</_>
                <_>
                  1 5 18 2 2.</_></rects>
              <tilted>0</tilted></feature>
            <threshold>-5.7066779118031263e-004</threshold>
            <left_val>0.2729291915893555</left_val>
            <right_val>-0.5507825016975403</right_val></_></_>
        <_>
          <_>
            <feature>
              <rects>
                <_>
                  0 0 3 6 -1.</_>
                <_>
                  0 2 3 2 3.</_></rects>
              <tilted>0</tilted></feature>
            <threshold>-0.0149982497096062</threshold>
            <left_val>0.6245850920677185</left_val>
            <right_val>-0.2001744061708450</right_val></_></_></trees>
      <stage_threshold>-1.3597739934921265</stage_threshold>
      <parent>-1</parent>
      <next>-1</next></_>
    <_>
      <trees>
        <_>
          <_>
            <feature>
              <rects>
                <_>
                  2 5 10 1 -1.</_>
                <_>
                  2 5 5 1 2.</_></rects>
              <tilted>1</tilted></feature>
            <threshold>-7.2912247560452670e-005</threshold>
            <left_val>0.5039029121398926</left_val>
            <right_val>-0.5757356882095337</right_val></_></_>
        <_>
          <_>
            <feature>
              <rects>
                <_>
                  4 0 12 20 -1.</_>
                <_>
                  4 10 12 10 2.</_></rects>
              <tilted>0</tilted></feature>
            <threshold>-4.6694400953128934e-004</threshold>
            <left_val>0.3222610056400299</left_val>
            <right_val>-0.5665789246559143</right_val></_></_>
        <_>
          <_>
            <feature>
              <rects>
                <_>
                  5 11 10 9 -1.</_>
                <_>
                  5 14 10 3 3.</_></rects>
              <tilted>0</tilted></feature>
            <threshold>0.0404567904770374</threshold>
            <left_val>-0.2480901926755905</left_val>
            <right_val>0.4653973877429962</right_val></_></_>
        <_>
          <_>
            <feature>
              <rects>
                <_>
                  4 4 12 8 -1.</_>
                <_>
                  4 6 12 4 2.</_></rects>
              <tilted>0</tilted></feature>
            <threshold>-3.5689311334863305e-004</threshold>
            <left_val>0.2331940978765488</left_val>
            <right_val>-0.5061265826225281</right_val></_></_>
        <_>
          <_>
            <feature>
              <rects>
                <_>
                  0 1 20 8 -1.</_>
                <_>
                  0 3 20 4 2.</_></rects>
              <tilted>0</tilted></feature>
            <threshold>-0.0443455390632153</threshold>
            <left_val>0.4657168090343475</left_val>
            <right_val>-0.2689482867717743</right_val></_></_>
        <_>
          <_>
            <feature>
              <rects>
                <_>
                  0 0 20 9 -1.</_>
                <_>
                  5 0 10 9 2.</_></rects>
              <tilted>0</tilted></feature>
            <threshold>0.1273624002933502</threshold>
            <left_val>-0.1836759001016617</left_val>
            <right_val>0.4915862083435059</right_val></_></_>
        <_>
          <_>
            <feature>
              <rects>
                <_>
                  2 5 10 1 -1.</_>
                <_>
                  2 5 5 1 2.</_></rects>
              <tilted>1</tilted></feature>
            <threshold>2.2465070651378483e-004</threshold>
            <left_val>-0.3010858893394470</left_val>
            <right_val>0.3172334134578705</right_val></_></_>
        <_>
          <_>
            <feature>
              <rects>
                <_>
                  8 1 12 8 -1.</_>
                <_>
                  14 1 6 4 2.</_>
                <_>
                  8 5 6 4 2.</_></rects>
              <tilted>0</tilted></feature>
            <threshold>0.0146012501791120</threshold>
            <left_val>-0.2864562869071960</left_val>
            <right_val>0.2751576006412506</right_val></_></_>
        <_>
          <_>
            <feature>
              <rects>
                <_>
                  4 5 11 8 -1.</_>
                <_>
                  4 7 11 4 2.</_></rects>
              <tilted>0</tilted></feature>
            <threshold>-1.6963869566097856e-003</threshold>
            <left_val>0.2613343894481659</left_val>
            <right_val>-0.4984245002269745</right_val></_></_>
        <_>
          <_>
            <feature>
              <rects>
                <_>
                  11 6 1 2 -1.</_>
                <_>
                  11 7 1 1 2.</_></rects>
              <tilted>0</tilted></feature>
            <threshold>1.7155920431832783e-005</threshold>
            <left_val>-0.1786437928676605</left_val>
            <right_val>0.2373003065586090</right_val></_></_>
        <_>
          <_>
            <feature>
              <rects>
                <_>
                  5 16 6 1 -1.</_>
                <_>
                  8 16 3 1 2.</_></rects>
              <tilted>0</tilted></feature>
            <threshold>2.7804970159195364e-005</threshold>
            <left_val>-0.3022041916847229</left_val>
            <right_val>0.3487614989280701</right_val></_></_>
        <_>
          <_>
            <feature>
              <rects>
                <_>
                  9 15 6 4 -1.</_>
                <_>
                  9 15 3 4 2.</_></rects>
              <tilted>0</tilted></feature>
            <threshold>-1.1596570257097483e-003</threshold>
            <left_val>0.2037321031093597</left_val>
            <right_val>-0.3039146959781647</right_val></_></_>
        <_>
          <_>
            <feature>
              <rects>
                <_>
                  8 5 4 4 -1.</_>
                <_>
                  8 5 2 2 2.</_>
                <_>
                  10 7 2 2 2.</_></rects>
              <tilted>0</tilted></feature>
            <threshold>-3.0684950615977868e-005</threshold>
            <left_val>0.4244323968887329</left_val>
            <right_val>-0.3151901960372925</right_val></_></_>
        <_>
          <_>
            <feature>
              <rects>
                <_>
                  10 8 2 10 -1.</_>
                <_>
                  10 8 2 5 2.</_></rects>
              <tilted>1</tilted></feature>
            <threshold>0.0407109297811985</threshold>
            <left_val>-0.1152165010571480</left_val>
            <right_val>0.2904475033283234</right_val></_></_>
        <_>
          <_>
            <feature>
              <rects>
                <_>
                  1 14 14 4 -1.</_>
                <_>
                  8 14 7 4 2.</_></rects>
              <tilted>0</tilted></feature>
            <threshold>-0.0328877307474613</threshold>
            <left_val>0.4909538924694061</left_val>
            <right_val>-0.2730445861816406</right_val></_></_>
        <_>
          <_>
            <feature>
              <rects>
                <_>
                  8 5 4 4 -1.</_>
                <_>
                  10 5 2 2 2.</_>
                <_>
                  8 7 2 2 2.</_></rects>
              <tilted>0</tilted></feature>
            <threshold>-1.2915259867440909e-004</threshold>
            <left_val>0.3731091916561127</left_val>
            <right_val>-0.2747366130352020</right_val></_></_>
        <_>
          <_>
            <feature>
              <rects>
                <_>
                  0 0 3 6 -1.</_>
                <_>
                  0 3 3 3 2.</_></rects>
              <tilted>0</tilted></feature>
            <threshold>-0.0343140102922916</threshold>
            <left_val>0.6636775732040405</left_val>
            <right_val>-0.1225633993744850</right_val></_></_>
        <_>
          <_>
            <feature>
              <rects>
                <_>
                  9 0 11 2 -1.</_>
                <_>
                  9 1 11 1 2.</_></rects>
              <tilted>0</tilted></feature>
            <threshold>0.0126497596502304</threshold>
            <left_val>-0.0717166289687157</left_val>
            <right_val>0.6675804853439331</right_val></_></_>
        <_>
          <_>
            <feature>
              <rects>
                <_>
                  1 0 15 3 -1.</_>
                <_>
                  1 1 15 1 3.</_></rects>
              <tilted>0</tilted></feature>
            <threshold>-3.7892688997089863e-003</threshold>
            <left_val>0.4058529138565064</left_val>
            <right_val>-0.3125200867652893</right_val></_></_>
        <_>
          <_>
            <feature>
              <rects>
                <_>
                  0 0 20 3 -1.</_>
                <_>
                  0 1 20 1 3.</_></rects>
              <tilted>0</tilted></feature>
            <threshold>3.9446880109608173e-003</threshold>
            <left_val>-0.2644199132919312</left_val>
            <right_val>0.4259093999862671</right_val></_></_>
        <_>
          <_>
            <feature>
              <rects>
                <_>
                  0 0 10 20 -1.</_>
                <_>
                  0 10 10 10 2.</_></rects>
              <tilted>0</tilted></feature>
            <threshold>-5.5538341257488355e-005</threshold>
            <left_val>0.2222146987915039</left_val>
            <right_val>-0.4925045967102051</right_val></_></_>
        <_>
          <_>
            <feature>
              <rects>
                <_>
                  7 11 9 4 -1.</_>
                <_>
                  7 13 9 2 2.</_></rects>
              <tilted>0</tilted></feature>
            <threshold>8.3117687609046698e-005</threshold>
            <left_val>-0.2267201989889145</left_val>
            <right_val>0.3107332885265350</right_val></_></_>
        <_>
          <_>
            <feature>
              <rects>
                <_>
                  10 4 2 5 -1.</_>
                <_>
                  10 4 1 5 2.</_></rects>
              <tilted>1</tilted></feature>
            <threshold>-1.8975510101881810e-005</threshold>
            <left_val>0.3495726883411408</left_val>
            <right_val>-0.3872986137866974</right_val></_></_>
        <_>
          <_>
            <feature>
              <rects>
                <_>
                  10 2 8 3 -1.</_>
                <_>
                  10 2 4 3 2.</_></rects>
              <tilted>0</tilted></feature>
            <threshold>5.4063489660620689e-003</threshold>
            <left_val>-0.2227541953325272</left_val>
            <right_val>0.2973437905311585</right_val></_></_>
        <_>
          <_>
            <feature>
              <rects>
                <_>
                  10 3 6 8 -1.</_>
                <_>
                  12 5 2 8 3.</_></rects>
              <tilted>1</tilted></feature>
            <threshold>-7.3927589692175388e-003</threshold>
            <left_val>0.3696415126323700</left_val>
            <right_val>-0.3435882925987244</right_val></_></_>
        <_>
          <_>
            <feature>
              <rects>
                <_>
                  16 9 1 6 -1.</_>
                <_>
                  14 11 1 2 3.</_></rects>
              <tilted>1</tilted></feature>
            <threshold>-2.8734839361277409e-005</threshold>
            <left_val>0.2129316926002502</left_val>
            <right_val>-0.1492380946874619</right_val></_></_>
        <_>
          <_>
            <feature>
              <rects>
                <_>
                  4 9 6 1 -1.</_>
                <_>
                  6 11 2 1 3.</_></rects>
              <tilted>1</tilted></feature>
            <threshold>3.7417528801597655e-005</threshold>
            <left_val>-0.2841530144214630</left_val>
            <right_val>0.3516322970390320</right_val></_></_>
        <_>
          <_>
            <feature>
              <rects>
                <_>
                  12 11 4 3 -1.</_>
                <_>
                  12 12 4 1 3.</_></rects>
              <tilted>0</tilted></feature>
            <threshold>2.0884079276584089e-005</threshold>
            <left_val>-0.2833665013313294</left_val>
            <right_val>0.1702048033475876</right_val></_></_>
        <_>
          <_>
            <feature>
              <rects>
                <_>
                  4 11 4 3 -1.</_>
                <_>
                  4 12 4 1 3.</_></rects>
              <tilted>0</tilted></feature>
            <threshold>-2.1856689272681251e-005</threshold>
            <left_val>0.3596662878990173</left_val>
            <right_val>-0.3805455863475800</right_val></_></_>
        <_>
          <_>
            <feature>
              <rects>
                <_>
                  17 1 3 4 -1.</_>
                <_>
                  17 2 3 2 2.</_></rects>
              <tilted>0</tilted></feature>
            <threshold>-7.8808683902025223e-003</threshold>
            <left_val>0.6479976773262024</left_val>
            <right_val>-0.1036963015794754</right_val></_></_>
        <_>
          <_>
            <feature>
              <rects>
                <_>
                  0 1 3 4 -1.</_>
                <_>
                  0 2 3 2 2.</_></rects>
              <tilted>0</tilted></feature>
            <threshold>3.3940719440579414e-003</threshold>
            <left_val>-0.1829946935176849</left_val>
            <right_val>0.5113099217414856</right_val></_></_>
        <_>
          <_>
            <feature>
              <rects>
                <_>
                  16 5 2 8 -1.</_>
                <_>
                  16 9 2 4 2.</_></rects>
              <tilted>0</tilted></feature>
            <threshold>-9.3272076919674873e-003</threshold>
            <left_val>0.2875604033470154</left_val>
            <right_val>-0.2123679071664810</right_val></_></_>
        <_>
          <_>
            <feature>
              <rects>
                <_>
                  2 5 2 8 -1.</_>
                <_>
                  2 9 2 4 2.</_></rects>
              <tilted>0</tilted></feature>
            <threshold>6.7106040660291910e-005</threshold>
            <left_val>-0.3127518892288208</left_val>
            <right_val>0.3700020909309387</right_val></_></_>
        <_>
          <_>
            <feature>
              <rects>
                <_>
                  16 10 4 2 -1.</_>
                <_>
                  16 11 4 1 2.</_></rects>
              <tilted>0</tilted></feature>
            <threshold>2.1926969566266052e-005</threshold>
            <left_val>-0.2836137115955353</left_val>
            <right_val>0.1758181005716324</right_val></_></_>
        <_>
          <_>
            <feature>
              <rects>
                <_>
                  2 6 2 8 -1.</_>
                <_>
                  2 10 2 4 2.</_></rects>
              <tilted>0</tilted></feature>
            <threshold>-2.7780569507740438e-004</threshold>
            <left_val>0.4277211129665375</left_val>
            <right_val>-0.3872989118099213</right_val></_></_>
        <_>
          <_>
            <feature>
              <rects>
                <_>
                  16 6 2 8 -1.</_>
                <_>
                  16 10 2 4 2.</_></rects>
              <tilted>0</tilted></feature>
            <threshold>3.2572159398114309e-005</threshold>
            <left_val>-0.1936428993940353</left_val>
            <right_val>0.2718166112899780</right_val></_></_>
        <_>
          <_>
            <feature>
              <rects>
                <_>
                  2 4 14 14 -1.</_>
                <_>
                  2 4 7 7 2.</_>
                <_>
                  9 11 7 7 2.</_></rects>
              <tilted>0</tilted></feature>
            <threshold>-1.3047289394307882e-004</threshold>
            <left_val>0.3725149929523468</left_val>
            <right_val>-0.4537324905395508</right_val></_></_>
        <_>
          <_>
            <feature>
              <rects>
                <_>
                  5 4 12 14 -1.</_>
                <_>
                  11 4 6 7 2.</_>
                <_>
                  5 11 6 7 2.</_></rects>
              <tilted>0</tilted></feature>
            <threshold>-2.3370690178126097e-004</threshold>
            <left_val>0.3388111889362335</left_val>
            <right_val>-0.2789036929607391</right_val></_></_>
        <_>
          <_>
            <feature>
              <rects>
                <_>
                  1 12 18 8 -1.</_>
                <_>
                  7 12 6 8 3.</_></rects>
              <tilted>0</tilted></feature>
            <threshold>0.0336063504219055</threshold>
            <left_val>-0.2518995106220245</left_val>
            <right_val>0.4035528898239136</right_val></_></_>
        <_>
          <_>
            <feature>
              <rects>
                <_>
                  11 9 5 2 -1.</_>
                <_>
                  11 10 5 1 2.</_></rects>
              <tilted>0</tilted></feature>
            <threshold>2.0092809791094624e-005</threshold>
            <left_val>-0.2589403986930847</left_val>
            <right_val>0.1213715001940727</right_val></_></_>
        <_>
          <_>
            <feature>
              <rects>
                <_>
                  0 18 20 2 -1.</_>
                <_>
                  5 18 10 2 2.</_></rects>
              <tilted>0</tilted></feature>
            <threshold>-2.3042750399326906e-005</threshold>
            <left_val>0.3612996041774750</left_val>
            <right_val>-0.3727749884128571</right_val></_></_>
        <_>
          <_>
            <feature>
              <rects>
                <_>
                  17 12 2 4 -1.</_>
                <_>
                  17 12 1 4 2.</_></rects>
              <tilted>1</tilted></feature>
            <threshold>6.3828349811956286e-004</threshold>
            <left_val>-0.1952849030494690</left_val>
            <right_val>0.2345388978719711</right_val></_></_>
        <_>
          <_>
            <feature>
              <rects>
                <_>
                  3 12 4 2 -1.</_>
                <_>
                  3 12 4 1 2.</_></rects>
              <tilted>1</tilted></feature>
            <threshold>1.8613379506859928e-004</threshold>
            <left_val>-0.4104819893836975</left_val>
            <right_val>0.2928580939769745</right_val></_></_>
        <_>
          <_>
            <feature>
              <rects>
                <_>
                  16 9 2 9 -1.</_>
                <_>
                  13 12 2 3 3.</_></rects>
              <tilted>1</tilted></feature>
            <threshold>-0.0128409601747990</threshold>
            <left_val>0.3651306927204132</left_val>
            <right_val>-0.3024311065673828</right_val></_></_>
        <_>
          <_>
            <feature>
              <rects>
                <_>
                  0 11 12 5 -1.</_>
                <_>
                  4 11 4 5 3.</_></rects>
              <tilted>0</tilted></feature>
            <threshold>-3.9357580244541168e-003</threshold>
            <left_val>0.4588401913642883</left_val>
            <right_val>-0.3162960112094879</right_val></_></_>
        <_>
          <_>
            <feature>
              <rects>
                <_>
                  10 1 9 16 -1.</_>
                <_>
                  13 1 3 16 3.</_></rects>
              <tilted>0</tilted></feature>
            <threshold>-0.0746635869145393</threshold>
            <left_val>0.5333178043365479</left_val>
            <right_val>-0.1003480032086372</right_val></_></_>
        <_>
          <_>
            <feature>
              <rects>
                <_>
                  1 1 9 16 -1.</_>
                <_>
                  4 1 3 16 3.</_></rects>
              <tilted>0</tilted></feature>
            <threshold>0.0465557090938091</threshold>
            <left_val>-0.2025061994791031</left_val>
            <right_val>0.5251780152320862</right_val></_></_>
        <_>
          <_>
            <feature>
              <rects>
                <_>
                  15 0 1 15 -1.</_>
                <_>
                  15 5 1 5 3.</_></rects>
              <tilted>0</tilted></feature>
            <threshold>5.4709740652469918e-005</threshold>
            <left_val>-0.2281243056058884</left_val>
            <right_val>0.2229216992855072</right_val></_></_>
        <_>
          <_>
            <feature>
              <rects>
                <_>
                  2 1 16 16 -1.</_>
                <_>
                  2 5 16 8 2.</_></rects>
              <tilted>0</tilted></feature>
            <threshold>-7.5887460261583328e-003</threshold>
            <left_val>0.3576217889785767</left_val>
            <right_val>-0.5236284732818604</right_val></_></_>
        <_>
          <_>
            <feature>
              <rects>
                <_>
                  6 1 12 18 -1.</_>
                <_>
                  6 7 12 6 3.</_></rects>
              <tilted>0</tilted></feature>
            <threshold>0.0545732714235783</threshold>
            <left_val>-0.2206790000200272</left_val>
            <right_val>0.5199769139289856</right_val></_></_>
        <_>
          <_>
            <feature>
              <rects>
                <_>
                  10 3 10 1 -1.</_>
                <_>
                  10 3 5 1 2.</_></rects>
              <tilted>1</tilted></feature>
            <threshold>1.4825140533503145e-004</threshold>
            <left_val>-0.5049492120742798</left_val>
            <right_val>0.2934924960136414</right_val></_></_>
        <_>
          <_>
            <feature>
              <rects>
                <_>
                  2 5 18 6 -1.</_>
                <_>
                  8 7 6 2 9.</_></rects>
              <tilted>0</tilted></feature>
            <threshold>-0.0132868802174926</threshold>
            <left_val>0.2886421978473663</left_val>
            <right_val>-0.4319181144237518</right_val></_></_>
        <_>
          <_>
            <feature>
              <rects>
                <_>
                  3 7 10 2 -1.</_>
                <_>
                  8 7 5 2 2.</_></rects>
              <tilted>0</tilted></feature>
            <threshold>2.3716720534139313e-005</threshold>
            <left_val>-0.4184744060039520</left_val>
            <right_val>0.4568848907947540</right_val></_></_>
        <_>
          <_>
            <feature>
              <rects>
                <_>
                  11 10 1 2 -1.</_>
                <_>
                  11 11 1 1 2.</_></rects>
              <tilted>0</tilted></feature>
            <threshold>2.1876290702493861e-005</threshold>
            <left_val>-0.3867250084877014</left_val>
            <right_val>0.2378229051828384</right_val></_></_>
        <_>
          <_>
            <feature>
              <rects>
                <_>
                  8 10 4 2 -1.</_>
                <_>
                  8 10 2 1 2.</_>
                <_>
                  10 11 2 1 2.</_></rects>
              <tilted>0</tilted></feature>
            <threshold>-2.6258290745317936e-005</threshold>
            <left_val>0.5624033212661743</left_val>
            <right_val>-0.5390715003013611</right_val></_></_>
        <_>
          <_>
            <feature>
              <rects>
                <_>
                  9 1 2 10 -1.</_>
                <_>
                  9 1 1 10 2.</_></rects>
              <tilted>0</tilted></feature>
            <threshold>2.1856689272681251e-005</threshold>
            <left_val>-0.3594655990600586</left_val>
            <right_val>0.5558434128761292</right_val></_></_>
        <_>
          <_>
            <feature>
              <rects>
                <_>
                  9 1 2 10 -1.</_>
                <_>
                  10 1 1 10 2.</_></rects>
              <tilted>0</tilted></feature>
            <threshold>1.8166860172641464e-005</threshold>
            <left_val>-0.5610415935516357</left_val>
            <right_val>0.4040887057781220</right_val></_></_>
        <_>
          <_>
            <feature>
              <rects>
                <_>
                  9 1 2 10 -1.</_>
                <_>
                  9 1 1 10 2.</_></rects>
              <tilted>0</tilted></feature>
            <threshold>2.1856689272681251e-005</threshold>
            <left_val>-0.6297854185104370</left_val>
            <right_val>0.5679147243499756</right_val></_></_>
        <_>
          <_>
            <feature>
              <rects>
                <_>
                  9 1 2 10 -1.</_>
                <_>
                  10 1 1 10 2.</_></rects>
              <tilted>0</tilted></feature>
            <threshold>2.8916459996253252e-005</threshold>
            <left_val>-0.7901697158813477</left_val>
            <right_val>0.5967289209365845</right_val></_></_>
        <_>
          <_>
            <feature>
              <rects>
                <_>
                  9 1 2 10 -1.</_>
                <_>
                  9 1 1 10 2.</_></rects>
              <tilted>0</tilted></feature>
            <threshold>2.1856689272681251e-005</threshold>
            <left_val>-0.8575484752655029</left_val>
            <right_val>0.7466143965721130</right_val></_></_>
        <_>
          <_>
            <feature>
              <rects>
                <_>
                  9 1 2 10 -1.</_>
                <_>
                  10 1 1 10 2.</_></rects>
              <tilted>0</tilted></feature>
            <threshold>3.2548770832363516e-005</threshold>
            <left_val>-0.9504770040512085</left_val>
            <right_val>0.8442351222038269</right_val></_></_>
        <_>
          <_>
            <feature>
              <rects>
                <_>
                  9 1 2 10 -1.</_>
                <_>
                  9 1 1 10 2.</_></rects>
              <tilted>0</tilted></feature>
            <threshold>5.5679018259979784e-005</threshold>
            <left_val>-0.9859154224395752</left_val>
            <right_val>1.</right_val></_></_>
        <_>
          <_>
            <feature>
              <rects>
                <_>
                  0 0 2 1 -1.</_>
                <_>
                  1 0 1 1 2.</_></rects>
              <tilted>0</tilted></feature>
            <threshold>0.</threshold>
            <left_val>0.</left_val>
            <right_val>-1.</right_val></_></_>
        <_>
          <_>
            <feature>
              <rects>
                <_>
                  9 1 2 10 -1.</_>
                <_>
                  9 1 1 10 2.</_></rects>
              <tilted>0</tilted></feature>
            <threshold>-3.2548770832363516e-005</threshold>
            <left_val>0.9920995235443115</left_val>
            <right_val>-0.9654260873794556</right_val></_></_>
        <_>
          <_>
            <feature>
              <rects>
                <_>
                  1 0 18 10 -1.</_>
                <_>
                  1 5 18 5 2.</_></rects>
              <tilted>0</tilted></feature>
            <threshold>-2.6813699150807224e-005</threshold>
            <left_val>0.8654369115829468</left_val>
            <right_val>-0.8961641788482666</right_val></_></_>
        <_>
          <_>
            <feature>
              <rects>
                <_>
                  17 1 3 6 -1.</_>
                <_>
                  17 1 3 3 2.</_></rects>
              <tilted>1</tilted></feature>
            <threshold>-3.8533820770680904e-005</threshold>
            <left_val>0.6126425862312317</left_val>
            <right_val>-0.6115229725837708</right_val></_></_>
        <_>
          <_>
            <feature>
              <rects>
                <_>
                  9 5 2 6 -1.</_>
                <_>
                  10 5 1 6 2.</_></rects>
              <tilted>0</tilted></feature>
            <threshold>-2.1454539819387719e-005</threshold>
            <left_val>0.8346927762031555</left_val>
            <right_val>-0.4948742985725403</right_val></_></_>
        <_>
          <_>
            <feature>
              <rects>
                <_>
                  12 2 6 12 -1.</_>
                <_>
                  12 2 3 12 2.</_></rects>
              <tilted>1</tilted></feature>
            <threshold>-1.2478760618250817e-004</threshold>
            <left_val>0.5706382989883423</left_val>
            <right_val>-0.2069004029035568</right_val></_></_>
        <_>
          <_>
            <feature>
              <rects>
                <_>
                  8 2 12 6 -1.</_>
                <_>
                  8 2 12 3 2.</_></rects>
              <tilted>1</tilted></feature>
            <threshold>-4.8501900892006233e-005</threshold>
            <left_val>0.7510390877723694</left_val>
            <right_val>-0.3916581869125366</right_val></_></_>
        <_>
          <_>
            <feature>
              <rects>
                <_>
                  1 0 18 3 -1.</_>
                <_>
                  1 1 18 1 3.</_></rects>
              <tilted>0</tilted></feature>
            <threshold>-7.7836908167228103e-004</threshold>
            <left_val>0.5443143248558044</left_val>
            <right_val>-0.4014216065406799</right_val></_></_>
        <_>
          <_>
            <feature>
              <rects>
                <_>
                  0 0 2 1 -1.</_>
                <_>
                  1 0 1 1 2.</_></rects>
              <tilted>0</tilted></feature>
            <threshold>1.8965269191539846e-005</threshold>
            <left_val>-0.3599598109722138</left_val>
            <right_val>0.5492628812789917</right_val></_></_>
        <_>
          <_>
            <feature>
              <rects>
                <_>
                  8 0 11 15 -1.</_>
                <_>
                  8 5 11 5 3.</_></rects>
              <tilted>0</tilted></feature>
            <threshold>0.0131074795499444</threshold>
            <left_val>-0.2981571853160858</left_val>
            <right_val>0.4618315100669861</right_val></_></_>
        <_>
          <_>
            <feature>
              <rects>
                <_>
                  0 14 8 4 -1.</_>
                <_>
                  0 16 8 2 2.</_></rects>
              <tilted>0</tilted></feature>
            <threshold>-1.9352020171936601e-004</threshold>
            <left_val>0.4905379116535187</left_val>
            <right_val>-0.5773385167121887</right_val></_></_>
        <_>
          <_>
            <feature>
              <rects>
                <_>
                  4 12 16 4 -1.</_>
                <_>
                  8 12 8 4 2.</_></rects>
              <tilted>0</tilted></feature>
            <threshold>-2.1319389634300023e-004</threshold>
            <left_val>0.3648974895477295</left_val>
            <right_val>-0.2533212006092072</right_val></_></_>
        <_>
          <_>
            <feature>
              <rects>
                <_>
                  9 9 8 2 -1.</_>
                <_>
                  9 9 8 1 2.</_></rects>
              <tilted>1</tilted></feature>
            <threshold>2.1920991130173206e-003</threshold>
            <left_val>-0.3876532018184662</left_val>
            <right_val>0.5230587124824524</right_val></_></_>
        <_>
          <_>
            <feature>
              <rects>
                <_>
                  7 14 12 6 -1.</_>
                <_>
                  7 16 12 2 3.</_></rects>
              <tilted>0</tilted></feature>
            <threshold>4.4549750164151192e-003</threshold>
            <left_val>-0.4002859890460968</left_val>
            <right_val>0.3153522014617920</right_val></_></_>
        <_>
          <_>
            <feature>
              <rects>
                <_>
                  4 7 1 12 -1.</_>
                <_>
                  4 11 1 4 3.</_></rects>
              <tilted>0</tilted></feature>
            <threshold>-3.5782379563897848e-004</threshold>
            <left_val>0.5426623821258545</left_val>
            <right_val>-0.5282611250877380</right_val></_></_>
        <_>
          <_>
            <feature>
              <rects>
                <_>
                  13 7 5 4 -1.</_>
                <_>
                  13 9 5 2 2.</_></rects>
              <tilted>0</tilted></feature>
            <threshold>6.6438820795156062e-005</threshold>
            <left_val>-0.2583937942981720</left_val>
            <right_val>0.3342581987380981</right_val></_></_>
        <_>
          <_>
            <feature>
              <rects>
                <_>
                  2 7 5 4 -1.</_>
                <_>
                  2 9 5 2 2.</_></rects>
              <tilted>0</tilted></feature>
            <threshold>5.4113852092996240e-004</threshold>
            <left_val>-0.5129008293151856</left_val>
            <right_val>0.5086525082588196</right_val></_></_>
        <_>
          <_>
            <feature>
              <rects>
                <_>
                  9 7 7 4 -1.</_>
                <_>
                  9 9 7 2 2.</_></rects>
              <tilted>0</tilted></feature>
            <threshold>-3.3009870094247162e-005</threshold>
            <left_val>0.3097195029258728</left_val>
            <right_val>-0.5526010990142822</right_val></_></_>
        <_>
          <_>
            <feature>
              <rects>
                <_>
                  10 10 8 1 -1.</_>
                <_>
                  12 12 4 1 2.</_></rects>
              <tilted>1</tilted></feature>
            <threshold>1.6098399646580219e-004</threshold>
            <left_val>-0.4723260998725891</left_val>
            <right_val>0.6076859831809998</right_val></_></_>
        <_>
          <_>
            <feature>
              <rects>
                <_>
                  5 4 12 9 -1.</_>
                <_>
                  5 7 12 3 3.</_></rects>
              <tilted>0</tilted></feature>
            <threshold>-1.6138060018420219e-003</threshold>
            <left_val>0.3230468928813934</left_val>
            <right_val>-0.7289112210273743</right_val></_></_>
        <_>
          <_>
            <feature>
              <rects>
                <_>
                  3 3 4 1 -1.</_>
                <_>
                  3 3 2 1 2.</_></rects>
              <tilted>1</tilted></feature>
            <threshold>-4.3388179619796574e-005</threshold>
            <left_val>0.5258107781410217</left_val>
            <right_val>-0.4835866093635559</right_val></_></_>
        <_>
          <_>
            <feature>
              <rects>
                <_>
                  4 2 12 2 -1.</_>
                <_>
                  4 3 12 1 2.</_></rects>
              <tilted>0</tilted></feature>
            <threshold>-5.5574670113855973e-005</threshold>
            <left_val>0.4265671074390411</left_val>
            <right_val>-0.4394043982028961</right_val></_></_>
        <_>
          <_>
            <feature>
              <rects>
                <_>
                  3 3 3 12 -1.</_>
                <_>
                  4 7 1 4 9.</_></rects>
              <tilted>0</tilted></feature>
            <threshold>-2.6386260287836194e-004</threshold>
            <left_val>0.3692502081394196</left_val>
            <right_val>-0.3709692955017090</right_val></_></_>
        <_>
          <_>
            <feature>
              <rects>
                <_>
                  8 0 12 15 -1.</_>
                <_>
                  8 5 12 5 3.</_></rects>
              <tilted>0</tilted></feature>
            <threshold>0.1672206968069077</threshold>
            <left_val>-0.0615953095257282</left_val>
            <right_val>0.6663004159927368</right_val></_></_>
        <_>
          <_>
            <feature>
              <rects>
                <_>
                  4 12 2 4 -1.</_>
                <_>
                  3 13 2 2 2.</_></rects>
              <tilted>1</tilted></feature>
            <threshold>-3.7131778663024306e-004</threshold>
            <left_val>0.3447788059711456</left_val>
            <right_val>-0.4102083146572113</right_val></_></_>
        <_>
          <_>
            <feature>
              <rects>
                <_>
                  13 2 2 4 -1.</_>
                <_>
                  13 3 2 2 2.</_></rects>
              <tilted>0</tilted></feature>
            <threshold>1.9278659237897955e-005</threshold>
            <left_val>-0.1912747025489807</left_val>
            <right_val>0.2233725935220718</right_val></_></_>
        <_>
          <_>
            <feature>
              <rects>
                <_>
                  5 2 2 4 -1.</_>
                <_>
                  5 3 2 2 2.</_></rects>
              <tilted>0</tilted></feature>
            <threshold>2.9066070055705495e-005</threshold>
            <left_val>-0.3698849081993103</left_val>
            <right_val>0.4127725064754486</right_val></_></_>
        <_>
          <_>
            <feature>
              <rects>
                <_>
                  13 3 3 15 -1.</_>
                <_>
                  14 3 1 15 3.</_></rects>
              <tilted>0</tilted></feature>
            <threshold>-4.7079109208425507e-005</threshold>
            <left_val>0.1942560970783234</left_val>
            <right_val>-0.3473607897758484</right_val></_></_>
        <_>
          <_>
            <feature>
              <rects>
                <_>
                  4 11 3 6 -1.</_>
                <_>
                  5 11 1 6 3.</_></rects>
              <tilted>0</tilted></feature>
            <threshold>-2.5666769943200052e-004</threshold>
            <left_val>0.4692794084548950</left_val>
            <right_val>-0.3260872960090637</right_val></_></_>
        <_>
          <_>
            <feature>
              <rects>
                <_>
                  11 3 9 8 -1.</_>
                <_>
                  11 5 9 4 2.</_></rects>
              <tilted>0</tilted></feature>
            <threshold>-0.0519888810813427</threshold>
            <left_val>0.5602468252182007</left_val>
            <right_val>-0.0533071495592594</right_val></_></_>
        <_>
          <_>
            <feature>
              <rects>
                <_>
                  0 3 9 8 -1.</_>
                <_>
                  0 5 9 4 2.</_></rects>
              <tilted>0</tilted></feature>
            <threshold>0.0196953006088734</threshold>
            <left_val>-0.1825204044580460</left_val>
            <right_val>0.7768846154212952</right_val></_></_>
        <_>
          <_>
            <feature>
              <rects>
                <_>
                  4 0 12 3 -1.</_>
                <_>
                  4 1 12 1 3.</_></rects>
              <tilted>0</tilted></feature>
            <threshold>5.5428841151297092e-003</threshold>
            <left_val>-0.3804543018341065</left_val>
            <right_val>0.5730593204498291</right_val></_></_>
        <_>
          <_>
            <feature>
              <rects>
                <_>
                  4 5 3 1 -1.</_>
                <_>
                  5 5 1 1 3.</_></rects>
              <tilted>0</tilted></feature>
            <threshold>-2.0237670469214208e-005</threshold>
            <left_val>0.4223591983318329</left_val>
            <right_val>-0.6058189868927002</right_val></_></_>
        <_>
          <_>
            <feature>
              <rects>
                <_>
                  8 3 4 15 -1.</_>
                <_>
                  9 3 2 15 2.</_></rects>
              <tilted>0</tilted></feature>
            <threshold>3.2233638921752572e-004</threshold>
            <left_val>-0.3946419060230255</left_val>
            <right_val>0.5375468134880066</right_val></_></_>
        <_>
          <_>
            <feature>
              <rects>
                <_>
                  2 0 16 16 -1.</_>
                <_>
                  2 8 16 8 2.</_></rects>
              <tilted>0</tilted></feature>
            <threshold>-1.3941760407760739e-003</threshold>
            <left_val>0.3088522851467133</left_val>
            <right_val>-0.6853203177452087</right_val></_></_>
        <_>
          <_>
            <feature>
              <rects>
                <_>
                  6 2 13 10 -1.</_>
                <_>
                  6 7 13 5 2.</_></rects>
              <tilted>0</tilted></feature>
            <threshold>5.5856060498626903e-005</threshold>
            <left_val>-0.2909359931945801</left_val>
            <right_val>0.6402183175086975</right_val></_></_>
        <_>
          <_>
            <feature>
              <rects>
                <_>
                  6 5 4 2 -1.</_>
                <_>
                  8 5 2 2 2.</_></rects>
              <tilted>0</tilted></feature>
            <threshold>-6.3917337683960795e-005</threshold>
            <left_val>0.5208116173744202</left_val>
            <right_val>-0.5255147814750671</right_val></_></_>
        <_>
          <_>
            <feature>
              <rects>
                <_>
                  15 8 3 12 -1.</_>
                <_>
                  15 11 3 6 2.</_></rects>
              <tilted>0</tilted></feature>
            <threshold>4.7456141328439116e-004</threshold>
            <left_val>-0.2535935044288635</left_val>
            <right_val>0.3184134960174561</right_val></_></_>
        <_>
          <_>
            <feature>
              <rects>
                <_>
                  3 5 8 10 -1.</_>
                <_>
                  3 5 4 5 2.</_>
                <_>
                  7 10 4 5 2.</_></rects>
              <tilted>0</tilted></feature>
            <threshold>-1.4458229998126626e-004</threshold>
            <left_val>0.3992125988006592</left_val>
            <right_val>-0.5704451203346252</right_val></_></_>
        <_>
          <_>
            <feature>
              <rects>
                <_>
                  10 11 8 3 -1.</_>
                <_>
                  10 12 8 1 3.</_></rects>
              <tilted>0</tilted></feature>
            <threshold>-1.9278659237897955e-005</threshold>
            <left_val>0.3789659142494202</left_val>
            <right_val>-0.2286282032728195</right_val></_></_>
        <_>
          <_>
            <feature>
              <rects>
                <_>
                  0 3 3 12 -1.</_>
                <_>
                  1 7 1 4 9.</_></rects>
              <tilted>0</tilted></feature>
            <threshold>-5.5052558891475201e-003</threshold>
            <left_val>0.4718894064426422</left_val>
            <right_val>-0.3036974072456360</right_val></_></_>
        <_>
          <_>
            <feature>
              <rects>
                <_>
                  17 1 2 10 -1.</_>
                <_>
                  18 1 1 5 2.</_>
                <_>
                  17 6 1 5 2.</_></rects>
              <tilted>0</tilted></feature>
            <threshold>-1.0486129758646712e-004</threshold>
            <left_val>0.1530700027942658</left_val>
            <right_val>-0.1376508027315140</right_val></_></_>
        <_>
          <_>
            <feature>
              <rects>
                <_>
                  1 5 15 6 -1.</_>
                <_>
                  6 7 5 2 9.</_></rects>
              <tilted>0</tilted></feature>
            <threshold>-4.9623302184045315e-003</threshold>
            <left_val>0.3711777031421661</left_val>
            <right_val>-0.3229790925979614</right_val></_></_>
        <_>
          <_>
            <feature>
              <rects>
                <_>
                  10 5 3 10 -1.</_>
                <_>
                  10 5 3 5 2.</_></rects>
              <tilted>1</tilted></feature>
            <threshold>0.0422088801860809</threshold>
            <left_val>-0.1479786932468414</left_val>
            <right_val>0.3711167871952057</right_val></_></_>
        <_>
          <_>
            <feature>
              <rects>
                <_>
                  1 6 18 13 -1.</_>
                <_>
                  10 6 9 13 2.</_></rects>
              <tilted>0</tilted></feature>
            <threshold>-0.0242108702659607</threshold>
            <left_val>0.3516497015953064</left_val>
            <right_val>-0.3484160900115967</right_val></_></_>
        <_>
          <_>
            <feature>
              <rects>
                <_>
                  16 0 4 12 -1.</_>
                <_>
                  16 4 4 4 3.</_></rects>
              <tilted>0</tilted></feature>
            <threshold>-0.0580226294696331</threshold>
            <left_val>0.4993501901626587</left_val>
            <right_val>-0.1138880029320717</right_val></_></_>
        <_>
          <_>
            <feature>
              <rects>
                <_>
                  5 10 2 8 -1.</_>
                <_>
                  5 10 1 4 2.</_>
                <_>
                  6 14 1 4 2.</_></rects>
              <tilted>0</tilted></feature>
            <threshold>-2.4360400857403874e-005</threshold>
            <left_val>0.3373020887374878</left_val>
            <right_val>-0.2958970069885254</right_val></_></_></trees>
      <stage_threshold>-1.8465780019760132</stage_threshold>
      <parent>0</parent>
      <next>-1</next></_>
    <_>
      <trees>
        <_>
          <_>
            <feature>
              <rects>
                <_>
                  0 2 20 10 -1.</_>
                <_>
                  5 2 10 10 2.</_></rects>
              <tilted>0</tilted></feature>
            <threshold>0.2071485966444016</threshold>
            <left_val>-0.2568559050559998</left_val>
            <right_val>0.6344997286796570</right_val></_></_>
        <_>
          <_>
            <feature>
              <rects>
                <_>
                  1 10 18 9 -1.</_>
                <_>
                  7 13 6 3 9.</_></rects>
              <tilted>0</tilted></feature>
            <threshold>0.3153100907802582</threshold>
            <left_val>-0.1168636009097099</left_val>
            <right_val>0.5179017782211304</right_val></_></_>
        <_>
          <_>
            <feature>
              <rects>
                <_>
                  0 0 19 8 -1.</_>
                <_>
                  0 4 19 4 2.</_></rects>
              <tilted>0</tilted></feature>
            <threshold>-0.0573599599301815</threshold>
            <left_val>0.1871553063392639</left_val>
            <right_val>-0.3668313026428223</right_val></_></_>
        <_>
          <_>
            <feature>
              <rects>
                <_>
                  4 6 16 12 -1.</_>
                <_>
                  4 12 16 6 2.</_></rects>
              <tilted>0</tilted></feature>
            <threshold>0.1895830929279327</threshold>
            <left_val>0.1119853034615517</left_val>
            <right_val>-0.5811805725097656</right_val></_></_>
        <_>
          <_>
            <feature>
              <rects>
                <_>
                  4 9 5 4 -1.</_>
                <_>
                  4 11 5 2 2.</_></rects>
              <tilted>0</tilted></feature>
            <threshold>-5.8574019931256771e-003</threshold>
            <left_val>-0.4065648913383484</left_val>
            <right_val>0.1635801941156387</right_val></_></_>
        <_>
          <_>
            <feature>
              <rects>
                <_>
                  3 15 17 3 -1.</_>
                <_>
                  3 16 17 1 3.</_></rects>
              <tilted>0</tilted></feature>
            <threshold>-0.0122617697343230</threshold>
            <left_val>0.3866342902183533</left_val>
            <right_val>-0.1183091998100281</right_val></_></_>
        <_>
          <_>
            <feature>
              <rects>
                <_>
                  8 10 2 4 -1.</_>
                <_>
                  8 10 1 2 2.</_>
                <_>
                  9 12 1 2 2.</_></rects>
              <tilted>0</tilted></feature>
            <threshold>-1.5033349627628922e-003</threshold>
            <left_val>-0.4276031851768494</left_val>
            <right_val>0.1209534034132958</right_val></_></_>
        <_>
          <_>
            <feature>
              <rects>
                <_>
                  6 17 10 3 -1.</_>
                <_>
                  6 18 10 1 3.</_></rects>
              <tilted>0</tilted></feature>
            <threshold>-0.0160868093371391</threshold>
            <left_val>0.4767814874649048</left_val>
            <right_val>-0.0775054991245270</right_val></_></_>
        <_>
          <_>
            <feature>
              <rects>
                <_>
                  6 16 8 3 -1.</_>
                <_>
                  6 17 8 1 3.</_></rects>
              <tilted>0</tilted></feature>
            <threshold>-0.0103341201320291</threshold>
            <left_val>0.4408183991909027</left_val>
            <right_val>-0.1213011965155602</right_val></_></_>
        <_>
          <_>
            <feature>
              <rects>
                <_>
                  10 3 10 10 -1.</_>
                <_>
                  15 3 5 5 2.</_>
                <_>
                  10 8 5 5 2.</_></rects>
              <tilted>0</tilted></feature>
            <threshold>-0.0661311596632004</threshold>
            <left_val>0.3457733988761902</left_val>
            <right_val>-0.0866016373038292</right_val></_></_>
        <_>
          <_>
            <feature>
              <rects>
                <_>
                  0 18 12 2 -1.</_>
                <_>
                  0 18 6 1 2.</_>
                <_>
                  6 19 6 1 2.</_></rects>
              <tilted>0</tilted></feature>
            <threshold>-7.1116108447313309e-003</threshold>
            <left_val>0.4306482076644898</left_val>
            <right_val>-0.1315529942512512</right_val></_></_>
        <_>
          <_>
            <feature>
              <rects>
                <_>
                  10 10 9 2 -1.</_>
                <_>
                  10 11 9 1 2.</_></rects>
              <tilted>0</tilted></feature>
            <threshold>-5.2790092304348946e-003</threshold>
            <left_val>-0.2976449131965637</left_val>
            <right_val>0.1037444993853569</right_val></_></_>
        <_>
          <_>
            <feature>
              <rects>
                <_>
                  0 3 10 10 -1.</_>
                <_>
                  0 3 5 5 2.</_>
                <_>
                  5 8 5 5 2.</_></rects>
              <tilted>0</tilted></feature>
            <threshold>-0.0763914063572884</threshold>
            <left_val>0.5067778825759888</left_val>
            <right_val>-0.1347686052322388</right_val></_></_>
        <_>
          <_>
            <feature>
              <rects>
                <_>
                  10 8 1 6 -1.</_>
                <_>
                  10 10 1 2 3.</_></rects>
              <tilted>0</tilted></feature>
            <threshold>-4.6099028550088406e-003</threshold>
            <left_val>-0.3602328002452850</left_val>
            <right_val>0.1244748011231422</right_val></_></_>
        <_>
          <_>
            <feature>
              <rects>
                <_>
                  9 3 3 2 -1.</_>
                <_>
                  10 4 1 2 3.</_></rects>
              <tilted>1</tilted></feature>
            <threshold>-8.0415569245815277e-003</threshold>
            <left_val>-0.6442549228668213</left_val>
            <right_val>0.0732206925749779</right_val></_></_>
        <_>
          <_>
            <feature>
              <rects>
                <_>
                  10 5 1 2 -1.</_>
                <_>
                  10 5 1 1 2.</_></rects>
              <tilted>1</tilted></feature>
            <threshold>-3.5592080093920231e-003</threshold>
            <left_val>-0.4716454148292542</left_val>
            <right_val>0.0269898790866137</right_val></_></_>
        <_>
          <_>
            <feature>
              <rects>
                <_>
                  10 5 2 1 -1.</_>
                <_>
                  10 5 1 1 2.</_></rects>
              <tilted>1</tilted></feature>
            <threshold>2.1048889029771090e-003</threshold>
            <left_val>0.1677816957235336</left_val>
            <right_val>-0.4270260035991669</right_val></_></_>
        <_>
          <_>
            <feature>
              <rects>
                <_>
                  17 19 2 1 -1.</_>
                <_>
                  17 19 1 1 2.</_></rects>
              <tilted>0</tilted></feature>
            <threshold>5.3684308659285307e-004</threshold>
            <left_val>0.0909029096364975</left_val>
            <right_val>-0.2324717044830322</right_val></_></_>
        <_>
          <_>
            <feature>
              <rects>
                <_>
                  1 19 2 1 -1.</_>
                <_>
                  2 19 1 1 2.</_></rects>
              <tilted>0</tilted></feature>
            <threshold>5.9223867719992995e-004</threshold>
            <left_val>0.1383266001939774</left_val>
            <right_val>-0.4160040915012360</right_val></_></_>
        <_>
          <_>
            <feature>
              <rects>
                <_>
                  5 9 15 4 -1.</_>
                <_>
                  5 11 15 2 2.</_></rects>
              <tilted>0</tilted></feature>
            <threshold>0.0590725094079971</threshold>
            <left_val>0.0269379094243050</left_val>
            <right_val>-0.6392310857772827</right_val></_></_>
        <_>
          <_>
            <feature>
              <rects>
                <_>
                  0 3 1 3 -1.</_>
                <_>
                  0 4 1 1 3.</_></rects>
              <tilted>0</tilted></feature>
            <threshold>-2.3221729788929224e-003</threshold>
            <left_val>0.4724551141262054</left_val>
            <right_val>-0.1193967014551163</right_val></_></_>
        <_>
          <_>
            <feature>
              <rects>
                <_>
                  19 2 1 3 -1.</_>
                <_>
                  19 3 1 1 3.</_></rects>
              <tilted>0</tilted></feature>
            <threshold>-2.4052530061453581e-003</threshold>
            <left_val>0.3946895897388458</left_val>
            <right_val>-0.0700577124953270</right_val></_></_>
        <_>
          <_>
            <feature>
              <rects>
                <_>
                  0 9 1 4 -1.</_>
                <_>
                  0 11 1 2 2.</_></rects>
              <tilted>0</tilted></feature>
            <threshold>2.7484360616654158e-003</threshold>
            <left_val>0.1270595937967300</left_val>
            <right_val>-0.4554593861103058</right_val></_></_>
        <_>
          <_>
            <feature>
              <rects>
                <_>
                  9 12 3 5 -1.</_>
                <_>
                  10 12 1 5 3.</_></rects>
              <tilted>0</tilted></feature>
            <threshold>-0.0141430897638202</threshold>
            <left_val>-0.5948932170867920</left_val>
            <right_val>0.0136641198769212</right_val></_></_>
        <_>
          <_>
            <feature>
              <rects>
                <_>
                  1 19 2 1 -1.</_>
                <_>
                  2 19 1 1 2.</_></rects>
              <tilted>0</tilted></feature>
            <threshold>-6.7219289485365152e-004</threshold>
            <left_val>-0.3517785966396332</left_val>
            <right_val>0.1471230983734131</right_val></_></_>
        <_>
          <_>
            <feature>
              <rects>
                <_>
                  10 0 10 3 -1.</_>
                <_>
                  10 1 10 1 3.</_></rects>
              <tilted>0</tilted></feature>
            <threshold>5.0644190050661564e-003</threshold>
            <left_val>-0.1039325967431068</left_val>
            <right_val>0.1719855964183807</right_val></_></_>
        <_>
          <_>
            <feature>
              <rects>
                <_>
                  3 17 4 1 -1.</_>
                <_>
                  4 17 2 1 2.</_></rects>
              <tilted>0</tilted></feature>
            <threshold>-5.0475959142204374e-005</threshold>
            <left_val>0.2304635047912598</left_val>
            <right_val>-0.2040119022130966</right_val></_></_>
        <_>
          <_>
            <feature>
              <rects>
                <_>
                  13 10 2 1 -1.</_>
                <_>
                  13 10 1 1 2.</_></rects>
              <tilted>1</tilted></feature>
            <threshold>2.6349439285695553e-003</threshold>
            <left_val>0.0523205585777760</left_val>
            <right_val>-0.2175897061824799</right_val></_></_>
        <_>
          <_>
            <feature>
              <rects>
                <_>
                  2 8 16 6 -1.</_>
                <_>
                  6 8 8 6 2.</_></rects>
              <tilted>0</tilted></feature>
            <threshold>0.0243988707661629</threshold>
            <left_val>-0.2034718990325928</left_val>
            <right_val>0.2484823018312454</right_val></_></_>
        <_>
          <_>
            <feature>
              <rects>
                <_>
                  3 9 15 10 -1.</_>
                <_>
                  8 9 5 10 3.</_></rects>
              <tilted>0</tilted></feature>
            <threshold>-0.0843082070350647</threshold>
            <left_val>0.4014522135257721</left_val>
            <right_val>-0.1215369030833244</right_val></_></_></trees>
      <stage_threshold>-1.1479669809341431</stage_threshold>
      <parent>1</parent>
      <next>-1</next></_>
    <_>
      <trees>
        <_>
          <_>
            <feature>
              <rects>
                <_>
                  7 17 4 3 -1.</_>
                <_>
                  7 18 4 1 3.</_></rects>
              <tilted>0</tilted></feature>
            <threshold>-4.0330467745661736e-003</threshold>
            <left_val>0.4555177986621857</left_val>
            <right_val>-0.1864262074232101</right_val></_></_>
        <_>
          <_>
            <feature>
              <rects>
                <_>
                  1 4 18 13 -1.</_>
                <_>
                  7 4 6 13 3.</_></rects>
              <tilted>0</tilted></feature>
            <threshold>0.1777005046606064</threshold>
            <left_val>-0.2505162060260773</left_val>
            <right_val>0.3420909047126770</right_val></_></_>
        <_>
          <_>
            <feature>
              <rects>
                <_>
                  0 2 2 4 -1.</_>
                <_>
                  0 3 2 2 2.</_></rects>
              <tilted>0</tilted></feature>
            <threshold>-3.5984229762107134e-003</threshold>
            <left_val>0.4289998114109039</left_val>
            <right_val>-0.1418738961219788</right_val></_></_>
        <_>
          <_>
            <feature>
              <rects>
                <_>
                  3 5 15 6 -1.</_>
                <_>
                  3 7 15 2 3.</_></rects>
              <tilted>0</tilted></feature>
            <threshold>-0.0144620295614004</threshold>
            <left_val>0.2149160951375961</left_val>
            <right_val>-0.2627109885215759</right_val></_></_>
        <_>
          <_>
            <feature>
              <rects>
                <_>
                  5 17 9 3 -1.</_>
                <_>
                  5 18 9 1 3.</_></rects>
              <tilted>0</tilted></feature>
            <threshold>3.9545050822198391e-003</threshold>
            <left_val>-0.2018194943666458</left_val>
            <right_val>0.3209936916828156</right_val></_></_>
        <_>
          <_>
            <feature>
              <rects>
                <_>
                  2 0 18 20 -1.</_>
                <_>
                  2 10 18 10 2.</_></rects>
              <tilted>0</tilted></feature>
            <threshold>0.2871071100234985</threshold>
            <left_val>0.1164949014782906</left_val>
            <right_val>-0.7478445172309876</right_val></_></_>
        <_>
          <_>
            <feature>
              <rects>
                <_>
                  0 3 3 6 -1.</_>
                <_>
                  1 5 1 2 9.</_></rects>
              <tilted>0</tilted></feature>
            <threshold>-0.0169523097574711</threshold>
            <left_val>0.3539549112319946</left_val>
            <right_val>-0.1675605028867722</right_val></_></_>
        <_>
          <_>
            <feature>
              <rects>
                <_>
                  19 12 1 2 -1.</_>
                <_>
                  19 13 1 1 2.</_></rects>
              <tilted>0</tilted></feature>
            <threshold>7.0064299507066607e-004</threshold>
            <left_val>0.0835972726345062</left_val>
            <right_val>-0.3213115036487579</right_val></_></_>
        <_>
          <_>
            <feature>
              <rects>
                <_>
                  3 10 9 3 -1.</_>
                <_>
                  3 11 9 1 3.</_></rects>
              <tilted>0</tilted></feature>
            <threshold>9.9166398867964745e-003</threshold>
            <left_val>0.0877834334969521</left_val>
            <right_val>-0.5686604976654053</right_val></_></_>
        <_>
          <_>
            <feature>
              <rects>
                <_>
                  4 8 12 12 -1.</_>
                <_>
                  4 11 12 6 2.</_></rects>
              <tilted>0</tilted></feature>
            <threshold>0.0696767121553421</threshold>
            <left_val>-0.1715618073940277</left_val>
            <right_val>0.2886930108070374</right_val></_></_>
        <_>
          <_>
            <feature>
              <rects>
                <_>
                  0 0 8 4 -1.</_>
                <_>
                  0 0 4 2 2.</_>
                <_>
                  4 2 4 2 2.</_></rects>
              <tilted>0</tilted></feature>
            <threshold>0.0179880894720554</threshold>
            <left_val>-0.1133826002478600</left_val>
            <right_val>0.4140338003635407</right_val></_></_>
        <_>
          <_>
            <feature>
              <rects>
                <_>
                  19 12 1 2 -1.</_>
                <_>
                  19 13 1 1 2.</_></rects>
              <tilted>0</tilted></feature>
            <threshold>-5.1256251754239202e-004</threshold>
            <left_val>-0.2149956971406937</left_val>
            <right_val>0.0851327106356621</right_val></_></_>
        <_>
          <_>
            <feature>
              <rects>
                <_>
                  0 12 1 2 -1.</_>
                <_>
                  0 13 1 1 2.</_></rects>
              <tilted>0</tilted></feature>
            <threshold>1.0486190440133214e-003</threshold>
            <left_val>0.1046340018510819</left_val>
            <right_val>-0.4569174051284790</right_val></_></_>
        <_>
          <_>
            <feature>
              <rects>
                <_>
                  0 11 20 7 -1.</_>
                <_>
                  5 11 10 7 2.</_></rects>
              <tilted>0</tilted></feature>
            <threshold>-0.0666995570063591</threshold>
            <left_val>0.3950068950653076</left_val>
            <right_val>-0.1238097026944161</right_val></_></_>
        <_>
          <_>
            <feature>
              <rects>
                <_>
                  10 2 2 2 -1.</_>
                <_>
                  10 2 2 1 2.</_></rects>
              <tilted>1</tilted></feature>
            <threshold>2.5541449431329966e-003</threshold>
            <left_val>0.1561823934316635</left_val>
            <right_val>-0.2763515114784241</right_val></_></_>
        <_>
          <_>
            <feature>
              <rects>
                <_>
                  0 0 20 4 -1.</_>
                <_>
                  5 0 10 4 2.</_></rects>
              <tilted>0</tilted></feature>
            <threshold>0.0551088899374008</threshold>
            <left_val>-0.1889244019985199</left_val>
            <right_val>0.2401939034461975</right_val></_></_>
        <_>
          <_>
            <feature>
              <rects>
                <_>
                  7 4 6 1 -1.</_>
                <_>
                  10 4 3 1 2.</_></rects>
              <tilted>0</tilted></feature>
            <threshold>-3.3063690643757582e-003</threshold>
            <left_val>-0.3673197925090790</left_val>
            <right_val>0.1228021979331970</right_val></_></_>
        <_>
          <_>
            <feature>
              <rects>
                <_>
                  14 0 6 3 -1.</_>
                <_>
                  13 1 6 1 3.</_></rects>
              <tilted>1</tilted></feature>
            <threshold>0.0148294195532799</threshold>
            <left_val>-0.0799136608839035</left_val>
            <right_val>0.3564006984233856</right_val></_></_>
        <_>
          <_>
            <feature>
              <rects>
                <_>
                  6 0 3 6 -1.</_>
                <_>
                  7 1 1 6 3.</_></rects>
              <tilted>1</tilted></feature>
            <threshold>-0.0150129999965429</threshold>
            <left_val>0.4452624917030335</left_val>
            <right_val>-0.0970971733331680</right_val></_></_>
        <_>
          <_>
            <feature>
              <rects>
                <_>
                  12 2 2 1 -1.</_>
                <_>
                  12 2 1 1 2.</_></rects>
              <tilted>0</tilted></feature>
            <threshold>6.8162719253450632e-004</threshold>
            <left_val>0.1259537935256958</left_val>
            <right_val>-0.2662251889705658</right_val></_></_>
        <_>
          <_>
            <feature>
              <rects>
                <_>
                  4 16 8 2 -1.</_>
                <_>
                  4 16 4 1 2.</_>
                <_>
                  8 17 4 1 2.</_></rects>
              <tilted>0</tilted></feature>
            <threshold>6.2673990614712238e-003</threshold>
            <left_val>-0.1042475998401642</left_val>
            <right_val>0.5268282294273377</right_val></_></_>
        <_>
          <_>
            <feature>
              <rects>
                <_>
                  12 1 2 2 -1.</_>
                <_>
                  12 1 1 2 2.</_></rects>
              <tilted>0</tilted></feature>
            <threshold>-1.9521330250427127e-003</threshold>
            <left_val>-0.1306674927473068</left_val>
            <right_val>0.0448109507560730</right_val></_></_>
        <_>
          <_>
            <feature>
              <rects>
                <_>
                  6 1 2 2 -1.</_>
                <_>
                  7 1 1 2 2.</_></rects>
              <tilted>0</tilted></feature>
            <threshold>4.8806509585119784e-004</threshold>
            <left_val>0.1771260946989059</left_val>
            <right_val>-0.2806420028209686</right_val></_></_>
        <_>
          <_>
            <feature>
              <rects>
                <_>
                  18 14 2 4 -1.</_>
                <_>
                  18 14 1 4 2.</_></rects>
              <tilted>0</tilted></feature>
            <threshold>2.4807821027934551e-003</threshold>
            <left_val>0.0821843817830086</left_val>
            <right_val>-0.2568007111549377</right_val></_></_>
        <_>
          <_>
            <feature>
              <rects>
                <_>
                  2 0 8 2 -1.</_>
                <_>
                  2 0 4 1 2.</_>
                <_>
                  6 1 4 1 2.</_></rects>
              <tilted>0</tilted></feature>
            <threshold>8.2704480737447739e-003</threshold>
            <left_val>-0.0872043296694756</left_val>
            <right_val>0.5026680827140808</right_val></_></_>
        <_>
          <_>
            <feature>
              <rects>
                <_>
                  9 11 9 2 -1.</_>
                <_>
                  9 12 9 1 2.</_></rects>
              <tilted>0</tilted></feature>
            <threshold>-9.7486646845936775e-003</threshold>
            <left_val>-0.4249311983585358</left_val>
            <right_val>0.0458829998970032</right_val></_></_>
        <_>
          <_>
            <feature>
              <rects>
                <_>
                  2 11 9 2 -1.</_>
                <_>
                  2 12 9 1 2.</_></rects>
              <tilted>0</tilted></feature>
            <threshold>8.2264114171266556e-003</threshold>
            <left_val>0.0685292631387711</left_val>
            <right_val>-0.6031352877616882</right_val></_></_>
        <_>
          <_>
            <feature>
              <rects>
                <_>
                  1 2 18 6 -1.</_>
                <_>
                  1 4 18 2 3.</_></rects>
              <tilted>0</tilted></feature>
            <threshold>-0.0201211702078581</threshold>
            <left_val>0.3097349107265472</left_val>
            <right_val>-0.1587308943271637</right_val></_></_>
        <_>
          <_>
            <feature>
              <rects>
                <_>
                  3 0 2 8 -1.</_>
                <_>
                  3 2 2 4 2.</_></rects>
              <tilted>0</tilted></feature>
            <threshold>0.0104456199333072</threshold>
            <left_val>-0.1150730028748512</left_val>
            <right_val>0.3952547013759613</right_val></_></_>
        <_>
          <_>
            <feature>
              <rects>
                <_>
                  9 0 2 3 -1.</_>
                <_>
                  9 0 1 3 2.</_></rects>
              <tilted>0</tilted></feature>
            <threshold>-1.6831359826028347e-003</threshold>
            <left_val>-0.3455235064029694</left_val>
            <right_val>0.1383457034826279</right_val></_></_>
        <_>
          <_>
            <feature>
              <rects>
                <_>
                  0 18 2 2 -1.</_>
                <_>
                  1 18 1 2 2.</_></rects>
              <tilted>0</tilted></feature>
            <threshold>1.2924389448016882e-003</threshold>
            <left_val>0.1131569966673851</left_val>
            <right_val>-0.4204160869121552</right_val></_></_>
        <_>
          <_>
            <feature>
              <rects>
                <_>
                  15 6 5 14 -1.</_>
                <_>
                  15 13 5 7 2.</_></rects>
              <tilted>0</tilted></feature>
            <threshold>-0.1053847968578339</threshold>
            <left_val>-0.3321625888347626</left_val>
            <right_val>0.0343347601592541</right_val></_></_>
        <_>
          <_>
            <feature>
              <rects>
                <_>
                  0 6 5 14 -1.</_>
                <_>
                  0 13 5 7 2.</_></rects>
              <tilted>0</tilted></feature>
            <threshold>-0.0994789972901344</threshold>
            <left_val>-0.5390949249267578</left_val>
            <right_val>0.0864961296319962</right_val></_></_>
        <_>
          <_>
            <feature>
              <rects>
                <_>
                  0 0 20 1 -1.</_>
                <_>
                  0 0 10 1 2.</_></rects>
              <tilted>0</tilted></feature>
            <threshold>0.0297589898109436</threshold>
            <left_val>0.0761131271719933</left_val>
            <right_val>-0.5390893816947937</right_val></_></_>
        <_>
          <_>
            <feature>
              <rects>
                <_>
                  0 17 19 3 -1.</_>
                <_>
                  0 18 19 1 3.</_></rects>
              <tilted>0</tilted></feature>
            <threshold>-0.0112980203703046</threshold>
            <left_val>0.3126269876956940</left_val>
            <right_val>-0.1346952021121979</right_val></_></_>
        <_>
          <_>
            <feature>
              <rects>
                <_>
                  16 10 3 2 -1.</_>
                <_>
                  16 11 3 1 2.</_></rects>
              <tilted>0</tilted></feature>
            <threshold>0.0100398696959019</threshold>
            <left_val>0.0243966095149517</left_val>
            <right_val>-0.8252773880958557</right_val></_></_>
        <_>
          <_>
            <feature>
              <rects>
                <_>
                  6 18 5 2 -1.</_>
                <_>
                  6 19 5 1 2.</_></rects>
              <tilted>0</tilted></feature>
            <threshold>-5.4554222151637077e-003</threshold>
            <left_val>0.3724223077297211</left_val>
            <right_val>-0.1261367946863174</right_val></_></_></trees>
      <stage_threshold>-1.1060999631881714</stage_threshold>
      <parent>2</parent>
      <next>-1</next></_>
    <_>
      <trees>
        <_>
          <_>
            <feature>
              <rects>
                <_>
                  0 1 20 14 -1.</_>
                <_>
                  5 1 10 14 2.</_></rects>
              <tilted>0</tilted></feature>
            <threshold>0.3155153095722199</threshold>
            <left_val>-0.1997613012790680</left_val>
            <right_val>0.5977678894996643</right_val></_></_>
        <_>
          <_>
            <feature>
              <rects>
                <_>
                  11 0 3 4 -1.</_>
                <_>
                  12 0 1 4 3.</_></rects>
              <tilted>0</tilted></feature>
            <threshold>-6.0166828334331512e-003</threshold>
            <left_val>-0.5428923964500427</left_val>
            <right_val>0.1061127036809921</right_val></_></_>
        <_>
          <_>
            <feature>
              <rects>
                <_>
                  4 10 2 3 -1.</_>
                <_>
                  4 11 2 1 3.</_></rects>
              <tilted>0</tilted></feature>
            <threshold>-3.2634548842906952e-003</threshold>
            <left_val>-0.6670287251472473</left_val>
            <right_val>0.0810517370700836</right_val></_></_>
        <_>
          <_>
            <feature>
              <rects>
                <_>
                  11 0 3 4 -1.</_>
                <_>
                  12 0 1 4 3.</_></rects>
              <tilted>0</tilted></feature>
            <threshold>8.4305861964821815e-003</threshold>
            <left_val>0.0598760806024075</left_val>
            <right_val>-0.6608992815017700</right_val></_></_>
        <_>
          <_>
            <feature>
              <rects>
                <_>
                  8 2 3 7 -1.</_>
                <_>
                  9 2 1 7 3.</_></rects>
              <tilted>0</tilted></feature>
            <threshold>-8.8146701455116272e-003</threshold>
            <left_val>-0.6878201961517334</left_val>
            <right_val>0.0705044195055962</right_val></_></_>
        <_>
          <_>
            <feature>
              <rects>
                <_>
                  8 17 4 3 -1.</_>
                <_>
                  8 18 4 1 3.</_></rects>
              <tilted>0</tilted></feature>
            <threshold>-5.0500188954174519e-003</threshold>
            <left_val>0.3647330105304718</left_val>
            <right_val>-0.1538089066743851</right_val></_></_>
        <_>
          <_>
            <feature>
              <rects>
                <_>
                  0 0 14 4 -1.</_>
                <_>
                  0 0 7 2 2.</_>
                <_>
                  7 2 7 2 2.</_></rects>
              <tilted>0</tilted></feature>
            <threshold>0.0397959612309933</threshold>
            <left_val>-0.1259624063968658</left_val>
            <right_val>0.4939996898174286</right_val></_></_>
        <_>
          <_>
            <feature>
              <rects>
                <_>
                  11 0 3 4 -1.</_>
                <_>
                  12 0 1 4 3.</_></rects>
              <tilted>0</tilted></feature>
            <threshold>4.2465869337320328e-003</threshold>
            <left_val>0.0434229597449303</left_val>
            <right_val>-0.2350053042173386</right_val></_></_>
        <_>
          <_>
            <feature>
              <rects>
                <_>
                  6 0 3 4 -1.</_>
                <_>
                  7 0 1 4 3.</_></rects>
              <tilted>0</tilted></feature>
            <threshold>-5.2648917771875858e-003</threshold>
            <left_val>-0.5052782297134399</left_val>
            <right_val>0.1106204017996788</right_val></_></_>
        <_>
          <_>
            <feature>
              <rects>
                <_>
                  18 11 1 2 -1.</_>
                <_>
                  18 12 1 1 2.</_></rects>
              <tilted>0</tilted></feature>
            <threshold>8.6814822861924767e-004</threshold>
            <left_val>0.0923982486128807</left_val>
            <right_val>-0.3448565900325775</right_val></_></_>
        <_>
          <_>
            <feature>
              <rects>
                <_>
                  1 11 1 2 -1.</_>
                <_>
                  1 12 1 1 2.</_></rects>
              <tilted>0</tilted></feature>
            <threshold>1.0345249902456999e-003</threshold>
            <left_val>0.1030282005667687</left_val>
            <right_val>-0.4909872114658356</right_val></_></_>
        <_>
          <_>
            <feature>
              <rects>
                <_>
                  1 6 19 10 -1.</_>
                <_>
                  1 11 19 5 2.</_></rects>
              <tilted>0</tilted></feature>
            <threshold>-0.0982009768486023</threshold>
            <left_val>-0.4457984864711762</left_val>
            <right_val>0.1155885010957718</right_val></_></_>
        <_>
          <_>
            <feature>
              <rects>
                <_>
                  4 10 3 4 -1.</_>
                <_>
                  4 11 3 2 2.</_></rects>
              <tilted>0</tilted></feature>
            <threshold>5.1969438791275024e-003</threshold>
            <left_val>0.0819866135716438</left_val>
            <right_val>-0.5548667907714844</right_val></_></_>
        <_>
          <_>
            <feature>
              <rects>
                <_>
                  16 5 3 2 -1.</_>
                <_>
                  17 6 1 2 3.</_></rects>
              <tilted>1</tilted></feature>
            <threshold>-6.8556698970496655e-003</threshold>
            <left_val>0.1885474026203156</left_val>
            <right_val>-0.0660296380519867</right_val></_></_>
        <_>
          <_>
            <feature>
              <rects>
                <_>
                  0 16 1 2 -1.</_>
                <_>
                  0 17 1 1 2.</_></rects>
              <tilted>0</tilted></feature>
            <threshold>-1.1039070086553693e-003</threshold>
            <left_val>-0.4210579097270966</left_val>
            <right_val>0.0986721515655518</right_val></_></_>
        <_>
          <_>
            <feature>
              <rects>
                <_>
                  16 5 3 2 -1.</_>
                <_>
                  17 6 1 2 3.</_></rects>
              <tilted>1</tilted></feature>
            <threshold>6.4168567769229412e-003</threshold>
            <left_val>-0.0673147216439247</left_val>
            <right_val>0.2425401061773300</right_val></_></_>
        <_>
          <_>
            <feature>
              <rects>
                <_>
                  4 5 2 3 -1.</_>
                <_>
                  3 6 2 1 3.</_></rects>
              <tilted>1</tilted></feature>
            <threshold>-0.0100778499618173</threshold>
            <left_val>0.4650785923004150</left_val>
            <right_val>-0.0952370986342430</right_val></_></_>
        <_>
          <_>
            <feature>
              <rects>
                <_>
                  19 14 1 6 -1.</_>
                <_>
                  19 17 1 3 2.</_></rects>
              <tilted>0</tilted></feature>
            <threshold>-8.4755709394812584e-003</threshold>
            <left_val>-0.3963576853275299</left_val>
            <right_val>0.0563863590359688</right_val></_></_>
        <_>
          <_>
            <feature>
              <rects>
                <_>
                  0 14 1 6 -1.</_>
                <_>
                  0 17 1 3 2.</_></rects>
              <tilted>0</tilted></feature>
            <threshold>4.6794828958809376e-003</threshold>
            <left_val>0.1080225035548210</left_val>
            <right_val>-0.4391771852970123</right_val></_></_>
        <_>
          <_>
            <feature>
              <rects>
                <_>
                  1 0 19 4 -1.</_>
                <_>
                  1 1 19 2 2.</_></rects>
              <tilted>0</tilted></feature>
            <threshold>0.0316277816891670</threshold>
            <left_val>-0.0981367081403732</left_val>
            <right_val>0.4732613861560822</right_val></_></_>
        <_>
          <_>
            <feature>
              <rects>
                <_>
                  6 2 2 1 -1.</_>
                <_>
                  7 2 1 1 2.</_></rects>
              <tilted>0</tilted></feature>
            <threshold>8.7310769595205784e-004</threshold>
            <left_val>0.1312831044197083</left_val>
            <right_val>-0.3595075905323029</right_val></_></_>
        <_>
          <_>
            <feature>
              <rects>
                <_>
                  5 18 12 2 -1.</_>
                <_>
                  11 18 6 1 2.</_>
                <_>
                  5 19 6 1 2.</_></rects>
              <tilted>0</tilted></feature>
            <threshold>8.0845877528190613e-003</threshold>
            <left_val>-0.0663539916276932</left_val>
            <right_val>0.2478616982698441</right_val></_></_>
        <_>
          <_>
            <feature>
              <rects>
                <_>
                  4 11 2 3 -1.</_>
                <_>
                  4 12 2 1 3.</_></rects>
              <tilted>0</tilted></feature>
            <threshold>-4.1398308239877224e-003</threshold>
            <left_val>-0.5771726965904236</left_val>
            <right_val>0.0733672901988029</right_val></_></_>
        <_>
          <_>
            <feature>
              <rects>
                <_>
                  10 0 3 1 -1.</_>
                <_>
                  11 0 1 1 3.</_></rects>
              <tilted>0</tilted></feature>
            <threshold>2.3194400127977133e-003</threshold>
            <left_val>0.0511726811528206</left_val>
            <right_val>-0.4426923990249634</right_val></_></_>
        <_>
          <_>
            <feature>
              <rects>
                <_>
                  0 2 2 6 -1.</_>
                <_>
                  0 4 2 2 3.</_></rects>
              <tilted>0</tilted></feature>
            <threshold>-0.0200073700398207</threshold>
            <left_val>0.5279852151870728</left_val>
            <right_val>-0.0789788588881493</right_val></_></_>
        <_>
          <_>
            <feature>
              <rects>
                <_>
                  10 0 3 1 -1.</_>
                <_>
                  11 0 1 1 3.</_></rects>
              <tilted>0</tilted></feature>
            <threshold>-2.0981149282306433e-003</threshold>
            <left_val>-0.4069916903972626</left_val>
            <right_val>0.0645064264535904</right_val></_></_>
        <_>
          <_>
            <feature>
              <rects>
                <_>
                  7 0 3 1 -1.</_>
                <_>
                  8 0 1 1 3.</_></rects>
              <tilted>0</tilted></feature>
            <threshold>-1.6695410013198853e-003</threshold>
            <left_val>-0.4292322099208832</left_val>
            <right_val>0.0950073078274727</right_val></_></_>
        <_>
          <_>
            <feature>
              <rects>
                <_>
                  8 10 12 7 -1.</_>
                <_>
                  11 10 6 7 2.</_></rects>
              <tilted>0</tilted></feature>
            <threshold>-0.0349482893943787</threshold>
            <left_val>0.2776853144168854</left_val>
            <right_val>-0.1223571002483368</right_val></_></_>
        <_>
          <_>
            <feature>
              <rects>
                <_>
                  2 18 12 2 -1.</_>
                <_>
                  2 18 6 1 2.</_>
                <_>
                  8 19 6 1 2.</_></rects>
              <tilted>0</tilted></feature>
            <threshold>-0.0120055601000786</threshold>
            <left_val>0.4869847893714905</left_val>
            <right_val>-0.0863940492272377</right_val></_></_>
        <_>
          <_>
            <feature>
              <rects>
                <_>
                  9 3 6 4 -1.</_>
                <_>
                  9 3 3 4 2.</_></rects>
              <tilted>0</tilted></feature>
            <threshold>0.0449850484728813</threshold>
            <left_val>-0.0321158282458782</left_val>
            <right_val>0.3905125856399536</right_val></_></_>
        <_>
          <_>
            <feature>
              <rects>
                <_>
                  6 15 8 3 -1.</_>
                <_>
                  6 16 8 1 3.</_></rects>
              <tilted>0</tilted></feature>
            <threshold>-0.0119930598884821</threshold>
            <left_val>0.4727016091346741</left_val>
            <right_val>-0.0857484117150307</right_val></_></_></trees>
      <stage_threshold>-1.0659480094909668</stage_threshold>
      <parent>3</parent>
      <next>-1</next></_>
    <_>
      <trees>
        <_>
          <_>
            <feature>
              <rects>
                <_>
                  1 2 18 14 -1.</_>
                <_>
                  7 2 6 14 3.</_></rects>
              <tilted>0</tilted></feature>
            <threshold>0.2311256974935532</threshold>
            <left_val>-0.2899597883224487</left_val>
            <right_val>0.5155683755874634</right_val></_></_>
        <_>
          <_>
            <feature>
              <rects>
                <_>
                  5 0 15 10 -1.</_>
                <_>
                  5 5 15 5 2.</_></rects>
              <tilted>0</tilted></feature>
            <threshold>-0.3663575053215027</threshold>
            <left_val>-0.8378838896751404</left_val>
            <right_val>0.0692529380321503</right_val></_></_>
        <_>
          <_>
            <feature>
              <rects>
                <_>
                  0 8 12 2 -1.</_>
                <_>
                  3 8 6 2 2.</_></rects>
              <tilted>0</tilted></feature>
            <threshold>-0.0231578294187784</threshold>
            <left_val>0.5714917778968811</left_val>
            <right_val>-0.0896178781986237</right_val></_></_>
        <_>
          <_>
            <feature>
              <rects>
                <_>
