<?xml version="1.0"?>
<opencv_storage>
<haarcascade_nelore_neg_equals_983_30_24_36 type_id="opencv-haar-classifier">
  <size>
    24 36</size>
  <stages>
    <_>
      <trees>
        <_>
          <_>
            <feature>
              <rects>
                <_>
                  2 4 20 25 -1.</_>
                <_>
                  7 4 10 25 2.</_></rects>
              <tilted>0</tilted></feature>
            <threshold>0.1091874018311501</threshold>
            <left_val>-0.4634531140327454</left_val>
            <right_val>0.8002467155456543</right_val></_></_>
        <_>
          <_>
            <feature>
              <rects>
                <_>
                  4 7 16 15 -1.</_>
                <_>
                  4 12 16 5 3.</_></rects>
              <tilted>0</tilted></feature>
            <threshold>-4.6860538423061371e-003</threshold>
            <left_val>0.4057002961635590</left_val>
            <right_val>-0.6167867779731751</right_val></_></_>
        <_>
          <_>
            <feature>
              <rects>
                <_>
                  0 1 1 18 -1.</_>
                <_>
                  0 7 1 6 3.</_></rects>
              <tilted>0</tilted></feature>
            <threshold>-7.3641780763864517e-003</threshold>
            <left_val>0.5695986747741699</left_val>
            <right_val>-0.3240993916988373</right_val></_></_>
        <_>
          <_>
            <feature>
              <rects>
                <_>
                  8 23 8 12 -1.</_>
                <_>
                  8 29 8 6 2.</_></rects>
              <tilted>0</tilted></feature>
            <threshold>-0.0297350492328405</threshold>
            <left_val>0.4516859054565430</left_val>
            <right_val>-0.3247740864753723</right_val></_></_>
        <_>
          <_>
            <feature>
              <rects>
                <_>
                  0 0 24 15 -1.</_>
                <_>
                  6 0 12 15 2.</_></rects>
              <tilted>0</tilted></feature>
            <threshold>0.1560585945844650</threshold>
            <left_val>-0.1496585011482239</left_val>
            <right_val>0.7559434175491333</right_val></_></_>
        <_>
          <_>
            <feature>
              <rects>
                <_>
                  4 0 16 11 -1.</_>
                <_>
                  8 0 8 11 2.</_></rects>
              <tilted>0</tilted></feature>
            <threshold>-0.0155230797827244</threshold>
            <left_val>0.4654619097709656</left_val>
            <right_val>-0.3174949884414673</right_val></_></_>
        <_>
          <_>
            <feature>
              <rects>
                <_>
                  3 0 17 24 -1.</_>
                <_>
                  3 12 17 12 2.</_></rects>
              <tilted>0</tilted></feature>
            <threshold>-2.6660310104489326e-003</threshold>
            <left_val>0.3049811124801636</left_val>
            <right_val>-0.4700396955013275</right_val></_></_>
        <_>
          <_>
            <feature>
              <rects>
                <_>
                  0 0 24 34 -1.</_>
                <_>
                  0 17 24 17 2.</_></rects>
              <tilted>0</tilted></feature>
            <threshold>-0.4901252985000610</threshold>
            <left_val>-0.8002051711082459</left_val>
            <right_val>0.1219092011451721</right_val></_></_>
        <_>
          <_>
            <feature>
              <rects>
                <_>
                  4 8 11 4 -1.</_>
                <_>
                  3 9 11 2 2.</_></rects>
              <tilted>1</tilted></feature>
            <threshold>-4.8914072103798389e-003</threshold>
            <left_val>0.4430007040500641</left_val>
            <right_val>-0.2506955862045288</right_val></_></_>
        <_>
          <_>
            <feature>
              <rects>
                <_>
                  22 22 2 3 -1.</_>
                <_>
                  22 23 2 1 3.</_></rects>
              <tilted>0</tilted></feature>
            <threshold>-4.7093670582398772e-004</threshold>
            <left_val>-0.3839319944381714</left_val>
            <right_val>0.1477998942136765</right_val></_></_>
        <_>
          <_>
            <feature>
              <rects>
                <_>
                  0 13 8 5 -1.</_>
                <_>
                  4 13 4 5 2.</_></rects>
              <tilted>0</tilted></feature>
            <threshold>0.0150882098823786</threshold>
            <left_val>-0.1842842996120453</left_val>
            <right_val>0.6114171743392944</right_val></_></_>
        <_>
          <_>
            <feature>
              <rects>
                <_>
                  12 3 12 25 -1.</_>
                <_>
                  16 3 4 25 3.</_></rects>
              <tilted>0</tilted></feature>
            <threshold>-0.0475430600345135</threshold>
            <left_val>0.5012115240097046</left_val>
            <right_val>-0.1918821930885315</right_val></_></_>
        <_>
          <_>
            <feature>
              <rects>
                <_>
                  2 0 9 28 -1.</_>
                <_>
                  5 0 3 28 3.</_></rects>
              <tilted>0</tilted></feature>
            <threshold>-0.0122222797945142</threshold>
            <left_val>0.4788452088832855</left_val>
            <right_val>-0.2429865002632141</right_val></_></_>
        <_>
          <_>
            <feature>
              <rects>
                <_>
                  20 16 3 10 -1.</_>
                <_>
                  20 21 3 5 2.</_></rects>
              <tilted>0</tilted></feature>
            <threshold>-1.5141789845074527e-005</threshold>
            <left_val>0.2008018940687180</left_val>
            <right_val>-0.1467050015926361</right_val></_></_>
        <_>
          <_>
            <feature>
              <rects>
                <_>
                  0 22 2 3 -1.</_>
                <_>
                  0 23 2 1 3.</_></rects>
              <tilted>0</tilted></feature>
            <threshold>6.9927878212183714e-004</threshold>
            <left_val>0.1371280997991562</left_val>
            <right_val>-0.6925128102302551</right_val></_></_></trees>
      <stage_threshold>-1.4882149696350098</stage_threshold>
      <parent>-1</parent>
      <next>-1</next></_>
    <_>
      <trees>
        <_>
          <_>
            <feature>
              <rects>
                <_>
                  0 7 24 9 -1.</_>
                <_>
                  6 7 12 9 2.</_></rects>
              <tilted>0</tilted></feature>
            <threshold>0.0581353716552258</threshold>
            <left_val>-0.4419007897377014</left_val>
            <right_val>0.5583499073982239</right_val></_></_>
        <_>
          <_>
            <feature>
              <rects>
                <_>
                  5 16 14 20 -1.</_>
                <_>
                  5 21 14 10 2.</_></rects>
              <tilted>0</tilted></feature>
            <threshold>0.0258526597172022</threshold>
            <left_val>-0.5412170886993408</left_val>
            <right_val>0.4644424915313721</right_val></_></_>
        <_>
          <_>
            <feature>
              <rects>
                <_>
                  1 2 21 14 -1.</_>
                <_>
                  1 9 21 7 2.</_></rects>
              <tilted>0</tilted></feature>
            <threshold>-2.3334270808845758e-003</threshold>
            <left_val>0.3007825911045075</left_val>
            <right_val>-0.7347164154052734</right_val></_></_>
        <_>
          <_>
            <feature>
              <rects>
                <_>
                  6 12 12 7 -1.</_>
                <_>
                  10 12 4 7 3.</_></rects>
              <tilted>0</tilted></feature>
            <threshold>4.8751290887594223e-003</threshold>
            <left_val>-0.4242425858974457</left_val>
            <right_val>0.3336324095726013</right_val></_></_>
        <_>
          <_>
            <feature>
              <rects>
                <_>
                  2 0 20 36 -1.</_>
                <_>
                  2 18 20 18 2.</_></rects>
              <tilted>0</tilted></feature>
            <threshold>-1.5751140017528087e-004</threshold>
            <left_val>0.2116564065217972</left_val>
            <right_val>-0.5786470770835877</right_val></_></_>
        <_>
          <_>
            <feature>
              <rects>
                <_>
                  5 0 15 11 -1.</_>
                <_>
                  10 0 5 11 3.</_></rects>
              <tilted>0</tilted></feature>
            <threshold>-0.0169910900294781</threshold>
            <left_val>0.4360538125038147</left_val>
            <right_val>-0.3183335959911346</right_val></_></_>
        <_>
          <_>
            <feature>
              <rects>
                <_>
                  1 4 6 8 -1.</_>
                <_>
                  4 4 3 8 2.</_></rects>
              <tilted>0</tilted></feature>
            <threshold>6.9797588512301445e-003</threshold>
            <left_val>-0.2319530993700028</left_val>
            <right_val>0.4436748921871185</right_val></_></_>
        <_>
          <_>
            <feature>
              <rects>
                <_>
                  4 14 20 21 -1.</_>
                <_>
                  9 14 10 21 2.</_></rects>
              <tilted>0</tilted></feature>
            <threshold>-0.0561957098543644</threshold>
            <left_val>0.4212915897369385</left_val>
            <right_val>-0.2214846014976502</right_val></_></_>
        <_>
          <_>
            <feature>
              <rects>
                <_>
                  0 2 15 30 -1.</_>
                <_>
                  5 2 5 30 3.</_></rects>
              <tilted>0</tilted></feature>
            <threshold>-0.0687111020088196</threshold>
            <left_val>0.6287364959716797</left_val>
            <right_val>-0.2165118008852005</right_val></_></_>
        <_>
          <_>
            <feature>
              <rects>
                <_>
                  3 20 20 9 -1.</_>
                <_>
                  8 20 10 9 2.</_></rects>
              <tilted>0</tilted></feature>
            <threshold>0.0259459707885981</threshold>
            <left_val>-0.1624321043491364</left_val>
            <right_val>0.3561699986457825</right_val></_></_>
        <_>
          <_>
            <feature>
              <rects>
                <_>
                  2 13 16 12 -1.</_>
                <_>
                  2 19 16 6 2.</_></rects>
              <tilted>0</tilted></feature>
            <threshold>4.2213699780404568e-003</threshold>
            <left_val>-0.3980857133865356</left_val>
            <right_val>0.2945931851863861</right_val></_></_>
        <_>
          <_>
            <feature>
              <rects>
                <_>
                  20 18 4 6 -1.</_>
                <_>
                  20 21 4 3 2.</_></rects>
              <tilted>0</tilted></feature>
            <threshold>-2.3685379346716218e-005</threshold>
            <left_val>0.2276367992162705</left_val>
            <right_val>-0.3157106041908264</right_val></_></_>
        <_>
          <_>
            <feature>
              <rects>
                <_>
                  1 21 8 2 -1.</_>
                <_>
                  1 22 8 1 2.</_></rects>
              <tilted>0</tilted></feature>
            <threshold>-1.7739019313012250e-005</threshold>
            <left_val>0.3507764935493469</left_val>
            <right_val>-0.3331260085105896</right_val></_></_>
        <_>
          <_>
            <feature>
              <rects>
                <_>
                  8 2 14 34 -1.</_>
                <_>
                  15 2 7 17 2.</_>
                <_>
                  8 19 7 17 2.</_></rects>
              <tilted>0</tilted></feature>
            <threshold>-0.0380954407155514</threshold>
            <left_val>0.3469384014606476</left_val>
            <right_val>-0.2414104938507080</right_val></_></_>
        <_>
          <_>
            <feature>
              <rects>
                <_>
                  1 18 18 14 -1.</_>
                <_>
                  7 18 6 14 3.</_></rects>
              <tilted>0</tilted></feature>
            <threshold>0.1163638010621071</threshold>
            <left_val>-0.1526547074317932</left_val>
            <right_val>0.6161823272705078</right_val></_></_>
        <_>
          <_>
            <feature>
              <rects>
                <_>
                  11 5 10 26 -1.</_>
                <_>
                  16 5 5 13 2.</_>
                <_>
                  11 18 5 13 2.</_></rects>
              <tilted>0</tilted></feature>
            <threshold>-0.0681195110082626</threshold>
            <left_val>0.5362533926963806</left_val>
            <right_val>-0.1642487049102783</right_val></_></_>
        <_>
          <_>
            <feature>
              <rects>
                <_>
                  6 9 11 6 -1.</_>
                <_>
                  4 11 11 2 3.</_></rects>
              <tilted>1</tilted></feature>
            <threshold>-9.2011911328881979e-004</threshold>
            <left_val>0.3677793145179749</left_val>
            <right_val>-0.3327519893646240</right_val></_></_>
        <_>
          <_>
            <feature>
              <rects>
                <_>
                  2 0 20 2 -1.</_>
                <_>
                  7 0 10 2 2.</_></rects>
              <tilted>0</tilted></feature>
            <threshold>-0.0222197305411100</threshold>
            <left_val>0.8166760802268982</left_val>
            <right_val>-0.1396221071481705</right_val></_></_>
        <_>
          <_>
            <feature>
              <rects>
                <_>
                  12 18 3 2 -1.</_>
                <_>
                  12 18 3 1 2.</_></rects>
              <tilted>1</tilted></feature>
            <threshold>-1.6741569197620265e-005</threshold>
            <left_val>0.3536649048328400</left_val>
            <right_val>-0.2887010872364044</right_val></_></_>
        <_>
          <_>
            <feature>
              <rects>
                <_>
                  6 1 18 7 -1.</_>
                <_>
                  6 1 9 7 2.</_></rects>
              <tilted>0</tilted></feature>
            <threshold>0.0194616895169020</threshold>
            <left_val>-0.1181271001696587</left_val>
            <right_val>0.1571514010429382</right_val></_></_>
        <_>
          <_>
            <feature>
              <rects>
                <_>
                  0 0 20 10 -1.</_>
                <_>
                  10 0 10 10 2.</_></rects>
              <tilted>0</tilted></feature>
            <threshold>7.8030442818999290e-004</threshold>
            <left_val>-0.3521763086318970</left_val>
            <right_val>0.2903856039047241</right_val></_></_>
        <_>
          <_>
            <feature>
              <rects>
                <_>
                  12 2 1 12 -1.</_>
                <_>
                  8 6 1 4 3.</_></rects>
              <tilted>1</tilted></feature>
            <threshold>5.5784401483833790e-003</threshold>
            <left_val>-0.1837729960680008</left_val>
            <right_val>0.1561181992292404</right_val></_></_>
        <_>
          <_>
            <feature>
              <rects>
                <_>
                  0 1 24 15 -1.</_>
                <_>
                  0 6 24 5 3.</_></rects>
              <tilted>0</tilted></feature>
            <threshold>-0.0495053492486477</threshold>
            <left_val>0.5329992175102234</left_val>
            <right_val>-0.2516235113143921</right_val></_></_>
        <_>
          <_>
            <feature>
              <rects>
                <_>
                  12 2 1 12 -1.</_>
                <_>
                  8 6 1 4 3.</_></rects>
              <tilted>1</tilted></feature>
            <threshold>-1.9720490672625601e-004</threshold>
            <left_val>0.1846199929714203</left_val>
            <right_val>-0.0968600884079933</right_val></_></_>
        <_>
          <_>
            <feature>
              <rects>
                <_>
                  12 2 12 1 -1.</_>
                <_>
                  16 6 4 1 3.</_></rects>
              <tilted>1</tilted></feature>
            <threshold>1.2080420128768310e-004</threshold>
            <left_val>-0.4613516926765442</left_val>
            <right_val>0.3617891073226929</right_val></_></_>
        <_>
          <_>
            <feature>
              <rects>
                <_>
                  0 22 24 12 -1.</_>
                <_>
                  0 25 24 6 2.</_></rects>
              <tilted>0</tilted></feature>
            <threshold>6.0629588551819324e-003</threshold>
            <left_val>-0.3946448862552643</left_val>
            <right_val>0.2660759091377258</right_val></_></_>
        <_>
          <_>
            <feature>
              <rects>
                <_>
                  1 9 18 6 -1.</_>
                <_>
                  1 12 18 3 2.</_></rects>
              <tilted>0</tilted></feature>
            <threshold>-2.4153720005415380e-004</threshold>
            <left_val>0.2260316014289856</left_val>
            <right_val>-0.5286933779716492</right_val></_></_>
        <_>
          <_>
            <feature>
              <rects>
                <_>
                  1 4 23 12 -1.</_>
                <_>
                  1 8 23 4 3.</_></rects>
              <tilted>0</tilted></feature>
            <threshold>-0.0199472792446613</threshold>
            <left_val>0.4054206013679504</left_val>
            <right_val>-0.2540805041790009</right_val></_></_></trees>
      <stage_threshold>-1.4565089941024780</stage_threshold>
      <parent>0</parent>
      <next>-1</next></_>
    <_>
      <trees>
        <_>
          <_>
            <feature>
              <rects>
                <_>
                  0 0 24 29 -1.</_>
                <_>
                  8 0 8 29 3.</_></rects>
              <tilted>0</tilted></feature>
            <threshold>0.3710612952709198</threshold>
            <left_val>-0.2776558101177216</left_val>
            <right_val>0.6478431224822998</right_val></_></_>
        <_>
          <_>
            <feature>
              <rects>
                <_>
                  12 23 2 12 -1.</_>
                <_>
                  12 29 2 6 2.</_></rects>
              <tilted>0</tilted></feature>
            <threshold>-0.0133681800216436</threshold>
            <left_val>0.4460434913635254</left_val>
            <right_val>-0.2274032980203629</right_val></_></_>
        <_>
          <_>
            <feature>
              <rects>
                <_>
                  0 4 1 12 -1.</_>
                <_>
                  0 8 1 4 3.</_></rects>
              <tilted>0</tilted></feature>
            <threshold>-8.8022332638502121e-003</threshold>
            <left_val>0.6134874820709229</left_val>
            <right_val>-0.1353809982538223</right_val></_></_>
        <_>
          <_>
            <feature>
              <rects>
                <_>
                  12 28 6 2 -1.</_>
                <_>
                  14 30 2 2 3.</_></rects>
              <tilted>1</tilted></feature>
            <threshold>-4.6803019940853119e-003</threshold>
            <left_val>0.2563695013523102</left_val>
            <right_val>-0.1199062019586563</right_val></_></_>
        <_>
          <_>
            <feature>
              <rects>
                <_>
                  12 28 2 6 -1.</_>
                <_>
                  10 30 2 2 3.</_></rects>
              <tilted>1</tilted></feature>
            <threshold>-8.5553508251905441e-003</threshold>
            <left_val>0.4694555997848511</left_val>
            <right_val>-0.2037374973297119</right_val></_></_>
        <_>
          <_>
            <feature>
              <rects>
                <_>
                  3 2 21 34 -1.</_>
                <_>
                  3 19 21 17 2.</_></rects>
              <tilted>0</tilted></feature>
            <threshold>0.2705945074558258</threshold>
            <left_val>0.1159140020608902</left_val>
            <right_val>-0.7606202960014343</right_val></_></_>
        <_>
          <_>
            <feature>
              <rects>
                <_>
                  3 20 6 3 -1.</_>
                <_>
                  3 21 6 1 3.</_></rects>
              <tilted>0</tilted></feature>
            <threshold>2.6162890717387199e-003</threshold>
            <left_val>0.0838347375392914</left_val>
            <right_val>-0.8579034805297852</right_val></_></_>
        <_>
          <_>
            <feature>
              <rects>
                <_>
                  0 0 24 12 -1.</_>
                <_>
                  0 0 12 12 2.</_></rects>
              <tilted>0</tilted></feature>
            <threshold>-0.1762657016515732</threshold>
            <left_val>-0.8250846266746521</left_val>
            <right_val>0.0770974531769753</right_val></_></_>
        <_>
          <_>
            <feature>
              <rects>
                <_>
                  0 0 24 6 -1.</_>
                <_>
                  12 0 12 6 2.</_></rects>
              <tilted>0</tilted></feature>
            <threshold>-0.0744705796241760</threshold>
            <left_val>-0.6935747861862183</left_val>
            <right_val>0.0950956568121910</right_val></_></_>
        <_>
          <_>
            <feature>
              <rects>
                <_>
                  12 0 10 10 -1.</_>
                <_>
                  17 0 5 5 2.</_>
                <_>
                  12 5 5 5 2.</_></rects>
              <tilted>0</tilted></feature>
            <threshold>0.0326825417578220</threshold>
            <left_val>-0.0957189798355103</left_val>
            <right_val>0.4487467110157013</right_val></_></_>
        <_>
          <_>
            <feature>
              <rects>
                <_>
                  3 20 16 2 -1.</_>
                <_>
                  3 21 16 1 2.</_></rects>
              <tilted>0</tilted></feature>
            <threshold>-1.4228470390662551e-003</threshold>
            <left_val>-0.4289163947105408</left_val>
            <right_val>0.1636683940887451</right_val></_></_>
        <_>
          <_>
            <feature>
              <rects>
                <_>
                  7 0 16 4 -1.</_>
                <_>
                  7 1 16 2 2.</_></rects>
              <tilted>0</tilted></feature>
            <threshold>8.5978824645280838e-003</threshold>
            <left_val>-0.1015544980764389</left_val>
            <right_val>0.5548093914985657</right_val></_></_>
        <_>
          <_>
            <feature>
              <rects>
                <_>
                  11 2 6 4 -1.</_>
                <_>
                  11 2 6 2 2.</_></rects>
              <tilted>1</tilted></feature>
            <threshold>4.4305911287665367e-003</threshold>
            <left_val>0.2069787979125977</left_val>
            <right_val>-0.3236131072044373</right_val></_></_>
        <_>
          <_>
            <feature>
              <rects>
                <_>
                  8 0 16 4 -1.</_>
                <_>
                  16 0 8 2 2.</_>
                <_>
                  8 2 8 2 2.</_></rects>
              <tilted>0</tilted></feature>
            <threshold>0.0209080204367638</threshold>
            <left_val>-0.0441983789205551</left_val>
            <right_val>0.7573252916336060</right_val></_></_>
        <_>
          <_>
            <feature>
              <rects>
                <_>
                  0 22 2 14 -1.</_>
                <_>
                  0 29 2 7 2.</_></rects>
              <tilted>0</tilted></feature>
            <threshold>-0.0119343698024750</threshold>
            <left_val>-0.4569349884986877</left_val>
            <right_val>0.1349963992834091</right_val></_></_>
        <_>
          <_>
            <feature>
              <rects>
                <_>
                  18 12 6 2 -1.</_>
                <_>
                  20 12 2 2 3.</_></rects>
              <tilted>0</tilted></feature>
            <threshold>-3.8439319469034672e-003</threshold>
            <left_val>0.3143857121467590</left_val>
            <right_val>-0.0995848700404167</right_val></_></_>
        <_>
          <_>
            <feature>
              <rects>
                <_>
                  3 19 16 2 -1.</_>
                <_>
                  3 19 8 1 2.</_>
                <_>
                  11 20 8 1 2.</_></rects>
              <tilted>0</tilted></feature>
            <threshold>-3.6327131092548370e-003</threshold>
            <left_val>-0.7446761727333069</left_val>
            <right_val>0.0890151485800743</right_val></_></_>
        <_>
          <_>
            <feature>
              <rects>
                <_>
                  21 11 2 6 -1.</_>
                <_>
                  21 13 2 2 3.</_></rects>
              <tilted>0</tilted></feature>
            <threshold>-3.8889339193701744e-003</threshold>
            <left_val>0.3526900112628937</left_val>
            <right_val>-0.0959172174334526</right_val></_></_>
        <_>
          <_>
            <feature>
              <rects>
                <_>
                  7 4 10 10 -1.</_>
                <_>
                  7 9 10 5 2.</_></rects>
              <tilted>0</tilted></feature>
            <threshold>0.0161456000059843</threshold>
            <left_val>0.1199688985943794</left_val>
            <right_val>-0.5876744985580444</right_val></_></_>
        <_>
          <_>
            <feature>
              <rects>
                <_>
                  18 11 6 3 -1.</_>
                <_>
                  20 12 2 1 9.</_></rects>
              <tilted>0</tilted></feature>
            <threshold>3.3838169183582067e-003</threshold>
            <left_val>-0.0932660698890686</left_val>
            <right_val>0.1623580008745194</right_val></_></_>
        <_>
          <_>
            <feature>
              <rects>
                <_>
                  0 11 6 3 -1.</_>
                <_>
                  2 12 2 1 9.</_></rects>
              <tilted>0</tilted></feature>
            <threshold>-7.6480740681290627e-003</threshold>
            <left_val>0.4782893955707550</left_val>
            <right_val>-0.1599119007587433</right_val></_></_>
        <_>
          <_>
            <feature>
              <rects>
                <_>
                  5 10 19 22 -1.</_>
                <_>
                  5 21 19 11 2.</_></rects>
              <tilted>0</tilted></feature>
            <threshold>0.2640776038169861</threshold>
            <left_val>0.0512870699167252</left_val>
            <right_val>-0.9999939203262329</right_val></_></_></trees>
      <stage_threshold>-1.2058939933776855</stage_threshold>
      <parent>1</parent>
      <next>-1</next></_>
    <_>
      <trees>
        <_>
          <_>
            <feature>
              <rects>
                <_>
                  0 8 24 7 -1.</_>
                <_>
                  6 8 12 7 2.</_></rects>
              <tilted>0</tilted></feature>
            <threshold>0.0792038366198540</threshold>
            <left_val>-0.3625048100948334</left_val>
            <right_val>0.7009215950965881</right_val></_></_>
        <_>
          <_>
            <feature>
              <rects>
                <_>
                  3 12 18 24 -1.</_>
                <_>
                  9 20 6 8 9.</_></rects>
              <tilted>0</tilted></feature>
            <threshold>0.3504002094268799</threshold>
            <left_val>-0.1823990046977997</left_val>
            <right_val>0.6167461276054382</right_val></_></_>
        <_>
          <_>
            <feature>
              <rects>
                <_>
                  5 20 3 3 -1.</_>
                <_>
                  5 21 3 1 3.</_></rects>
              <tilted>0</tilted></feature>
            <threshold>-8.1725162453949451e-004</threshold>
            <left_val>-0.6593366861343384</left_val>
            <right_val>0.1830825954675674</right_val></_></_>
        <_>
          <_>
            <feature>
              <rects>
                <_>
                  10 16 8 6 -1.</_>
                <_>
                  10 18 8 2 3.</_></rects>
              <tilted>0</tilted></feature>
            <threshold>-4.3129641562700272e-003</threshold>
            <left_val>-0.4886203110218048</left_val>
            <right_val>0.0832543671131134</right_val></_></_>
        <_>
          <_>
            <feature>
              <rects>
                <_>
                  3 20 5 3 -1.</_>
                <_>
                  3 21 5 1 3.</_></rects>
              <tilted>0</tilted></feature>
            <threshold>2.2523070219904184e-003</threshold>
            <left_val>0.1569986939430237</left_val>
            <right_val>-0.8846722841262817</right_val></_></_>
        <_>
          <_>
            <feature>
              <rects>
                <_>
                  8 14 16 12 -1.</_>
                <_>
                  12 14 8 12 2.</_></rects>
              <tilted>0</tilted></feature>
            <threshold>-0.0688730478286743</threshold>
            <left_val>0.5282068848609924</left_val>
            <right_val>-0.1486357003450394</right_val></_></_>
        <_>
          <_>
            <feature>
              <rects>
                <_>
                  8 10 2 3 -1.</_>
                <_>
                  8 11 2 1 3.</_></rects>
              <tilted>0</tilted></feature>
            <threshold>-8.7544252164661884e-004</threshold>
            <left_val>-0.6574090719223023</left_val>
            <right_val>0.1800297945737839</right_val></_></_>
        <_>
          <_>
            <feature>
              <rects>
                <_>
                  8 14 16 12 -1.</_>
                <_>
                  12 14 8 12 2.</_></rects>
              <tilted>0</tilted></feature>
            <threshold>0.0824279412627220</threshold>
            <left_val>-0.1254061013460159</left_val>
            <right_val>0.6866999864578247</right_val></_></_>
        <_>
          <_>
            <feature>
              <rects>
                <_>
                  9 10 1 3 -1.</_>
                <_>
                  9 11 1 1 3.</_></rects>
              <tilted>0</tilted></feature>
            <threshold>5.9030530974268913e-004</threshold>
            <left_val>0.1808378994464874</left_val>
            <right_val>-0.6918373703956604</right_val></_></_>
        <_>
          <_>
            <feature>
              <rects>
                <_>
                  22 0 2 20 -1.</_>
                <_>
                  22 5 2 10 2.</_></rects>
              <tilted>0</tilted></feature>
            <threshold>-0.0125963101163507</threshold>
            <left_val>0.3426809012889862</left_val>
            <right_val>-0.2249172925949097</right_val></_></_>
        <_>
          <_>
            <feature>
              <rects>
                <_>
                  6 11 1 4 -1.</_>
                <_>
                  5 12 1 2 2.</_></rects>
              <tilted>1</tilted></feature>
            <threshold>-2.1966050844639540e-003</threshold>
            <left_val>0.4613597095012665</left_val>
            <right_val>-0.1667965054512024</right_val></_></_>
        <_>
          <_>
            <feature>
              <rects>
                <_>
                  0 23 24 12 -1.</_>
                <_>
                  8 27 8 4 9.</_></rects>
              <tilted>0</tilted></feature>
            <threshold>0.2334408015012741</threshold>
            <left_val>-0.1390527039766312</left_val>
            <right_val>0.6031888127326965</right_val></_></_>
        <_>
          <_>
            <feature>
              <rects>
                <_>
                  5 26 12 9 -1.</_>
                <_>
                  9 29 4 3 9.</_></rects>
              <tilted>0</tilted></feature>
            <threshold>-0.0693204700946808</threshold>
            <left_val>0.6598175168037415</left_val>
            <right_val>-0.1231449022889137</right_val></_></_>
        <_>
          <_>
            <feature>
              <rects>
                <_>
                  13 14 1 4 -1.</_>
                <_>
                  13 15 1 2 2.</_></rects>
              <tilted>0</tilted></feature>
            <threshold>-5.5507430806756020e-004</threshold>
            <left_val>-0.4007101058959961</left_val>
            <right_val>0.0933574065566063</right_val></_></_>
        <_>
          <_>
            <feature>
              <rects>
                <_>
                  0 11 15 23 -1.</_>
                <_>
                  5 11 5 23 3.</_></rects>
              <tilted>0</tilted></feature>
            <threshold>-0.1258500069379807</threshold>
            <left_val>0.6415143013000488</left_val>
            <right_val>-0.1174736022949219</right_val></_></_>
        <_>
          <_>
            <feature>
              <rects>
                <_>
                  13 15 1 3 -1.</_>
                <_>
                  13 16 1 1 3.</_></rects>
              <tilted>0</tilted></feature>
            <threshold>7.4883748311549425e-004</threshold>
            <left_val>0.0919599235057831</left_val>
            <right_val>-0.6176633834838867</right_val></_></_>
        <_>
          <_>
            <feature>
              <rects>
                <_>
                  0 23 16 6 -1.</_>
                <_>
                  4 23 8 6 2.</_></rects>
              <tilted>0</tilted></feature>
            <threshold>0.0280492398887873</threshold>
            <left_val>-0.1494971960783005</left_val>
            <right_val>0.5471981763839722</right_val></_></_>
        <_>
          <_>
            <feature>
              <rects>
                <_>
                  6 0 18 12 -1.</_>
                <_>
                  6 6 18 6 2.</_></rects>
              <tilted>0</tilted></feature>
            <threshold>-0.0871613994240761</threshold>
            <left_val>0.2912901043891907</left_val>
            <right_val>-0.0986260995268822</right_val></_></_>
        <_>
          <_>
            <feature>
              <rects>
                <_>
                  0 4 24 3 -1.</_>
                <_>
                  6 4 12 3 2.</_></rects>
              <tilted>0</tilted></feature>
            <threshold>0.0368831418454647</threshold>
            <left_val>-0.1606090962886810</left_val>
            <right_val>0.4797227084636688</right_val></_></_></trees>
      <stage_threshold>-1.4430569410324097</stage_threshold>
      <parent>2</parent>
      <next>-1</next></_>
    <_>
      <trees>
        <_>
          <_>
            <feature>
              <rects>
                <_>
                  0 10 24 6 -1.</_>
                <_>
                  8 10 8 6 3.</_></rects>
              <tilted>0</tilted></feature>
            <threshold>0.1092934980988503</threshold>
            <left_val>-0.2619574069976807</left_val>
            <right_val>0.5573462247848511</right_val></_></_>
        <_>
          <_>
            <feature>
              <rects>
                <_>
                  6 19 13 16 -1.</_>
                <_>
                  6 23 13 8 2.</_></rects>
              <tilted>0</tilted></feature>
            <threshold>0.0273081995546818</threshold>
            <left_val>-0.3058854043483734</left_val>
            <right_val>0.3589091002941132</right_val></_></_>
        <_>
          <_>
            <feature>
              <rects>
                <_>
                  5 10 5 4 -1.</_>
                <_>
                  4 11 5 2 2.</_></rects>
              <tilted>1</tilted></feature>
            <threshold>-7.4658622033894062e-003</threshold>
            <left_val>0.4857510924339294</left_val>
            <right_val>-0.1690364927053452</right_val></_></_>
        <_>
          <_>
            <feature>
              <rects>
                <_>
                  14 18 2 2 -1.</_>
                <_>
                  14 19 2 1 2.</_></rects>
              <tilted>0</tilted></feature>
            <threshold>-6.0581607976928353e-004</threshold>
            <left_val>-0.4641984999179840</left_val>
            <right_val>0.0536545105278492</right_val></_></_>
        <_>
          <_>
            <feature>
              <rects>
                <_>
                  5 11 4 3 -1.</_>
                <_>
                  4 12 4 1 3.</_></rects>
              <tilted>1</tilted></feature>
            <threshold>3.1659570522606373e-003</threshold>
            <left_val>-0.1034217998385429</left_val>
            <right_val>0.5349819064140320</right_val></_></_>
        <_>
          <_>
            <feature>
              <rects>
                <_>
                  21 2 3 12 -1.</_>
                <_>
                  21 6 3 4 3.</_></rects>
              <tilted>0</tilted></feature>
            <threshold>-0.0198571905493736</threshold>
            <left_val>0.4320732951164246</left_val>
            <right_val>-0.1095952987670898</right_val></_></_>
        <_>
          <_>
            <feature>
              <rects>
                <_>
                  7 13 7 12 -1.</_>
                <_>
                  7 16 7 6 2.</_></rects>
              <tilted>0</tilted></feature>
            <threshold>-0.0198342092335224</threshold>
            <left_val>-0.6320508718490601</left_val>
            <right_val>0.0985675230622292</right_val></_></_>
        <_>
          <_>
            <feature>
              <rects>
                <_>
                  17 25 4 7 -1.</_>
                <_>
                  18 26 2 7 2.</_></rects>
              <tilted>1</tilted></feature>
            <threshold>-9.2758350074291229e-003</threshold>
            <left_val>0.3799119889736176</left_val>
            <right_val>-0.0866357535123825</right_val></_></_>
        <_>
          <_>
            <feature>
              <rects>
                <_>
                  7 25 7 4 -1.</_>
                <_>
                  6 26 7 2 2.</_></rects>
              <tilted>1</tilted></feature>
            <threshold>-6.9119632244110107e-003</threshold>
            <left_val>0.4262110888957977</left_val>
            <right_val>-0.1437689065933228</right_val></_></_>
        <_>
          <_>
            <feature>
              <rects>
                <_>
                  16 4 8 26 -1.</_>
                <_>
                  18 4 4 26 2.</_></rects>
              <tilted>0</tilted></feature>
            <threshold>-0.0343894809484482</threshold>
            <left_val>0.3283809125423431</left_val>
            <right_val>-0.0743533894419670</right_val></_></_>
        <_>
          <_>
            <feature>
              <rects>
                <_>
                  8 18 2 2 -1.</_>
                <_>
                  8 19 2 1 2.</_></rects>
              <tilted>0</tilted></feature>
            <threshold>-8.1309140659868717e-004</threshold>
            <left_val>-0.7017266154289246</left_val>
            <right_val>0.0790631771087646</right_val></_></_>
        <_>
          <_>
            <feature>
              <rects>
                <_>
                  16 4 8 26 -1.</_>
                <_>
                  18 4 4 26 2.</_></rects>
              <tilted>0</tilted></feature>
            <threshold>0.0443097613751888</threshold>
            <left_val>-0.0525135509669781</left_val>
            <right_val>0.4669370949268341</right_val></_></_>
        <_>
          <_>
            <feature>
              <rects>
                <_>
                  0 4 8 26 -1.</_>
                <_>
                  2 4 4 26 2.</_></rects>
              <tilted>0</tilted></feature>
            <threshold>-0.0224182307720184</threshold>
            <left_val>0.3783277869224548</left_val>
            <right_val>-0.1601047068834305</right_val></_></_>
        <_>
          <_>
            <feature>
              <rects>
                <_>
                  15 8 9 4 -1.</_>
                <_>
                  18 8 3 4 3.</_></rects>
              <tilted>0</tilted></feature>
            <threshold>0.0104543296620250</threshold>
            <left_val>-0.0900733694434166</left_val>
            <right_val>0.3160764873027802</right_val></_></_>
        <_>
          <_>
            <feature>
              <rects>
                <_>
                  9 7 1 2 -1.</_>
                <_>
                  9 8 1 1 2.</_></rects>
              <tilted>0</tilted></feature>
            <threshold>3.2192849903367460e-004</threshold>
            <left_val>0.1062728986144066</left_val>
            <right_val>-0.6450080871582031</right_val></_></_>
        <_>
          <_>
            <feature>
              <rects>
                <_>
                  15 8 9 4 -1.</_>
                <_>
                  18 8 3 4 3.</_></rects>
              <tilted>0</tilted></feature>
            <threshold>-2.4062059819698334e-003</threshold>
            <left_val>0.0907973274588585</left_val>
            <right_val>-0.0954950228333473</right_val></_></_>
        <_>
          <_>
            <feature>
              <rects>
                <_>
                  0 8 9 4 -1.</_>
                <_>
                  3 8 3 4 3.</_></rects>
              <tilted>0</tilted></feature>
            <threshold>9.5677645877003670e-003</threshold>
            <left_val>-0.1433608978986740</left_val>
            <right_val>0.4298991858959198</right_val></_></_>
        <_>
          <_>
            <feature>
              <rects>
                <_>
                  19 0 2 10 -1.</_>
                <_>
                  19 5 2 5 2.</_></rects>
              <tilted>0</tilted></feature>
            <threshold>-9.9249109625816345e-003</threshold>
            <left_val>0.1729872971773148</left_val>
            <right_val>-0.0653549879789352</right_val></_></_>
        <_>
          <_>
            <feature>
              <rects>
                <_>
                  0 3 24 1 -1.</_>
                <_>
                  6 3 12 1 2.</_></rects>
              <tilted>0</tilted></feature>
            <threshold>0.0199957191944122</threshold>
            <left_val>-0.0995298102498055</left_val>
            <right_val>0.6060966849327087</right_val></_></_>
        <_>
          <_>
            <feature>
              <rects>
                <_>
                  10 0 14 12 -1.</_>
                <_>
                  17 0 7 6 2.</_>
                <_>
                  10 6 7 6 2.</_></rects>
              <tilted>0</tilted></feature>
            <threshold>0.0568154193460941</threshold>
            <left_val>-0.0392502695322037</left_val>
            <right_val>0.2837071120738983</right_val></_></_>
        <_>
          <_>
            <feature>
              <rects>
                <_>
                  1 0 4 14 -1.</_>
                <_>
                  1 7 4 7 2.</_></rects>
              <tilted>0</tilted></feature>
            <threshold>-0.0139437504112720</threshold>
            <left_val>0.2413036972284317</left_val>
            <right_val>-0.2736268043518066</right_val></_></_>
        <_>
          <_>
            <feature>
              <rects>
                <_>
                  12 6 2 4 -1.</_>
                <_>
                  12 8 2 2 2.</_></rects>
              <tilted>0</tilted></feature>
            <threshold>-9.5445761689916253e-004</threshold>
            <left_val>-0.2333118021488190</left_val>
            <right_val>0.1118604019284248</right_val></_></_>
        <_>
          <_>
            <feature>
              <rects>
                <_>
                  0 8 24 1 -1.</_>
                <_>
                  12 8 12 1 2.</_></rects>
              <tilted>0</tilted></feature>
            <threshold>-0.0162553098052740</threshold>
            <left_val>-0.7153288722038269</left_val>
            <right_val>0.0706927180290222</right_val></_></_>
        <_>
          <_>
            <feature>
              <rects>
                <_>
                  22 21 1 4 -1.</_>
                <_>
                  22 23 1 2 2.</_></rects>
              <tilted>0</tilted></feature>
            <threshold>1.2875370448455215e-003</threshold>
            <left_val>0.0298123806715012</left_val>
            <right_val>-0.4225879013538361</right_val></_></_>
        <_>
          <_>
            <feature>
              <rects>
                <_>
                  9 6 5 2 -1.</_>
                <_>
                  9 6 5 1 2.</_></rects>
              <tilted>1</tilted></feature>
            <threshold>-2.9722819454036653e-004</threshold>
            <left_val>0.3101901113986969</left_val>
            <right_val>-0.1891184002161026</right_val></_></_>
        <_>
          <_>
            <feature>
              <rects>
                <_>
                  10 0 14 2 -1.</_>
                <_>
                  17 0 7 1 2.</_>
                <_>
                  10 1 7 1 2.</_></rects>
              <tilted>0</tilted></feature>
            <threshold>2.9809740372002125e-003</threshold>
            <left_val>-0.0921500325202942</left_val>
            <right_val>0.3354060053825378</right_val></_></_>
        <_>
          <_>
            <feature>
              <rects>
                <_>
                  1 20 2 4 -1.</_>
                <_>
                  1 21 2 2 2.</_></rects>
              <tilted>0</tilted></feature>
            <threshold>-2.8024509083479643e-004</threshold>
            <left_val>-0.3582406044006348</left_val>
            <right_val>0.1572175025939941</right_val></_></_>
        <_>
          <_>
            <feature>
              <rects>
                <_>
                  16 21 7 8 -1.</_>
                <_>
                  14 23 7 4 2.</_></rects>
              <tilted>1</tilted></feature>
            <threshold>0.0301495604217052</threshold>
            <left_val>-0.1083457022905350</left_val>
            <right_val>0.3432677090167999</right_val></_></_>
        <_>
          <_>
            <feature>
              <rects>
                <_>
                  8 21 8 7 -1.</_>
                <_>
                  10 23 4 7 2.</_></rects>
              <tilted>1</tilted></feature>
            <threshold>-0.0145683996379375</threshold>
            <left_val>0.4532893896102905</left_val>
            <right_val>-0.1317647993564606</right_val></_></_></trees>
      <stage_threshold>-1.1421300172805786</stage_threshold>
      <parent>3</parent>
      <next>-1</next></_>
    <_>
      <trees>
        <_>
          <_>
            <feature>
              <rects>
                <_>
                  0 4 24 11 -1.</_>
                <_>
                  6 4 12 11 2.</_></rects>
              <tilted>0</tilted></feature>
            <threshold>0.1505336016416550</threshold>
            <left_val>-0.2259521931409836</left_val>
            <right_val>0.4789587855339050</right_val></_></_>
        <_>
          <_>
            <feature>
              <rects>
                <_>
                  4 19 16 15 -1.</_>
                <_>
                  4 24 16 5 3.</_></rects>
              <tilted>0</tilted></feature>
            <threshold>0.0578742995858192</threshold>
            <left_val>-0.2554916143417358</left_val>
            <right_val>0.4338440895080566</right_val></_></_>
        <_>
          <_>
            <feature>
              <rects>
                <_>
                  0 7 3 9 -1.</_>
                <_>
                  0 10 3 3 3.</_></rects>
              <tilted>0</tilted></feature>
            <threshold>-0.0108950696885586</threshold>
            <left_val>0.4827725887298584</left_val>
            <right_val>-0.1395277976989746</right_val></_></_>
        <_>
          <_>
            <feature>
              <rects>
                <_>
                  11 0 3 16 -1.</_>
                <_>
                  12 0 1 16 3.</_></rects>
              <tilted>0</tilted></feature>
            <threshold>7.3726749978959560e-003</threshold>
            <left_val>0.0625100731849670</left_val>
            <right_val>-0.6173803210258484</right_val></_></_>
        <_>
          <_>
            <feature>
              <rects>
                <_>
                  0 3 4 9 -1.</_>
                <_>
                  0 6 4 3 3.</_></rects>
              <tilted>0</tilted></feature>
            <threshold>-0.0104203298687935</threshold>
            <left_val>0.4296390116214752</left_val>
            <right_val>-0.1348913013935089</right_val></_></_>
        <_>
          <_>
            <feature>
              <rects>
                <_>
                  12 15 3 5 -1.</_>
                <_>
                  13 16 1 5 3.</_></rects>
              <tilted>1</tilted></feature>
            <threshold>-5.5975061841309071e-003</threshold>
            <left_val>-0.4816797971725464</left_val>
            <right_val>0.0237919799983501</right_val></_></_>
        <_>
          <_>
            <feature>
              <rects>
                <_>
                  1 8 18 12 -1.</_>
                <_>
                  1 12 18 4 3.</_></rects>
              <tilted>0</tilted></feature>
            <threshold>-9.9600236862897873e-003</threshold>
            <left_val>0.1907660067081451</left_val>
            <right_val>-0.3014687895774841</right_val></_></_>
        <_>
          <_>
            <feature>
              <rects>
                <_>
                  12 9 2 2 -1.</_>
                <_>
                  12 9 2 1 2.</_></rects>
              <tilted>1</tilted></feature>
            <threshold>1.7927449662238359e-003</threshold>
            <left_val>0.0798813328146935</left_val>
            <right_val>-0.4079375863075256</right_val></_></_>
        <_>
          <_>
            <feature>
              <rects>
                <_>
                  1 20 15 3 -1.</_>
                <_>
                  1 21 15 1 3.</_></rects>
              <tilted>0</tilted></feature>
            <threshold>2.6260761078447104e-003</threshold>
            <left_val>0.0984674468636513</left_val>
            <right_val>-0.5827884078025818</right_val></_></_>
        <_>
          <_>
            <feature>
              <rects>
                <_>
                  12 18 6 3 -1.</_>
                <_>
                  12 19 6 1 3.</_></rects>
              <tilted>0</tilted></feature>
            <threshold>2.2901620250195265e-003</threshold>
            <left_val>0.0542774982750416</left_val>
            <right_val>-0.7419885993003845</right_val></_></_>
        <_>
          <_>
            <feature>
              <rects>
                <_>
                  5 0 14 6 -1.</_>
                <_>
                  5 2 14 2 3.</_></rects>
              <tilted>0</tilted></feature>
            <threshold>0.0126378498971462</threshold>
            <left_val>-0.1320255994796753</left_val>
            <right_val>0.4460768997669220</right_val></_></_>
        <_>
          <_>
            <feature>
              <rects>
                <_>
                  6 1 12 4 -1.</_>
                <_>
                  6 2 12 2 2.</_></rects>
              <tilted>0</tilted></feature>
            <threshold>-2.6804308872669935e-003</threshold>
            <left_val>0.4353742897510529</left_val>
            <right_val>-0.1683385968208313</right_val></_></_>
        <_>
          <_>
            <feature>
              <rects>
                <_>
                  10 6 2 1 -1.</_>
                <_>
                  11 6 1 1 2.</_></rects>
              <tilted>0</tilted></feature>
            <threshold>-5.7106011081486940e-004</threshold>
            <left_val>-0.6683000922203064</left_val>
            <right_val>0.0946312993764877</right_val></_></_>
        <_>
          <_>
            <feature>
              <rects>
                <_>
                  20 0 3 8 -1.</_>
                <_>
                  20 2 3 4 2.</_></rects>
              <tilted>0</tilted></feature>
            <threshold>8.4552122280001640e-003</threshold>
            <left_val>-0.0717872306704521</left_val>
            <right_val>0.3542357087135315</right_val></_></_>
        <_>
          <_>
            <feature>
              <rects>
                <_>
                  1 0 3 8 -1.</_>
                <_>
                  1 2 3 4 2.</_></rects>
              <tilted>0</tilted></feature>
            <threshold>-4.3318658135831356e-003</threshold>
            <left_val>0.4495205879211426</left_val>
            <right_val>-0.1395484954118729</right_val></_></_>
        <_>
          <_>
            <feature>
              <rects>
                <_>
                  3 12 18 18 -1.</_>
                <_>
                  9 12 6 18 3.</_></rects>
              <tilted>0</tilted></feature>
            <threshold>0.1079147011041641</threshold>
            <left_val>-0.1819310933351517</left_val>
            <right_val>0.3322958946228027</right_val></_></_>
        <_>
          <_>
            <feature>
              <rects>
                <_>
                  7 22 10 9 -1.</_>
                <_>
                  7 25 10 3 3.</_></rects>
              <tilted>0</tilted></feature>
            <threshold>-0.0237121004611254</threshold>
            <left_val>0.6144409775733948</left_val>
            <right_val>-0.1079043969511986</right_val></_></_>
        <_>
          <_>
            <feature>
              <rects>
                <_>
                  12 16 2 4 -1.</_>
                <_>
                  12 18 2 2 2.</_></rects>
              <tilted>0</tilted></feature>
            <threshold>2.4879570119082928e-003</threshold>
            <left_val>0.0759901925921440</left_val>
            <right_val>-0.4888300895690918</right_val></_></_>
        <_>
          <_>
            <feature>
              <rects>
                <_>
                  5 19 3 3 -1.</_>
                <_>
                  5 20 3 1 3.</_></rects>
              <tilted>0</tilted></feature>
            <threshold>-5.5297481594607234e-004</threshold>
            <left_val>-0.4877193868160248</left_val>
            <right_val>0.1036472991108894</right_val></_></_>
        <_>
          <_>
            <feature>
              <rects>
                <_>
                  3 23 19 6 -1.</_>
                <_>
                  3 25 19 2 3.</_></rects>
              <tilted>0</tilted></feature>
            <threshold>0.0258560404181480</threshold>
            <left_val>-0.0837336033582687</left_val>
            <right_val>0.5789877176284790</right_val></_></_>
        <_>
          <_>
            <feature>
              <rects>
                <_>
                  1 6 1 6 -1.</_>
                <_>
                  1 8 1 2 3.</_></rects>
              <tilted>0</tilted></feature>
            <threshold>-1.4535769587382674e-003</threshold>
            <left_val>0.3701896965503693</left_val>
            <right_val>-0.1345812976360321</right_val></_></_>
        <_>
          <_>
            <feature>
              <rects>
                <_>
                  1 17 22 4 -1.</_>
                <_>
                  12 17 11 2 2.</_>
                <_>
                  1 19 11 2 2.</_></rects>
              <tilted>0</tilted></feature>
            <threshold>0.0121821397915483</threshold>
            <left_val>0.0871519967913628</left_val>
            <right_val>-0.6691622138023377</right_val></_></_>
        <_>
          <_>
            <feature>
              <rects>
                <_>
                  0 0 2 1 -1.</_>
                <_>
                  1 0 1 1 2.</_></rects>
              <tilted>0</tilted></feature>
            <threshold>1.8470639770384878e-004</threshold>
            <left_val>0.1375627964735031</left_val>
            <right_val>-0.3478214144706726</right_val></_></_>
        <_>
          <_>
            <feature>
              <rects>
                <_>
                  19 26 2 4 -1.</_>
                <_>
                  18 27 2 2 2.</_></rects>
              <tilted>1</tilted></feature>
            <threshold>7.5887911953032017e-003</threshold>
            <left_val>-0.0367432609200478</left_val>
            <right_val>0.4139778017997742</right_val></_></_>
        <_>
          <_>
            <feature>
              <rects>
                <_>
                  9 17 2 2 -1.</_>
                <_>
                  9 17 1 1 2.</_>
                <_>
                  10 18 1 1 2.</_></rects>
              <tilted>0</tilted></feature>
            <threshold>6.8459688918665051e-004</threshold>
            <left_val>0.0611297115683556</left_val>
            <right_val>-0.8461604714393616</right_val></_></_>
        <_>
          <_>
            <feature>
              <rects>
                <_>
                  18 6 5 9 -1.</_>
                <_>
                  18 9 5 3 3.</_></rects>
              <tilted>0</tilted></feature>
            <threshold>6.5594371408224106e-003</threshold>
            <left_val>-0.0958576574921608</left_val>
            <right_val>0.1995655000209808</right_val></_></_></trees>
      <stage_threshold>-1.1192890405654907</stage_threshold>
      <parent>4</parent>
      <next>-1</next></_>
    <_>
      <trees>
        <_>
          <_>
            <feature>
              <rects>
                <_>
                  3 14 18 2 -1.</_>
                <_>
                  9 14 6 2 3.</_></rects>
              <tilted>0</tilted></feature>
            <threshold>0.0208494998514652</threshold>
            <left_val>-0.2570474147796631</left_val>
            <right_val>0.4018760919570923</right_val></_></_>
        <_>
          <_>
            <feature>
              <rects>
                <_>
                  9 24 12 10 -1.</_>
                <_>
                  15 24 6 5 2.</_>
                <_>
                  9 29 6 5 2.</_></rects>
              <tilted>0</tilted></feature>
            <threshold>-0.0401615910232067</threshold>
            <left_val>0.4511555135250092</left_val>
            <right_val>-0.0962064191699028</right_val></_></_>
        <_>
          <_>
            <feature>
              <rects>
                <_>
                  5 7 14 16 -1.</_>
                <_>
                  5 11 14 8 2.</_></rects>
              <tilted>0</tilted></feature>
            <threshold>-0.0159038193523884</threshold>
            <left_val>0.1844079047441483</left_val>
            <right_val>-0.3203552067279816</right_val></_></_>
        <_>
          <_>
            <feature>
              <rects>
                <_>
                  22 2 2 16 -1.</_>
                <_>
                  22 6 2 8 2.</_></rects>
              <tilted>0</tilted></feature>
            <threshold>-0.0205548405647278</threshold>
            <left_val>0.4930781126022339</left_val>
            <right_val>-0.1000797003507614</right_val></_></_>
        <_>
          <_>
            <feature>
              <rects>
                <_>
                  0 10 12 3 -1.</_>
                <_>
                  4 10 4 3 3.</_></rects>
              <tilted>0</tilted></feature>
            <threshold>7.4820001609623432e-003</threshold>
            <left_val>-0.1949831992387772</left_val>
            <right_val>0.3079786002635956</right_val></_></_>
        <_>
          <_>
            <feature>
              <rects>
                <_>
                  11 12 3 2 -1.</_>
                <_>
                  11 13 3 1 2.</_></rects>
              <tilted>0</tilted></feature>
            <threshold>1.3505020178854465e-003</threshold>
            <left_val>0.1026382967829704</left_val>
            <right_val>-0.7311449050903320</right_val></_></_>
        <_>
          <_>
            <feature>
              <rects>
                <_>
                  0 23 24 9 -1.</_>
                <_>
                  8 26 8 3 9.</_></rects>
              <tilted>0</tilted></feature>
            <threshold>0.2699035108089447</threshold>
            <left_val>-0.0832105726003647</left_val>
            <right_val>0.7447168231010437</right_val></_></_>
        <_>
          <_>
            <feature>
              <rects>
                <_>
                  8 13 16 10 -1.</_>
                <_>
                  12 13 8 10 2.</_></rects>
              <tilted>0</tilted></feature>
            <threshold>0.0350986607372761</threshold>
            <left_val>-0.1011144965887070</left_val>
            <right_val>0.3156188130378723</right_val></_></_>
        <_>
          <_>
            <feature>
              <rects>
                <_>
                  8 6 5 8 -1.</_>
                <_>
                  6 8 5 4 2.</_></rects>
              <tilted>1</tilted></feature>
            <threshold>-0.0158314406871796</threshold>
            <left_val>0.3118312060832977</left_val>
            <right_val>-0.1751268059015274</right_val></_></_>
        <_>
          <_>
            <feature>
              <rects>
                <_>
                  15 20 4 3 -1.</_>
                <_>
                  15 21 4 1 3.</_></rects>
              <tilted>0</tilted></feature>
            <threshold>1.4869540464133024e-003</threshold>
            <left_val>0.1019226014614105</left_val>
            <right_val>-0.5975486040115356</right_val></_></_>
        <_>
          <_>
            <feature>
              <rects>
                <_>
                  11 20 6 8 -1.</_>
                <_>
                  11 20 3 8 2.</_></rects>
              <tilted>1</tilted></feature>
            <threshold>0.0446446388959885</threshold>
            <left_val>-0.1326300054788590</left_val>
            <right_val>0.5594108104705811</right_val></_></_>
        <_>
          <_>
            <feature>
              <rects>
                <_>
                  15 20 3 3 -1.</_>
                <_>
                  15 21 3 1 3.</_></rects>
              <tilted>0</tilted></feature>
            <threshold>-8.6070137331262231e-004</threshold>
            <left_val>-0.3298940956592560</left_val>
            <right_val>0.0835463404655457</right_val></_></_>
        <_>
          <_>
            <feature>
              <rects>
                <_>
                  11 25 8 3 -1.</_>
                <_>
                  13 27 4 3 2.</_></rects>
              <tilted>1</tilted></feature>
            <threshold>0.0141398003324866</threshold>
            <left_val>-0.1279053986072540</left_val>
            <right_val>0.4349989891052246</right_val></_></_>
        <_>
          <_>
            <feature>
              <rects>
                <_>
                  23 6 1 8 -1.</_>
                <_>
                  23 8 1 4 2.</_></rects>
              <tilted>0</tilted></feature>
            <threshold>-2.8696099761873484e-003</threshold>
            <left_val>0.3449591994285584</left_val>
            <right_val>-0.0749138966202736</right_val></_></_>
        <_>
          <_>
            <feature>
              <rects>
                <_>
                  6 20 3 3 -1.</_>
                <_>
                  6 21 3 1 3.</_></rects>
              <tilted>0</tilted></feature>
            <threshold>-9.9018705077469349e-004</threshold>
            <left_val>-0.5674185156822205</left_val>
            <right_val>0.1082262992858887</right_val></_></_>
        <_>
          <_>
            <feature>
              <rects>
                <_>
                  10 23 4 12 -1.</_>
                <_>
                  10 27 4 4 3.</_></rects>
              <tilted>0</tilted></feature>
            <threshold>-0.0123329898342490</threshold>
            <left_val>0.4259746074676514</left_val>
            <right_val>-0.1331502050161362</right_val></_></_>
        <_>
          <_>
            <feature>
              <rects>
                <_>
                  8 23 8 5 -1.</_>
                <_>
                  10 25 4 5 2.</_></rects>
              <tilted>1</tilted></feature>
            <threshold>0.0208098907023668</threshold>
            <left_val>-0.1260396987199783</left_val>
            <right_val>0.3797251880168915</right_val></_></_>
        <_>
          <_>
            <feature>
              <rects>
                <_>
                  12 30 8 6 -1.</_>
                <_>
                  14 30 4 6 2.</_></rects>
              <tilted>0</tilted></feature>
            <threshold>-0.0166388396173716</threshold>
            <left_val>0.3152019977569580</left_val>
            <right_val>-0.0293802805244923</right_val></_></_>
        <_>
          <_>
            <feature>
              <rects>
                <_>
                  4 30 8 6 -1.</_>
                <_>
                  6 30 4 6 2.</_></rects>
              <tilted>0</tilted></feature>
            <threshold>-4.4742031022906303e-003</threshold>
            <left_val>0.3231900930404663</left_val>
            <right_val>-0.1625542044639587</right_val></_></_>
        <_>
          <_>
            <feature>
              <rects>
                <_>
                  19 22 3 3 -1.</_>
                <_>
                  19 23 3 1 3.</_></rects>
              <tilted>0</tilted></feature>
            <threshold>-7.3547818465158343e-004</threshold>
            <left_val>-0.3621520102024078</left_val>
            <right_val>0.0729446634650230</right_val></_></_>
        <_>
          <_>
            <feature>
              <rects>
                <_>
                  1 0 14 4 -1.</_>
                <_>
                  1 0 7 2 2.</_>
                <_>
                  8 2 7 2 2.</_></rects>
              <tilted>0</tilted></feature>
            <threshold>9.0364478528499603e-003</threshold>
            <left_val>-0.1229508966207504</left_val>
            <right_val>0.3906030952930450</right_val></_></_>
        <_>
          <_>
            <feature>
              <rects>
                <_>
                  14 4 4 1 -1.</_>
                <_>
                  14 4 2 1 2.</_></rects>
              <tilted>0</tilted></feature>
            <threshold>4.7390640247613192e-004</threshold>
            <left_val>0.0621184185147285</left_val>
            <right_val>-0.1002373993396759</right_val></_></_>
        <_>
          <_>
            <feature>
              <rects>
                <_>
                  10 19 4 2 -1.</_>
                <_>
                  10 20 4 1 2.</_></rects>
              <tilted>0</tilted></feature>
            <threshold>9.4474712386727333e-004</threshold>
            <left_val>0.0896931216120720</left_val>
            <right_val>-0.5202835798263550</right_val></_></_>
        <_>
          <_>
            <feature>
              <rects>
                <_>
                  16 0 8 3 -1.</_>
                <_>
                  15 1 8 1 3.</_></rects>
              <tilted>1</tilted></feature>
            <threshold>3.7450119853019714e-003</threshold>
            <left_val>-0.0833124592900276</left_val>
            <right_val>0.1841042935848236</right_val></_></_>
        <_>
          <_>
            <feature>
              <rects>
                <_>
                  0 5 5 9 -1.</_>
                <_>
                  0 8 5 3 3.</_></rects>
              <tilted>0</tilted></feature>
            <threshold>-0.0149933202192187</threshold>
            <left_val>0.4137135148048401</left_val>
            <right_val>-0.1167754977941513</right_val></_></_>
        <_>
          <_>
            <feature>
              <rects>
                <_>
                  13 9 7 12 -1.</_>
                <_>
                  13 15 7 6 2.</_></rects>
              <tilted>0</tilted></feature>
            <threshold>0.0319153703749180</threshold>
            <left_val>0.0523041486740112</left_val>
            <right_val>-0.4107814133167267</right_val></_></_>
        <_>
          <_>
            <feature>
              <rects>
                <_>
                  10 2 8 6 -1.</_>
                <_>
                  10 2 8 3 2.</_></rects>
              <tilted>1</tilted></feature>
            <threshold>6.0099069960415363e-003</threshold>
            <left_val>0.2299876064062119</left_val>
            <right_val>-0.2126622945070267</right_val></_></_>
        <_>
          <_>
            <feature>
              <rects>
                <_>
                  3 6 18 4 -1.</_>
                <_>
                  9 6 6 4 3.</_></rects>
              <tilted>0</tilted></feature>
            <threshold>0.0810579285025597</threshold>
            <left_val>-0.0843517407774925</left_val>
            <right_val>0.6823552250862122</right_val></_></_>
        <_>
          <_>
            <feature>
              <rects>
                <_>
                  8 0 3 8 -1.</_>
                <_>
                  9 1 1 8 3.</_></rects>
              <tilted>1</tilted></feature>
            <threshold>3.1202540267258883e-003</threshold>
            <left_val>-0.1263900995254517</left_val>
            <right_val>0.3852857053279877</right_val></_></_>
        <_>
          <_>
            <feature>
              <rects>
                <_>
                  13 0 2 5 -1.</_>
                <_>
                  13 0 1 5 2.</_></rects>
              <tilted>0</tilted></feature>
            <threshold>2.8057079762220383e-003</threshold>
            <left_val>0.0552322417497635</left_val>
            <right_val>-0.5031847953796387</right_val></_></_>
        <_>
          <_>
            <feature>
              <rects>
                <_>
                  11 9 2 2 -1.</_>
                <_>
                  11 10 2 1 2.</_></rects>
              <tilted>0</tilted></feature>
            <threshold>7.8112928895279765e-004</threshold>
            <left_val>0.0672245025634766</left_val>
            <right_val>-0.6798530220985413</right_val></_></_>
        <_>
          <_>
            <feature>
              <rects>
                <_>
                  20 7 3 6 -1.</_>
                <_>
                  20 9 3 2 3.</_></rects>
              <tilted>0</tilted></feature>
            <threshold>3.6875989753752947e-003</threshold>
            <left_val>-0.1127671971917152</left_val>
            <right_val>0.3298450112342835</right_val></_></_>
        <_>
          <_>
            <feature>
              <rects>
                <_>
                  10 17 4 10 -1.</_>
                <_>
                  11 18 2 10 2.</_></rects>
              <tilted>1</tilted></feature>
            <threshold>-2.4961630697362125e-004</threshold>
            <left_val>0.2456289976835251</left_val>
            <right_val>-0.2084510028362274</right_val></_></_></trees>
      <stage_threshold>-1.1171979904174805</stage_threshold>
      <parent>5</parent>
      <next>-1</next></_>
    <_>
      <trees>
        <_>
          <_>
            <feature>
              <rects>
                <_>
                  7 12 15 7 -1.</_>
                <_>
                  12 17 5 7 3.</_></rects>
              <tilted>1</tilted></feature>
            <threshold>0.0893130972981453</threshold>
            <left_val>-0.2297417968511581</left_val>
            <right_val>0.3846032023429871</right_val></_></_>
        <_>
          <_>
            <feature>
              <rects>
                <_>
                  13 27 4 5 -1.</_>
                <_>
                  14 28 2 5 2.</_></rects>
              <tilted>1</tilted></feature>
            <threshold>-3.9860769174993038e-003</threshold>
            <left_val>0.2257561981678009</left_val>
            <right_val>-0.0900048166513443</right_val></_></_>
        <_>
          <_>
            <feature>
              <rects>
                <_>
                  0 2 24 10 -1.</_>
                <_>
                  6 2 12 10 2.</_></rects>
              <tilted>0</tilted></feature>
            <threshold>0.1003879979252815</threshold>
            <left_val>-0.2096693962812424</left_val>
            <right_val>0.2939524948596954</right_val></_></_>
        <_>
          <_>
            <feature>
              <rects>
                <_>
                  23 2 1 18 -1.</_>
                <_>
                  23 8 1 6 3.</_></rects>
              <tilted>0</tilted></feature>
            <threshold>-0.0101912999525666</threshold>
            <left_val>0.3534159064292908</left_val>
            <right_val>-0.2059517949819565</right_val></_></_>
        <_>
          <_>
            <feature>
              <rects>
                <_>
                  0 16 16 15 -1.</_>
                <_>
                  4 16 8 15 2.</_></rects>
              <tilted>0</tilted></feature>
            <threshold>-0.0477380603551865</threshold>
            <left_val>0.4438998103141785</left_val>
            <right_val>-0.1397217959165573</right_val></_></_>
        <_>
          <_>
            <feature>
              <rects>
                <_>
                  20 0 4 6 -1.</_>
                <_>
                  20 2 4 2 3.</_></rects>
              <tilted>0</tilted></feature>
            <threshold>5.0503071397542953e-003</threshold>
            <left_val>-0.0628682672977448</left_val>
            <right_val>0.3149529993534088</right_val></_></_>
        <_>
          <_>
            <feature>
              <rects>
                <_>
                  0 0 4 6 -1.</_>
                <_>
                  0 2 4 2 3.</_></rects>
              <tilted>0</tilted></feature>
            <threshold>0.0102722104638815</threshold>
            <left_val>-0.0842144489288330</left_val>
            <right_val>0.6378539204597473</right_val></_></_>
        <_>
          <_>
            <feature>
              <rects>
                <_>
                  4 9 16 12 -1.</_>
                <_>
                  4 13 16 4 3.</_></rects>
              <tilted>0</tilted></feature>
            <threshold>-0.0164536405354738</threshold>
            <left_val>0.2111172974109650</left_val>
            <right_val>-0.2453158050775528</right_val></_></_>
        <_>
          <_>
            <feature>
              <rects>
                <_>
                  9 6 5 6 -1.</_>
                <_>
                  9 8 5 2 3.</_></rects>
              <tilted>0</tilted></feature>
            <threshold>5.4756440222263336e-003</threshold>
            <left_val>0.1147155985236168</left_val>
            <right_val>-0.5672752261161804</right_val></_></_>
        <_>
          <_>
            <feature>
              <rects>
                <_>
                  18 10 3 3 -1.</_>
                <_>
                  19 11 1 3 3.</_></rects>
              <tilted>1</tilted></feature>
            <threshold>2.6544670108705759e-003</threshold>
            <left_val>-0.0807273164391518</left_val>
            <right_val>0.3375934958457947</right_val></_></_>
        <_>
          <_>
            <feature>
              <rects>
                <_>
                  0 12 13 18 -1.</_>
                <_>
                  0 21 13 9 2.</_></rects>
              <tilted>0</tilted></feature>
            <threshold>0.1213560998439789</threshold>
            <left_val>0.0463396199047565</left_val>
            <right_val>-0.8580138087272644</right_val></_></_>
        <_>
          <_>
            <feature>
              <rects>
                <_>
                  18 19 1 3 -1.</_>
                <_>
                  18 20 1 1 3.</_></rects>
              <tilted>0</tilted></feature>
            <threshold>-3.3673469442874193e-004</threshold>
            <left_val>-0.3587374091148377</left_val>
            <right_val>0.0325944200158119</right_val></_></_>
        <_>
          <_>
            <feature>
              <rects>
                <_>
                  5 9 4 3 -1.</_>
                <_>
                  4 10 4 1 3.</_></rects>
              <tilted>1</tilted></feature>
            <threshold>2.5562581140547991e-003</threshold>
            <left_val>-0.1196203008294106</left_val>
            <right_val>0.3780716955661774</right_val></_></_>
        <_>
          <_>
            <feature>
              <rects>
                <_>
                  16 19 3 3 -1.</_>
                <_>
                  16 20 3 1 3.</_></rects>
              <tilted>0</tilted></feature>
            <threshold>1.2570259859785438e-003</threshold>
            <left_val>0.0645956024527550</left_val>
            <right_val>-0.3534865975379944</right_val></_></_>
        <_>
          <_>
            <feature>
              <rects>
                <_>
                  0 6 4 9 -1.</_>
                <_>
                  0 9 4 3 3.</_></rects>
              <tilted>0</tilted></feature>
            <threshold>-0.0184531807899475</threshold>
            <left_val>0.4818189144134522</left_val>
            <right_val>-0.1167612001299858</right_val></_></_>
        <_>
          <_>
            <feature>
              <rects>
                <_>
                  16 19 3 3 -1.</_>
                <_>
                  16 20 3 1 3.</_></rects>
              <tilted>0</tilted></feature>
            <threshold>2.1418800315586850e-005</threshold>
            <left_val>-0.0658050104975700</left_val>
            <right_val>0.1111660003662109</right_val></_></_>
        <_>
          <_>
            <feature>
              <rects>
                <_>
                  5 19 3 3 -1.</_>
                <_>
                  5 20 3 1 3.</_></rects>
              <tilted>0</tilted></feature>
            <threshold>7.2189397178590298e-004</threshold>
            <left_val>0.1069317981600761</left_val>
            <right_val>-0.4674282968044281</right_val></_></_>
        <_>
          <_>
            <feature>
              <rects>
                <_>
                  15 18 6 12 -1.</_>
                <_>
                  12 21 6 6 2.</_></rects>
              <tilted>1</tilted></feature>
            <threshold>0.0481107085943222</threshold>
            <left_val>-0.1253769993782044</left_val>
            <right_val>0.2807793021202087</right_val></_></_>
        <_>
          <_>
            <feature>
              <rects>
                <_>
                  0 0 10 6 -1.</_>
                <_>
                  0 0 5 3 2.</_>
                <_>
                  5 3 5 3 2.</_></rects>
              <tilted>0</tilted></feature>
            <threshold>0.0120796496048570</threshold>
            <left_val>-0.1282016038894653</left_val>
            <right_val>0.3803510069847107</right_val></_></_>
        <_>
          <_>
            <feature>
              <rects>
                <_>
                  21 10 2 9 -1.</_>
                <_>
                  21 13 2 3 3.</_></rects>
              <tilted>0</tilted></feature>
            <threshold>-0.0115659898146987</threshold>
            <left_val>0.3673563003540039</left_val>
            <right_val>-0.0353329107165337</right_val></_></_>
        <_>
          <_>
            <feature>
              <rects>
                <_>
                  1 10 2 9 -1.</_>
                <_>
                  1 13 2 3 3.</_></rects>
              <tilted>0</tilted></feature>
            <threshold>-5.0248838961124420e-003</threshold>
            <left_val>0.3905783891677856</left_val>
            <right_val>-0.1154265999794006</right_val></_></_>
        <_>
          <_>
            <feature>
              <rects>
                <_>
                  22 6 1 4 -1.</_>
                <_>
                  22 7 1 2 2.</_></rects>
              <tilted>0</tilted></feature>
            <threshold>-3.2185288728214800e-004</threshold>
            <left_val>0.1885789036750794</left_val>
            <right_val>-0.0837937667965889</right_val></_></_>
        <_>
          <_>
            <feature>
              <rects>
                <_>
                  8 10 7 3 -1.</_>
                <_>
                  8 11 7 1 3.</_></rects>
              <tilted>0</tilted></feature>
            <threshold>1.6990719595924020e-003</threshold>
            <left_val>0.0790229663252831</left_val>
            <right_val>-0.5816503763198853</right_val></_></_>
        <_>
          <_>
            <feature>
              <rects>
                <_>
                  1 1 22 22 -1.</_>
                <_>
                  1 12 22 11 2.</_></rects>
              <tilted>0</tilted></feature>
            <threshold>0.1676992028951645</threshold>
            <left_val>0.0396363697946072</left_val>
            <right_val>-0.8807448744773865</right_val></_></_>
        <_>
          <_>
            <feature>
              <rects>
                <_>
                  0 0 24 30 -1.</_>
                <_>
                  0 15 24 15 2.</_></rects>
              <tilted>0</tilted></feature>
            <threshold>-0.3917069137096405</threshold>
            <left_val>-0.5917220711708069</left_val>
            <right_val>0.0666895210742950</right_val></_></_>
        <_>
          <_>
            <feature>
              <rects>
                <_>
                  20 21 3 2 -1.</_>
                <_>
                  20 22 3 1 2.</_></rects>
              <tilted>0</tilted></feature>
            <threshold>-2.0777760073542595e-003</threshold>
            <left_val>-0.5776718854904175</left_val>
            <right_val>0.0128524098545313</right_val></_></_>
        <_>
          <_>
            <feature>
              <rects>
                <_>
                  0 0 24 5 -1.</_>
                <_>
                  12 0 12 5 2.</_></rects>
              <tilted>0</tilted></feature>
            <threshold>0.0771777331829071</threshold>
            <left_val>0.0680892169475555</left_val>
            <right_val>-0.6605048179626465</right_val></_></_>
        <_>
          <_>
            <feature>
              <rects>
                <_>
                  15 19 9 4 -1.</_>
                <_>
                  15 20 9 2 2.</_></rects>
              <tilted>0</tilted></feature>
            <threshold>-1.0103350505232811e-003</threshold>
            <left_val>-0.1959373950958252</left_val>
            <right_val>0.0553515292704105</right_val></_></_>
        <_>
          <_>
            <feature>
              <rects>
                <_>
                  0 16 1 20 -1.</_>
                <_>
                  0 21 1 10 2.</_></rects>
              <tilted>0</tilted></feature>
            <threshold>4.9773831851780415e-003</threshold>
            <left_val>0.1139744967222214</left_val>
            <right_val>-0.4106729924678803</right_val></_></_>
        <_>
          <_>
            <feature>
              <rects>
                <_>
                  15 19 9 2 -1.</_>
                <_>
                  15 20 9 1 2.</_></rects>
              <tilted>0</tilted></feature>
            <threshold>2.7632201090455055e-003</threshold>
            <left_val>0.0333877913653851</left_val>
            <right_val>-0.4293090105056763</right_val></_></_>
        <_>
          <_>
            <feature>
              <rects>
                <_>
                  0 19 9 2 -1.</_>
                <_>
                  0 20 9 1 2.</_></rects>
              <tilted>0</tilted></feature>
            <threshold>-1.7966730520129204e-003</threshold>
            <left_val>-0.5078855156898499</left_val>
            <right_val>0.0952896028757095</right_val></_></_>
        <_>
          <_>
            <feature>
              <rects>
                <_>
                  20 1 3 4 -1.</_>
                <_>
                  20 2 3 2 2.</_></rects>
              <tilted>0</tilted></feature>
            <threshold>-1.1966089950874448e-003</threshold>
            <left_val>0.2502836883068085</left_val>
            <right_val>-0.0799993202090263</right_val></_></_>
        <_>
          <_>
            <feature>
              <rects>
                <_>
                  6 0 11 4 -1.</_>
                <_>
                  6 1 11 2 2.</_></rects>
              <tilted>0</tilted></feature>
            <threshold>5.9257899411022663e-003</threshold>
            <left_val>-0.0910253077745438</left_val>
            <right_val>0.4929333925247192</right_val></_></_>
        <_>
          <_>
            <feature>
              <rects>
                <_>
                  10 1 4 11 -1.</_>
                <_>
                  10 1 2 11 2.</_></rects>
              <tilted>0</tilted></feature>
            <threshold>8.0156512558460236e-003</threshold>
            <left_val>0.1031299978494644</left_val>
            <right_val>-0.4840806126594544</right_val></_></_>
        <_>
          <_>
            <feature>
              <rects>
                <_>
                  1 1 3 4 -1.</_>
                <_>
                  1 2 3 2 2.</_></rects>
              <tilted>0</tilted></feature>
            <threshold>-2.0064150448888540e-003</threshold>
            <left_val>0.5123779177665710</left_val>
            <right_val>-0.1031095981597900</right_val></_></_>
        <_>
          <_>
            <feature>
              <rects>
                <_>
                  18 13 4 3 -1.</_>
                <_>
                  18 14 4 1 3.</_></rects>
              <tilted>0</tilted></feature>
            <threshold>1.3403539778664708e-003</threshold>
            <left_val>-0.0631358698010445</left_val>
            <right_val>0.3294743895530701</right_val></_></_>
        <_>
          <_>
            <feature>
              <rects>
                <_>
                  3 4 18 13 -1.</_>
                <_>
                  9 4 6 13 3.</_></rects>
              <tilted>0</tilted></feature>
            <threshold>0.2183714061975479</threshold>
            <left_val>-0.0689641386270523</left_val>
            <right_val>0.6354529857635498</right_val></_></_>
        <_>
          <_>
            <feature>
              <rects>
                <_>
                  6 1 12 9 -1.</_>
                <_>
                  9 1 6 9 2.</_></rects>
              <tilted>0</tilted></feature>
            <threshold>-7.4010901153087616e-003</threshold>
            <left_val>0.2953861951828003</left_val>
            <right_val>-0.1552450954914093</right_val></_></_>
        <_>
          <_>
            <feature>
              <rects>
                <_>
                  10 11 4 2 -1.</_>
                <_>
                  10 12 4 1 2.</_></rects>
              <tilted>0</tilted></feature>
            <threshold>9.1529911151155829e-004</threshold>
            <left_val>0.0853125303983688</left_val>
            <right_val>-0.5480610132217407</right_val></_></_>
        <_>
          <_>
            <feature>
              <rects>
                <_>
                  12 21 2 8 -1.</_>
                <_>
                  12 21 1 8 2.</_></rects>
              <tilted>1</tilted></feature>
            <threshold>6.1236540786921978e-003</threshold>
            <left_val>-0.0438702702522278</left_val>
            <right_val>0.2158595025539398</right_val></_></_>
        <_>
          <_>
            <feature>
              <rects>
                <_>
                  12 19 12 4 -1.</_>
                <_>
                  12 19 12 2 2.</_></rects>
              <tilted>1</tilted></feature>
            <threshold>0.0207569506019354</threshold>
            <left_val>-0.1178172975778580</left_val>
            <right_val>0.3836567997932434</right_val></_></_>
        <_>
          <_>
            <feature>
              <rects>
                <_>
                  16 24 8 6 -1.</_>
                <_>
                  18 24 4 6 2.</_></rects>
              <tilted>0</tilted></feature>
            <threshold>-9.2558190226554871e-003</threshold>
            <left_val>0.3272252082824707</left_val>
            <right_val>-0.0971390828490257</right_val></_></_>
        <_>
          <_>
            <feature>
              <rects>
                <_>
                  0 24 8 6 -1.</_>
                <_>
                  2 24 4 6 2.</_></rects>
              <tilted>0</tilted></feature>
            <threshold>-5.9826611541211605e-003</threshold>
            <left_val>0.2970393002033234</left_val>
            <right_val>-0.1688672006130219</right_val></_></_>
        <_>
          <_>
            <feature>
              <rects>
                <_>
                  15 12 4 12 -1.</_>
                <_>
                  15 12 4 6 2.</_></rects>
              <tilted>1</tilted></feature>
            <threshold>-0.0477694310247898</threshold>
            <left_val>0.2895711064338684</left_val>
            <right_val>-0.0331786498427391</right_val></_></_>
        <_>
          <_>
            <feature>
              <rects>
                <_>
                  0 23 5 2 -1.</_>
                <_>
                  0 24 5 1 2.</_></rects>
              <tilted>0</tilted></feature>
            <threshold>-1.4420560328289866e-003</threshold>
            <left_val>-0.5741750001907349</left_val>
            <right_val>0.0870900675654411</right_val></_></_></trees>
      <stage_threshold>-1.2496069669723511</stage_threshold>
      <parent>6</parent>
      <next>-1</next></_>
    <_>
      <trees>
        <_>
          <_>
            <feature>
              <rects>
                <_>
                  10 21 4 14 -1.</_>
                <_>
                  10 28 4 7 2.</_></rects>
              <tilted>0</tilted></feature>
            <threshold>-0.0468005016446114</threshold>
            <left_val>0.4826982021331787</left_val>
            <right_val>-0.1955659985542297</right_val></_></_>
        <_>
          <_>
            <feature>
              <rects>
                <_>
                  20 6 4 11 -1.</_>
                <_>
                  20 6 2 11 2.</_></rects>
              <tilted>1</tilted></feature>
            <threshold>0.0308070499449968</threshold>
            <left_val>-0.1126582026481628</left_val>
            <right_val>0.3798458874225617</right_val></_></_>
        <_>
          <_>
            <feature>
              <rects>
                <_>
                  0 3 6 4 -1.</_>
                <_>
                  0 5 6 2 2.</_></rects>
              <tilted>0</tilted></feature>
            <threshold>-8.2343779504299164e-003</threshold>
            <left_val>0.4444104135036469</left_val>
            <right_val>-0.1751756072044373</right_val></_></_>
        <_>
          <_>
            <feature>
              <rects>
                <_>
                  20 6 4 13 -1.</_>
                <_>
                  20 6 2 13 2.</_></rects>
              <tilted>1</tilted></feature>
            <threshold>0.0690031275153160</threshold>
            <left_val>0.0440352708101273</left_val>
            <right_val>-0.5337523818016052</right_val></_></_>
        <_>
          <_>
            <feature>
              <rects>
                <_>
                  4 6 13 4 -1.</_>
                <_>
                  4 6 13 2 2.</_></rects>
              <tilted>1</tilted></feature>
            <threshold>0.0207043699920177</threshold>
            <left_val>-0.2132543027400971</left_val>
            <right_val>0.3159917891025543</right_val></_></_>
        <_>
          <_>
            <feature>
              <rects>
                <_>
                  6 22 12 12 -1.</_>
                <_>
                  6 26 12 4 3.</_></rects>
              <tilted>0</tilted></feature>
            <threshold>0.0366494618356228</threshold>
            <left_val>-0.1847438961267471</left_val>
            <right_val>0.3539366126060486</right_val></_></_>
        <_>
          <_>
            <feature>
              <rects>
                <_>
                  0 0 18 3 -1.</_>
                <_>
                  0 1 18 1 3.</_></rects>
              <tilted>0</tilted></feature>
            <threshold>-3.7222080864012241e-003</threshold>
            <left_val>0.4536097049713135</left_val>
            <right_val>-0.1018410995602608</right_val></_></_>
        <_>
          <_>
            <feature>
              <rects>
                <_>
                  5 0 14 3 -1.</_>
                <_>
                  5 1 14 1 3.</_></rects>
              <tilted>0</tilted></feature>
            <threshold>2.2612749598920345e-003</threshold>
            <left_val>-0.1348634958267212</left_val>
            <right_val>0.3628452122211456</right_val></_></_>
        <_>
          <_>
            <feature>
              <rects>
                <_>
                  9 0 2 5 -1.</_>
                <_>
                  10 0 1 5 2.</_></rects>
              <tilted>0</tilted></feature>
            <threshold>-2.7551809325814247e-003</threshold>
            <left_val>-0.6872047781944275</left_val>
            <right_val>0.0551813691854477</right_val></_></_>
        <_>
          <_>
            <feature>
              <rects>
                <_>
                  9 16 6 2 -1.</_>
                <_>
                  9 17 6 1 2.</_></rects>
              <tilted>0</tilted></feature>
            <threshold>-1.1926259612664580e-003</threshold>
            <left_val>-0.4877468049526215</left_val>
            <right_val>0.0998214408755302</right_val></_></_>
        <_>
          <_>
            <feature>
              <rects>
                <_>
                  0 16 23 20 -1.</_>
                <_>
                  0 21 23 10 2.</_></rects>
              <tilted>0</tilted></feature>
            <threshold>0.1751015037298203</threshold>
            <left_val>0.0736916065216064</left_val>
            <right_val>-0.6174699068069458</right_val></_></_>
        <_>
          <_>
            <feature>
              <rects>
                <_>
                  12 20 8 2 -1.</_>
                <_>
                  12 21 8 1 2.</_></rects>
              <tilted>0</tilted></feature>
            <threshold>-9.7015989013016224e-004</threshold>
            <left_val>-0.3089340031147003</left_val>
            <right_val>0.0783285722136498</right_val></_></_>
        <_>
          <_>
            <feature>
              <rects>
                <_>
                  3 9 7 3 -1.</_>
                <_>
                  2 10 7 1 3.</_></rects>
              <tilted>1</tilted></feature>
            <threshold>-9.0839322656393051e-003</threshold>
            <left_val>0.4796898961067200</left_val>
            <right_val>-0.0957872271537781</right_val></_></_>
        <_>
          <_>
            <feature>
              <rects>
                <_>
                  21 8 3 6 -1.</_>
                <_>
                  22 9 1 6 3.</_></rects>
              <tilted>1</tilted></feature>
            <threshold>4.6397941187024117e-003</threshold>
            <left_val>-0.0904252529144287</left_val>
            <right_val>0.3358537852764130</right_val></_></_>
        <_>
          <_>
            <feature>
              <rects>
                <_>
                  3 8 6 3 -1.</_>
                <_>
                  2 9 6 1 3.</_></rects>
              <tilted>1</tilted></feature>
            <threshold>2.2841619793325663e-003</threshold>
            <left_val>-0.1199747025966644</left_val>
            <right_val>0.3720715045928955</right_val></_></_>
        <_>
          <_>
            <feature>
              <rects>
                <_>
                  15 21 5 2 -1.</_>
                <_>
                  15 22 5 1 2.</_></rects>
              <tilted>0</tilted></feature>
            <threshold>-6.9576641544699669e-004</threshold>
            <left_val>-0.2773773968219757</left_val>
            <right_val>0.0880775302648544</right_val></_></_>
        <_>
          <_>
            <feature>
              <rects>
                <_>
                  0 14 15 14 -1.</_>
                <_>
                  5 14 5 14 3.</_></rects>
              <tilted>0</tilted></feature>
            <threshold>-0.1430539041757584</threshold>
            <left_val>0.6912056207656860</left_val>
            <right_val>-0.0778898075222969</right_val></_></_>
        <_>
          <_>
            <feature>
              <rects>
                <_>
                  3 0 20 20 -1.</_>
                <_>
                  13 0 10 10 2.</_>
                <_>
                  3 10 10 10 2.</_></rects>
              <tilted>0</tilted></feature>
            <threshold>-0.1566776037216187</threshold>
            <left_val>-0.6824511885643005</left_val>
            <right_val>0.0463603399693966</right_val></_></_>
        <_>
          <_>
            <feature>
              <rects>
                <_>
                  4 21 5 2 -1.</_>
                <_>
                  4 22 5 1 2.</_></rects>
              <tilted>0</tilted></feature>
            <threshold>-6.6494598286226392e-004</threshold>
            <left_val>-0.3930039107799530</left_val>
            <right_val>0.1234487965703011</right_val></_></_>
        <_>
          <_>
            <feature>
              <rects>
                <_>
                  16 5 1 3 -1.</_>
                <_>
                  15 6 1 1 3.</_></rects>
              <tilted>1</tilted></feature>
            <threshold>2.2114259190857410e-003</threshold>
            <left_val>0.0396136194467545</left_val>
            <right_val>-0.4851264953613281</right_val></_></_>
        <_>
          <_>
            <feature>
              <rects>
                <_>
                  4 20 15 9 -1.</_>
                <_>
                  4 23 15 3 3.</_></rects>
              <tilted>0</tilted></feature>
            <threshold>-6.6149309277534485e-003</threshold>
            <left_val>0.3089551031589508</left_val>
            <right_val>-0.1540443003177643</right_val></_></_>
        <_>
          <_>
            <feature>
              <rects>
                <_>
                  8 20 10 16 -1.</_>
                <_>
                  8 28 10 8 2.</_></rects>
              <tilted>0</tilted></feature>
            <threshold>-0.0465784184634686</threshold>
            <left_val>0.1819725930690765</left_val>
            <right_val>-0.1863694041967392</right_val></_></_>
        <_>
          <_>
            <feature>
              <rects>
                <_>
                  0 3 1 8 -1.</_>
                <_>
                  0 5 1 4 2.</_></rects>
              <tilted>0</tilted></feature>
            <threshold>-2.1075368858873844e-003</threshold>
            <left_val>0.4086515903472900</left_val>
            <right_val>-0.1280232965946198</right_val></_></_>
        <_>
          <_>
            <feature>
              <rects>
                <_>
                  21 2 3 9 -1.</_>
                <_>
                  21 5 3 3 3.</_></rects>
              <tilted>0</tilted></feature>
            <threshold>0.0125422300770879</threshold>
            <left_val>-0.0704618394374847</left_val>
            <right_val>0.4335691034793854</right_val></_></_>
        <_>
          <_>
            <feature>
              <rects>
                <_>
                  0 2 24 14 -1.</_>
                <_>
                  8 2 8 14 3.</_></rects>
              <tilted>0</tilted></feature>
            <threshold>0.2497034072875977</threshold>
            <left_val>-0.1436097025871277</left_val>
            <right_val>0.3414529860019684</right_val></_></_>
        <_>
          <_>
            <feature>
              <rects>
                <_>
                  21 2 3 9 -1.</_>
                <_>
                  21 5 3 3 3.</_></rects>
              <tilted>0</tilted></feature>
            <threshold>-0.0166594590991735</threshold>
            <left_val>0.5513452887535095</left_val>
