<?xml version="1.0"?>
<opencv_storage>
<haarcascade_nelore_20_20x30 type_id="opencv-haar-classifier">
  <size>
    20 30</size>
  <stages>
    <_>
      <trees>
        <_>
          <_>
            <feature>
              <rects>
                <_>
                  1 5 18 19 -1.</_>
                <_>
                  7 5 6 19 3.</_></rects>
              <tilted>0</tilted></feature>
            <threshold>0.1463354974985123</threshold>
            <left_val>-0.4494081139564514</left_val>
            <right_val>0.8674923181533814</right_val></_></_>
        <_>
          <_>
            <feature>
              <rects>
                <_>
                  10 3 8 8 -1.</_>
                <_>
                  12 3 4 8 2.</_></rects>
              <tilted>0</tilted></feature>
            <threshold>0.0132010299712420</threshold>
            <left_val>-0.2497148960828781</left_val>
            <right_val>0.6535267233848572</right_val></_></_>
        <_>
          <_>
            <feature>
              <rects>
                <_>
                  1 4 17 21 -1.</_>
                <_>
                  1 11 17 7 3.</_></rects>
              <tilted>0</tilted></feature>
            <threshold>-4.9252321332460269e-005</threshold>
            <left_val>0.3698576092720032</left_val>
            <right_val>-0.6038239002227783</right_val></_></_>
        <_>
          <_>
            <feature>
              <rects>
                <_>
                  17 6 1 4 -1.</_>
                <_>
                  17 6 1 2 2.</_></rects>
              <tilted>1</tilted></feature>
            <threshold>-6.4328676671721041e-005</threshold>
            <left_val>0.3096727132797241</left_val>
            <right_val>-0.1805682927370071</right_val></_></_>
        <_>
          <_>
            <feature>
              <rects>
                <_>
                  2 2 6 5 -1.</_>
                <_>
                  5 2 3 5 2.</_></rects>
              <tilted>0</tilted></feature>
            <threshold>0.0104751801118255</threshold>
            <left_val>-0.2618680000305176</left_val>
            <right_val>0.6816251873970032</right_val></_></_>
        <_>
          <_>
            <feature>
              <rects>
                <_>
                  2 1 16 6 -1.</_>
                <_>
                  6 1 8 6 2.</_></rects>
              <tilted>0</tilted></feature>
            <threshold>-0.0158035997301340</threshold>
            <left_val>0.6633195281028748</left_val>
            <right_val>-0.4543968141078949</right_val></_></_>
        <_>
          <_>
            <feature>
              <rects>
                <_>
                  1 0 18 28 -1.</_>
                <_>
                  1 14 18 14 2.</_></rects>
              <tilted>0</tilted></feature>
            <threshold>-0.0232058893889189</threshold>
            <left_val>0.4083986878395081</left_val>
            <right_val>-0.4728921949863434</right_val></_></_>
        <_>
          <_>
            <feature>
              <rects>
                <_>
                  11 4 9 13 -1.</_>
                <_>
                  14 4 3 13 3.</_></rects>
              <tilted>0</tilted></feature>
            <threshold>0.0320926383137703</threshold>
            <left_val>-0.2033416926860809</left_val>
            <right_val>0.6396585702896118</right_val></_></_>
        <_>
          <_>
            <feature>
              <rects>
                <_>
                  4 7 2 2 -1.</_>
                <_>
                  4 7 1 2 2.</_></rects>
              <tilted>1</tilted></feature>
            <threshold>-1.1792870282079093e-005</threshold>
            <left_val>0.4440363943576813</left_val>
            <right_val>-0.4437856078147888</right_val></_></_>
        <_>
          <_>
            <feature>
              <rects>
                <_>
                  4 1 12 12 -1.</_>
                <_>
                  7 1 6 12 2.</_></rects>
              <tilted>0</tilted></feature>
            <threshold>0.0393635109066963</threshold>
            <left_val>-0.2248155027627945</left_val>
            <right_val>0.7680988907814026</right_val></_></_>
        <_>
          <_>
            <feature>
              <rects>
                <_>
                  0 18 20 2 -1.</_>
                <_>
                  5 18 10 2 2.</_></rects>
              <tilted>0</tilted></feature>
            <threshold>-7.8801941126585007e-003</threshold>
            <left_val>0.5913621187210083</left_val>
            <right_val>-0.4398606121540070</right_val></_></_></trees>
      <stage_threshold>-1.6629190444946289</stage_threshold>
      <parent>-1</parent>
      <next>-1</next></_>
    <_>
      <trees>
        <_>
          <_>
            <feature>
              <rects>
                <_>
                  1 2 18 28 -1.</_>
                <_>
                  7 2 6 28 3.</_></rects>
              <tilted>0</tilted></feature>
            <threshold>0.2663600146770477</threshold>
            <left_val>-0.3706574141979218</left_val>
            <right_val>0.8127145767211914</right_val></_></_>
        <_>
          <_>
            <feature>
              <rects>
                <_>
                  3 2 17 16 -1.</_>
                <_>
                  3 10 17 8 2.</_></rects>
              <tilted>0</tilted></feature>
            <threshold>-7.6319917570799589e-004</threshold>
            <left_val>0.2579692006111145</left_val>
            <right_val>-0.5637266039848328</right_val></_></_>
        <_>
          <_>
            <feature>
              <rects>
                <_>
                  1 9 12 1 -1.</_>
                <_>
                  1 9 6 1 2.</_></rects>
              <tilted>1</tilted></feature>
            <threshold>-2.3920650128275156e-003</threshold>
            <left_val>0.4162648916244507</left_val>
            <right_val>-0.3632644116878510</right_val></_></_>
        <_>
          <_>
            <feature>
              <rects>
                <_>
                  0 3 20 6 -1.</_>
                <_>
                  5 3 10 6 2.</_></rects>
              <tilted>0</tilted></feature>
            <threshold>0.0916071683168411</threshold>
            <left_val>-0.1490882933139801</left_val>
            <right_val>0.7241721153259277</right_val></_></_>
        <_>
          <_>
            <feature>
              <rects>
                <_>
                  5 1 9 7 -1.</_>
                <_>
                  8 1 3 7 3.</_></rects>
              <tilted>0</tilted></feature>
            <threshold>-8.6063025519251823e-003</threshold>
            <left_val>0.4605905115604401</left_val>
            <right_val>-0.4393280148506165</right_val></_></_>
        <_>
          <_>
            <feature>
              <rects>
                <_>
                  14 2 6 12 -1.</_>
                <_>
                  17 2 3 6 2.</_>
                <_>
                  14 8 3 6 2.</_></rects>
              <tilted>0</tilted></feature>
            <threshold>0.0116061400622129</threshold>
            <left_val>-0.1629626005887985</left_val>
            <right_val>0.4120903015136719</right_val></_></_>
        <_>
          <_>
            <feature>
              <rects>
                <_>
                  0 16 20 4 -1.</_>
                <_>
                  5 16 10 4 2.</_></rects>
              <tilted>0</tilted></feature>
            <threshold>-0.0203313305974007</threshold>
            <left_val>0.4566228091716766</left_val>
            <right_val>-0.3257707059383392</right_val></_></_>
        <_>
          <_>
            <feature>
              <rects>
                <_>
                  14 14 6 3 -1.</_>
                <_>
                  14 14 3 3 2.</_></rects>
              <tilted>0</tilted></feature>
            <threshold>6.6670658998191357e-003</threshold>
            <left_val>-0.1148468032479286</left_val>
            <right_val>0.3510460853576660</right_val></_></_>
        <_>
          <_>
            <feature>
              <rects>
                <_>
                  0 0 18 30 -1.</_>
                <_>
                  0 15 18 15 2.</_></rects>
              <tilted>0</tilted></feature>
            <threshold>-0.0202137399464846</threshold>
            <left_val>0.3011767864227295</left_val>
            <right_val>-0.5144250988960266</right_val></_></_>
        <_>
          <_>
            <feature>
              <rects>
                <_>
                  14 14 6 3 -1.</_>
                <_>
                  14 14 3 3 2.</_></rects>
              <tilted>0</tilted></feature>
            <threshold>-5.6290011852979660e-003</threshold>
            <left_val>0.4466597139835358</left_val>
            <right_val>-0.1998891979455948</right_val></_></_>
        <_>
          <_>
            <feature>
              <rects>
                <_>
                  0 13 6 5 -1.</_>
                <_>
                  3 13 3 5 2.</_></rects>
              <tilted>0</tilted></feature>
            <threshold>0.0160982403904200</threshold>
            <left_val>-0.1817319989204407</left_val>
            <right_val>0.7281516194343567</right_val></_></_>
        <_>
          <_>
            <feature>
              <rects>
                <_>
                  0 7 20 16 -1.</_>
                <_>
                  0 15 20 8 2.</_></rects>
              <tilted>0</tilted></feature>
            <threshold>5.4756770841777325e-003</threshold>
            <left_val>-0.3773328959941864</left_val>
            <right_val>0.5254849195480347</right_val></_></_>
        <_>
          <_>
            <feature>
              <rects>
                <_>
                  2 6 16 18 -1.</_>
                <_>
                  2 15 16 9 2.</_></rects>
              <tilted>0</tilted></feature>
            <threshold>-5.3610937902703881e-004</threshold>
            <left_val>0.3226869106292725</left_val>
            <right_val>-0.6327512860298157</right_val></_></_>
        <_>
          <_>
            <feature>
              <rects>
                <_>
                  3 6 16 18 -1.</_>
                <_>
                  3 15 16 9 2.</_></rects>
              <tilted>0</tilted></feature>
            <threshold>1.6035519365686923e-004</threshold>
            <left_val>-0.2966983020305634</left_val>
            <right_val>0.5743064284324646</right_val></_></_>
        <_>
          <_>
            <feature>
              <rects>
                <_>
                  2 9 9 16 -1.</_>
                <_>
                  2 13 9 8 2.</_></rects>
              <tilted>0</tilted></feature>
            <threshold>-2.4808149319142103e-003</threshold>
            <left_val>0.3502568900585175</left_val>
            <right_val>-0.5750079154968262</right_val></_></_>
        <_>
          <_>
            <feature>
              <rects>
                <_>
                  15 6 4 15 -1.</_>
                <_>
                  10 11 4 5 3.</_></rects>
              <tilted>1</tilted></feature>
            <threshold>5.5779598187655210e-004</threshold>
            <left_val>-0.2647990882396698</left_val>
            <right_val>0.4126253128051758</right_val></_></_>
        <_>
          <_>
            <feature>
              <rects>
                <_>
                  0 7 5 10 -1.</_>
                <_>
                  0 12 5 5 2.</_></rects>
              <tilted>0</tilted></feature>
            <threshold>9.3275586550589651e-005</threshold>
            <left_val>-0.4469124972820282</left_val>
            <right_val>0.5103837847709656</right_val></_></_>
        <_>
          <_>
            <feature>
              <rects>
                <_>
                  0 1 20 26 -1.</_>
                <_>
                  0 14 20 13 2.</_></rects>
              <tilted>0</tilted></feature>
            <threshold>-2.4334760382771492e-003</threshold>
            <left_val>0.3923343122005463</left_val>
            <right_val>-0.7324451208114624</right_val></_></_>
        <_>
          <_>
            <feature>
              <rects>
                <_>
                  0 2 20 22 -1.</_>
                <_>
                  0 13 20 11 2.</_></rects>
              <tilted>0</tilted></feature>
            <threshold>4.4790349784307182e-004</threshold>
            <left_val>-0.3447842001914978</left_val>
            <right_val>0.6655539274215698</right_val></_></_>
        <_>
          <_>
            <feature>
              <rects>
                <_>
                  18 7 1 8 -1.</_>
                <_>
                  18 11 1 4 2.</_></rects>
              <tilted>0</tilted></feature>
            <threshold>-1.5888270354480483e-005</threshold>
            <left_val>0.2751241922378540</left_val>
            <right_val>-0.5055482983589172</right_val></_></_>
        <_>
          <_>
            <feature>
              <rects>
                <_>
                  1 7 1 8 -1.</_>
                <_>
                  1 11 1 4 2.</_></rects>
              <tilted>0</tilted></feature>
            <threshold>-1.4169209862302523e-005</threshold>
            <left_val>0.4973903894424439</left_val>
            <right_val>-0.4589003920555115</right_val></_></_>
        <_>
          <_>
            <feature>
              <rects>
                <_>
                  18 6 1 8 -1.</_>
                <_>
                  18 10 1 4 2.</_></rects>
              <tilted>0</tilted></feature>
            <threshold>1.6515430615982041e-005</threshold>
            <left_val>-0.3400999903678894</left_val>
            <right_val>0.5568178892135620</right_val></_></_>
        <_>
          <_>
            <feature>
              <rects>
                <_>
                  1 7 6 8 -1.</_>
                <_>
                  1 7 3 4 2.</_>
                <_>
                  4 11 3 4 2.</_></rects>
              <tilted>0</tilted></feature>
            <threshold>-6.0171860968694091e-004</threshold>
            <left_val>0.4185366928577423</left_val>
            <right_val>-0.4851971864700317</right_val></_></_>
        <_>
          <_>
            <feature>
              <rects>
                <_>
                  12 7 8 10 -1.</_>
                <_>
                  16 7 4 5 2.</_>
                <_>
                  12 12 4 5 2.</_></rects>
              <tilted>0</tilted></feature>
            <threshold>-8.4771403635386378e-005</threshold>
            <left_val>0.2780646979808807</left_val>
            <right_val>-0.2198348045349121</right_val></_></_>
        <_>
          <_>
            <feature>
              <rects>
                <_>
                  0 8 8 8 -1.</_>
                <_>
                  0 8 4 4 2.</_>
                <_>
                  4 12 4 4 2.</_></rects>
              <tilted>0</tilted></feature>
            <threshold>5.1159469876438379e-005</threshold>
            <left_val>-0.3941371142864227</left_val>
            <right_val>0.4466839134693146</right_val></_></_>
        <_>
          <_>
            <feature>
              <rects>
                <_>
                  14 10 4 12 -1.</_>
                <_>
                  16 10 2 6 2.</_>
                <_>
                  14 16 2 6 2.</_></rects>
              <tilted>0</tilted></feature>
            <threshold>-1.1363720113877207e-004</threshold>
            <left_val>0.1695654988288879</left_val>
            <right_val>-0.3423297107219696</right_val></_></_>
        <_>
          <_>
            <feature>
              <rects>
                <_>
                  0 6 18 2 -1.</_>
                <_>
                  9 6 9 2 2.</_></rects>
              <tilted>0</tilted></feature>
            <threshold>1.7495560314273462e-005</threshold>
            <left_val>-0.3350205123424530</left_val>
            <right_val>0.4174542129039764</right_val></_></_>
        <_>
          <_>
            <feature>
              <rects>
                <_>
                  3 4 16 12 -1.</_>
                <_>
                  3 10 16 6 2.</_></rects>
              <tilted>0</tilted></feature>
            <threshold>-2.2914609871804714e-004</threshold>
            <left_val>0.2512679100036621</left_val>
            <right_val>-0.5636429190635681</right_val></_></_>
        <_>
          <_>
            <feature>
              <rects>
                <_>
                  4 4 15 4 -1.</_>
                <_>
                  4 4 15 2 2.</_></rects>
              <tilted>1</tilted></feature>
            <threshold>-2.5839838781394064e-004</threshold>
            <left_val>0.4986692070960999</left_val>
            <right_val>-0.3227595090866089</right_val></_></_>
        <_>
          <_>
            <feature>
              <rects>
                <_>
                  8 9 12 1 -1.</_>
                <_>
                  8 9 6 1 2.</_></rects>
              <tilted>0</tilted></feature>
            <threshold>3.2701360760256648e-004</threshold>
            <left_val>-0.1456751972436905</left_val>
            <right_val>0.2067150026559830</right_val></_></_>
        <_>
          <_>
            <feature>
              <rects>
                <_>
                  3 6 15 2 -1.</_>
                <_>
                  3 6 15 1 2.</_></rects>
              <tilted>1</tilted></feature>
            <threshold>4.6888540964573622e-004</threshold>
            <left_val>-0.3980658054351807</left_val>
            <right_val>0.3823645114898682</right_val></_></_>
        <_>
          <_>
            <feature>
              <rects>
                <_>
                  7 1 6 20 -1.</_>
                <_>
                  10 1 3 10 2.</_>
                <_>
                  7 11 3 10 2.</_></rects>
              <tilted>0</tilted></feature>
            <threshold>-1.1444010306149721e-004</threshold>
            <left_val>0.3422788977622986</left_val>
            <right_val>-0.4400222003459930</right_val></_></_>
        <_>
          <_>
            <feature>
              <rects>
                <_>
                  6 3 3 14 -1.</_>
                <_>
                  6 10 3 7 2.</_></rects>
              <tilted>0</tilted></feature>
            <threshold>8.4123277338221669e-004</threshold>
            <left_val>-0.2452653050422669</left_val>
            <right_val>0.6480816006660461</right_val></_></_>
        <_>
          <_>
            <feature>
              <rects>
                <_>
                  10 3 4 20 -1.</_>
                <_>
                  10 8 4 10 2.</_></rects>
              <tilted>0</tilted></feature>
            <threshold>-2.8350480715744197e-004</threshold>
            <left_val>0.1940359026193619</left_val>
            <right_val>-0.3970001041889191</right_val></_></_>
        <_>
          <_>
            <feature>
              <rects>
                <_>
                  8 6 12 3 -1.</_>
                <_>
                  12 10 4 3 3.</_></rects>
              <tilted>1</tilted></feature>
            <threshold>1.9488920224830508e-004</threshold>
            <left_val>-0.3130910098552704</left_val>
            <right_val>0.4507088065147400</right_val></_></_>
        <_>
          <_>
            <feature>
              <rects>
                <_>
                  12 10 1 9 -1.</_>
                <_>
                  9 13 1 3 3.</_></rects>
              <tilted>1</tilted></feature>
            <threshold>-1.7149090126622468e-005</threshold>
            <left_val>0.1560311019420624</left_val>
            <right_val>-0.3541277945041657</right_val></_></_>
        <_>
          <_>
            <feature>
              <rects>
                <_>
                  7 8 4 9 -1.</_>
                <_>
                  9 8 2 9 2.</_></rects>
              <tilted>0</tilted></feature>
            <threshold>-5.8422199799679220e-005</threshold>
            <left_val>0.5093253850936890</left_val>
            <right_val>-0.3350093066692352</right_val></_></_>
        <_>
          <_>
            <feature>
              <rects>
                <_>
                  11 2 8 22 -1.</_>
                <_>
                  13 2 4 22 2.</_></rects>
              <tilted>0</tilted></feature>
            <threshold>0.0600651688873768</threshold>
            <left_val>-0.0987835228443146</left_val>
            <right_val>0.6501212120056152</right_val></_></_>
        <_>
          <_>
            <feature>
              <rects>
                <_>
                  0 17 9 13 -1.</_>
                <_>
                  3 17 3 13 3.</_></rects>
              <tilted>0</tilted></feature>
            <threshold>-1.1040140088880435e-004</threshold>
            <left_val>0.4223487079143524</left_val>
            <right_val>-0.4732770919799805</right_val></_></_>
        <_>
          <_>
            <feature>
              <rects>
                <_>
                  3 20 15 6 -1.</_>
                <_>
                  8 20 5 6 3.</_></rects>
              <tilted>0</tilted></feature>
            <threshold>-1.7920560203492641e-003</threshold>
            <left_val>0.3983274102210999</left_val>
            <right_val>-0.2876478135585785</right_val></_></_>
        <_>
          <_>
            <feature>
              <rects>
                <_>
                  5 5 8 10 -1.</_>
                <_>
                  5 5 4 5 2.</_>
                <_>
                  9 10 4 5 2.</_></rects>
              <tilted>0</tilted></feature>
            <threshold>1.3952249428257346e-003</threshold>
            <left_val>-0.3121202886104584</left_val>
            <right_val>0.4571259021759033</right_val></_></_>
        <_>
          <_>
            <feature>
              <rects>
                <_>
                  4 9 12 4 -1.</_>
                <_>
                  10 9 6 2 2.</_>
                <_>
                  4 11 6 2 2.</_></rects>
              <tilted>0</tilted></feature>
            <threshold>2.6616540708346292e-005</threshold>
            <left_val>-0.4781653881072998</left_val>
            <right_val>0.3755029141902924</right_val></_></_>
        <_>
          <_>
            <feature>
              <rects>
                <_>
                  2 9 9 4 -1.</_>
                <_>
                  2 11 9 2 2.</_></rects>
              <tilted>0</tilted></feature>
            <threshold>-1.9406299543334171e-005</threshold>
            <left_val>0.2839489877223969</left_val>
            <right_val>-0.5999459028244019</right_val></_></_>
        <_>
          <_>
            <feature>
              <rects>
                <_>
                  18 6 2 8 -1.</_>
                <_>
                  18 6 2 4 2.</_></rects>
              <tilted>1</tilted></feature>
            <threshold>-1.6259039985015988e-003</threshold>
            <left_val>0.3456819057464600</left_val>
            <right_val>-0.2258484065532684</right_val></_></_>
        <_>
          <_>
            <feature>
              <rects>
                <_>
                  0 2 2 12 -1.</_>
                <_>
                  0 5 2 6 2.</_></rects>
              <tilted>0</tilted></feature>
            <threshold>-8.8726151734590530e-003</threshold>
            <left_val>0.7178552150726318</left_val>
            <right_val>-0.2182071954011917</right_val></_></_>
        <_>
          <_>
            <feature>
              <rects>
                <_>
                  10 14 9 10 -1.</_>
                <_>
                  13 14 3 10 3.</_></rects>
              <tilted>0</tilted></feature>
            <threshold>1.9652980845421553e-003</threshold>
            <left_val>-0.1656551957130432</left_val>
            <right_val>0.2438963055610657</right_val></_></_>
        <_>
          <_>
            <feature>
              <rects>
                <_>
                  0 14 6 11 -1.</_>
                <_>
                  3 14 3 11 2.</_></rects>
              <tilted>0</tilted></feature>
            <threshold>0.0472974292933941</threshold>
            <left_val>-0.2200472056865692</left_val>
            <right_val>0.8742067217826843</right_val></_></_>
        <_>
          <_>
            <feature>
              <rects>
                <_>
                  4 8 13 2 -1.</_>
                <_>
                  4 9 13 1 2.</_></rects>
              <tilted>0</tilted></feature>
            <threshold>-2.0297140508773737e-005</threshold>
            <left_val>0.3340511023998261</left_val>
            <right_val>-0.6000279784202576</right_val></_></_>
        <_>
          <_>
            <feature>
              <rects>
                <_>
                  4 8 12 2 -1.</_>
                <_>
                  4 9 12 1 2.</_></rects>
              <tilted>0</tilted></feature>
            <threshold>2.6696909117163159e-005</threshold>
            <left_val>-0.3303517103195190</left_val>
            <right_val>0.6092361211776733</right_val></_></_>
        <_>
          <_>
            <feature>
              <rects>
                <_>
                  4 8 13 2 -1.</_>
                <_>
                  4 9 13 1 2.</_></rects>
              <tilted>0</tilted></feature>
            <threshold>-2.5503570213913918e-005</threshold>
            <left_val>0.2999261021614075</left_val>
            <right_val>-0.5632938146591187</right_val></_></_>
        <_>
          <_>
            <feature>
              <rects>
                <_>
                  2 3 16 8 -1.</_>
                <_>
                  2 5 16 4 2.</_></rects>
              <tilted>0</tilted></feature>
            <threshold>-5.5627402616664767e-004</threshold>
            <left_val>0.4988653957843781</left_val>
            <right_val>-0.3516164124011993</right_val></_></_>
        <_>
          <_>
            <feature>
              <rects>
                <_>
                  16 2 1 4 -1.</_>
                <_>
                  16 4 1 2 2.</_></rects>
              <tilted>0</tilted></feature>
            <threshold>1.1537000318639912e-005</threshold>
            <left_val>-0.2479017972946167</left_val>
            <right_val>0.4585989117622376</right_val></_></_>
        <_>
          <_>
            <feature>
              <rects>
                <_>
                  3 2 1 4 -1.</_>
                <_>
                  3 4 1 2 2.</_></rects>
              <tilted>0</tilted></feature>
            <threshold>1.1792870282079093e-005</threshold>
            <left_val>-0.4422841072082520</left_val>
            <right_val>0.5191311836242676</right_val></_></_>
        <_>
          <_>
            <feature>
              <rects>
                <_>
                  13 2 1 4 -1.</_>
                <_>
                  12 3 1 2 2.</_></rects>
              <tilted>1</tilted></feature>
            <threshold>-2.3388840418192558e-005</threshold>
            <left_val>0.2896662950515747</left_val>
            <right_val>-0.4504973888397217</right_val></_></_>
        <_>
          <_>
            <feature>
              <rects>
                <_>
                  0 8 3 9 -1.</_>
                <_>
                  1 11 1 3 9.</_></rects>
              <tilted>0</tilted></feature>
            <threshold>-3.2600379199720919e-005</threshold>
            <left_val>0.5194218754768372</left_val>
            <right_val>-0.4377886950969696</right_val></_></_>
        <_>
          <_>
            <feature>
              <rects>
                <_>
                  11 2 8 26 -1.</_>
                <_>
                  13 2 4 26 2.</_></rects>
              <tilted>0</tilted></feature>
            <threshold>-1.7835689941421151e-003</threshold>
            <left_val>0.3599196970462799</left_val>
            <right_val>-0.2226548939943314</right_val></_></_>
        <_>
          <_>
            <feature>
              <rects>
                <_>
                  1 2 8 26 -1.</_>
                <_>
                  3 2 4 26 2.</_></rects>
              <tilted>0</tilted></feature>
            <threshold>-0.0238693393766880</threshold>
            <left_val>0.6922249794006348</left_val>
            <right_val>-0.2696616053581238</right_val></_></_>
        <_>
          <_>
            <feature>
              <rects>
                <_>
                  8 8 12 21 -1.</_>
                <_>
                  12 8 4 21 3.</_></rects>
              <tilted>0</tilted></feature>
            <threshold>0.1470329016447067</threshold>
            <left_val>-0.0794113427400589</left_val>
            <right_val>0.7138382196426392</right_val></_></_>
        <_>
          <_>
            <feature>
              <rects>
                <_>
                  0 9 12 19 -1.</_>
                <_>
                  4 9 4 19 3.</_></rects>
              <tilted>0</tilted></feature>
            <threshold>0.0128312399610877</threshold>
            <left_val>-0.4551596939563751</left_val>
            <right_val>0.4542489945888519</right_val></_></_>
        <_>
          <_>
            <feature>
              <rects>
                <_>
                  8 8 12 21 -1.</_>
                <_>
                  12 8 4 21 3.</_></rects>
              <tilted>0</tilted></feature>
            <threshold>-2.1567670628428459e-003</threshold>
            <left_val>0.3594445884227753</left_val>
            <right_val>-0.4600051045417786</right_val></_></_>
        <_>
          <_>
            <feature>
              <rects>
                <_>
                  6 2 8 24 -1.</_>
                <_>
                  10 2 4 24 2.</_></rects>
              <tilted>0</tilted></feature>
            <threshold>3.5663780290633440e-003</threshold>
            <left_val>-0.4189221858978272</left_val>
            <right_val>0.6232731938362122</right_val></_></_>
        <_>
          <_>
            <feature>
              <rects>
                <_>
                  16 3 1 16 -1.</_>
                <_>
                  16 3 1 8 2.</_></rects>
              <tilted>1</tilted></feature>
            <threshold>6.3753657741472125e-005</threshold>
            <left_val>-0.4810281097888947</left_val>
            <right_val>0.2195111960172653</right_val></_></_>
        <_>
          <_>
            <feature>
              <rects>
                <_>
                  4 3 12 25 -1.</_>
                <_>
                  10 3 6 25 2.</_></rects>
              <tilted>0</tilted></feature>
            <threshold>-4.9338410608470440e-003</threshold>
            <left_val>0.6107110977172852</left_val>
            <right_val>-0.6944093704223633</right_val></_></_>
        <_>
          <_>
            <feature>
              <rects>
                <_>
                  7 9 8 19 -1.</_>
                <_>
                  7 9 4 19 2.</_></rects>
              <tilted>0</tilted></feature>
            <threshold>-6.6585890017449856e-003</threshold>
            <left_val>0.5366783738136292</left_val>
            <right_val>-0.3149375915527344</right_val></_></_>
        <_>
          <_>
            <feature>
              <rects>
                <_>
                  0 29 12 1 -1.</_>
                <_>
                  6 29 6 1 2.</_></rects>
              <tilted>0</tilted></feature>
            <threshold>1.1775500024668872e-004</threshold>
            <left_val>-0.3855082988739014</left_val>
            <right_val>0.5303714871406555</right_val></_></_>
        <_>
          <_>
            <feature>
              <rects>
                <_>
                  17 2 2 16 -1.</_>
                <_>
                  17 10 2 8 2.</_></rects>
              <tilted>0</tilted></feature>
            <threshold>1.2911680096294731e-004</threshold>
            <left_val>-0.3596484959125519</left_val>
            <right_val>0.3208318054676056</right_val></_></_>
        <_>
          <_>
            <feature>
              <rects>
                <_>
                  10 13 4 2 -1.</_>
                <_>
                  10 13 4 1 2.</_></rects>
              <tilted>1</tilted></feature>
            <threshold>-2.1217159883235581e-005</threshold>
            <left_val>0.5371081233024597</left_val>
            <right_val>-0.6304559707641602</right_val></_></_>
        <_>
          <_>
            <feature>
              <rects>
                <_>
                  8 12 12 12 -1.</_>
                <_>
                  11 12 6 12 2.</_></rects>
              <tilted>0</tilted></feature>
            <threshold>2.1950510563328862e-004</threshold>
            <left_val>-0.3394803106784821</left_val>
            <right_val>0.4025267064571381</right_val></_></_>
        <_>
          <_>
            <feature>
              <rects>
                <_>
                  6 4 14 2 -1.</_>
                <_>
                  6 4 7 2 2.</_></rects>
              <tilted>1</tilted></feature>
            <threshold>1.4233590627554804e-004</threshold>
            <left_val>-0.6647503972053528</left_val>
            <right_val>0.3863539993762970</right_val></_></_>
        <_>
          <_>
            <feature>
              <rects>
                <_>
                  8 12 12 12 -1.</_>
                <_>
                  11 12 6 12 2.</_></rects>
              <tilted>0</tilted></feature>
            <threshold>-1.5439080016221851e-004</threshold>
            <left_val>0.2966943085193634</left_val>
            <right_val>-0.5536292791366577</right_val></_></_>
        <_>
          <_>
            <feature>
              <rects>
                <_>
                  5 10 10 8 -1.</_>
                <_>
                  10 10 5 8 2.</_></rects>
              <tilted>0</tilted></feature>
            <threshold>3.1088039395399392e-004</threshold>
            <left_val>-0.4960406124591827</left_val>
            <right_val>0.7237401008605957</right_val></_></_>
        <_>
          <_>
            <feature>
              <rects>
                <_>
                  10 2 7 2 -1.</_>
                <_>
                  10 2 7 1 2.</_></rects>
              <tilted>1</tilted></feature>
            <threshold>3.6802119575440884e-004</threshold>
            <left_val>-0.5654780864715576</left_val>
            <right_val>0.3784033060073853</right_val></_></_>
        <_>
          <_>
            <feature>
              <rects>
                <_>
                  10 2 2 7 -1.</_>
                <_>
                  10 2 1 7 2.</_></rects>
              <tilted>1</tilted></feature>
            <threshold>-3.0458710170933045e-005</threshold>
            <left_val>0.6937720179557800</left_val>
            <right_val>-0.7516199946403503</right_val></_></_>
        <_>
          <_>
            <feature>
              <rects>
                <_>
                  10 2 8 2 -1.</_>
                <_>
                  10 2 8 1 2.</_></rects>
              <tilted>1</tilted></feature>
            <threshold>-4.9803761066868901e-004</threshold>
            <left_val>0.5790832042694092</left_val>
            <right_val>-0.3868176043033600</right_val></_></_>
        <_>
          <_>
            <feature>
              <rects>
                <_>
                  10 2 2 7 -1.</_>
                <_>
                  10 2 1 7 2.</_></rects>
              <tilted>1</tilted></feature>
            <threshold>2.4021299395826645e-005</threshold>
            <left_val>-0.5127025246620178</left_val>
            <right_val>0.7045615911483765</right_val></_></_>
        <_>
          <_>
            <feature>
              <rects>
                <_>
                  10 23 9 3 -1.</_>
                <_>
                  13 23 3 3 3.</_></rects>
              <tilted>0</tilted></feature>
            <threshold>4.0154759772121906e-003</threshold>
            <left_val>-0.5134599208831787</left_val>
            <right_val>0.4366858005523682</right_val></_></_>
        <_>
          <_>
            <feature>
              <rects>
                <_>
                  1 23 9 3 -1.</_>
                <_>
                  4 23 3 3 3.</_></rects>
              <tilted>0</tilted></feature>
            <threshold>-2.5823359464993700e-005</threshold>
            <left_val>0.6350073218345642</left_val>
            <right_val>-0.7802305817604065</right_val></_></_>
        <_>
          <_>
            <feature>
              <rects>
                <_>
                  13 18 6 8 -1.</_>
                <_>
                  16 18 3 4 2.</_>
                <_>
                  13 22 3 4 2.</_></rects>
              <tilted>0</tilted></feature>
            <threshold>-2.6945129502564669e-004</threshold>
            <left_val>0.5554264187812805</left_val>
            <right_val>-0.4060772955417633</right_val></_></_>
        <_>
          <_>
            <feature>
              <rects>
                <_>
                  6 20 4 4 -1.</_>
                <_>
                  5 21 4 2 2.</_></rects>
              <tilted>1</tilted></feature>
            <threshold>3.2442130759591237e-005</threshold>
            <left_val>-0.3801521062850952</left_val>
            <right_val>0.7005051970481873</right_val></_></_>
        <_>
          <_>
            <feature>
              <rects>
                <_>
                  17 14 2 9 -1.</_>
                <_>
                  17 17 2 3 3.</_></rects>
              <tilted>0</tilted></feature>
            <threshold>2.5919369363691658e-005</threshold>
            <left_val>-0.5677633285522461</left_val>
            <right_val>0.3482236862182617</right_val></_></_>
        <_>
          <_>
            <feature>
              <rects>
                <_>
                  9 14 8 2 -1.</_>
                <_>
                  9 14 4 2 2.</_></rects>
              <tilted>1</tilted></feature>
            <threshold>6.5385329071432352e-004</threshold>
            <left_val>-0.7334750890731812</left_val>
            <right_val>0.5715278983116150</right_val></_></_>
        <_>
          <_>
            <feature>
              <rects>
                <_>
                  10 14 2 8 -1.</_>
                <_>
                  10 14 2 4 2.</_></rects>
              <tilted>1</tilted></feature>
            <threshold>-7.8672199742868543e-004</threshold>
            <left_val>0.4408156871795654</left_val>
            <right_val>-0.7314774990081787</right_val></_></_>
        <_>
          <_>
            <feature>
              <rects>
                <_>
                  10 14 2 8 -1.</_>
                <_>
                  10 14 2 4 2.</_></rects>
              <tilted>1</tilted></feature>
            <threshold>1.2798189709428698e-004</threshold>
            <left_val>-0.6462332010269165</left_val>
            <right_val>0.8121749162673950</right_val></_></_>
        <_>
          <_>
            <feature>
              <rects>
                <_>
                  10 14 2 8 -1.</_>
                <_>
                  10 14 2 4 2.</_></rects>
              <tilted>1</tilted></feature>
            <threshold>-3.9244849176611751e-005</threshold>
            <left_val>0.6292006969451904</left_val>
            <right_val>-0.7762739062309265</right_val></_></_>
        <_>
          <_>
            <feature>
              <rects>
                <_>
                  0 9 8 16 -1.</_>
                <_>
                  2 9 4 16 2.</_></rects>
              <tilted>0</tilted></feature>
            <threshold>-2.3336129379458725e-004</threshold>
            <left_val>0.7786409258842468</left_val>
            <right_val>-0.6564350724220276</right_val></_></_>
        <_>
          <_>
            <feature>
              <rects>
                <_>
                  19 8 1 4 -1.</_>
                <_>
                  19 8 1 2 2.</_></rects>
              <tilted>1</tilted></feature>
            <threshold>-2.3680289814365096e-005</threshold>
            <left_val>0.4328289926052094</left_val>
            <right_val>-0.2657640874385834</right_val></_></_>
        <_>
          <_>
            <feature>
              <rects>
                <_>
                  0 10 20 2 -1.</_>
                <_>
                  0 10 10 1 2.</_>
                <_>
                  10 11 10 1 2.</_></rects>
              <tilted>0</tilted></feature>
            <threshold>-2.2454669306171127e-005</threshold>
            <left_val>0.6642475128173828</left_val>
            <right_val>-0.4444696009159088</right_val></_></_>
        <_>
          <_>
            <feature>
              <rects>
                <_>
                  16 8 4 15 -1.</_>
                <_>
                  16 8 2 15 2.</_></rects>
              <tilted>0</tilted></feature>
            <threshold>4.7371999244205654e-004</threshold>
            <left_val>-0.2491606026887894</left_val>
            <right_val>0.2869937121868134</right_val></_></_>
        <_>
          <_>
            <feature>
              <rects>
                <_>
                  0 8 4 15 -1.</_>
                <_>
                  2 8 2 15 2.</_></rects>
              <tilted>0</tilted></feature>
            <threshold>6.0837869532406330e-003</threshold>
            <left_val>-0.4204910099506378</left_val>
            <right_val>0.7075564861297607</right_val></_></_>
        <_>
          <_>
            <feature>
              <rects>
                <_>
                  5 26 12 1 -1.</_>
                <_>
                  9 26 4 1 3.</_></rects>
              <tilted>0</tilted></feature>
            <threshold>-3.9448270399589092e-005</threshold>
            <left_val>0.3128739893436432</left_val>
            <right_val>-0.4895659983158112</right_val></_></_>
        <_>
          <_>
            <feature>
              <rects>
                <_>
                  7 25 4 2 -1.</_>
                <_>
                  9 25 2 2 2.</_></rects>
              <tilted>0</tilted></feature>
            <threshold>2.8581589504028670e-005</threshold>
            <left_val>-0.4584304988384247</left_val>
            <right_val>0.6487014293670654</right_val></_></_>
        <_>
          <_>
            <feature>
              <rects>
                <_>
                  15 0 1 28 -1.</_>
                <_>
                  15 14 1 14 2.</_></rects>
              <tilted>0</tilted></feature>
            <threshold>-2.7435040101408958e-003</threshold>
            <left_val>0.4166902899742127</left_val>
            <right_val>-0.6731699109077454</right_val></_></_>
        <_>
          <_>
            <feature>
              <rects>
                <_>
                  8 9 10 8 -1.</_>
                <_>
                  8 9 5 8 2.</_></rects>
              <tilted>1</tilted></feature>
            <threshold>-4.0305010043084621e-003</threshold>
            <left_val>0.6214672923088074</left_val>
            <right_val>-0.4862222969532013</right_val></_></_>
        <_>
          <_>
            <feature>
              <rects>
                <_>
                  12 8 2 2 -1.</_>
                <_>
                  12 8 1 2 2.</_></rects>
              <tilted>0</tilted></feature>
            <threshold>-2.4500919607817195e-005</threshold>
            <left_val>0.3193778991699219</left_val>
            <right_val>-0.2312204986810684</right_val></_></_>
        <_>
          <_>
            <feature>
              <rects>
                <_>
                  4 16 12 2 -1.</_>
                <_>
                  7 19 6 2 2.</_></rects>
              <tilted>1</tilted></feature>
            <threshold>-2.4327619466930628e-003</threshold>
            <left_val>0.6355298757553101</left_val>
            <right_val>-0.3374306857585907</right_val></_></_>
        <_>
          <_>
            <feature>
              <rects>
                <_>
                  5 7 10 18 -1.</_>
                <_>
                  5 7 5 18 2.</_></rects>
              <tilted>0</tilted></feature>
            <threshold>0.0147070502862334</threshold>
            <left_val>-0.3658513128757477</left_val>
            <right_val>0.5507854819297791</right_val></_></_>
        <_>
          <_>
            <feature>
              <rects>
                <_>
                  0 18 4 10 -1.</_>
                <_>
                  0 18 2 5 2.</_>
                <_>
                  2 23 2 5 2.</_></rects>
              <tilted>0</tilted></feature>
            <threshold>1.3174439663998783e-004</threshold>
            <left_val>-0.4841780960559845</left_val>
            <right_val>0.4712285995483398</right_val></_></_>
        <_>
          <_>
            <feature>
              <rects>
                <_>
                  6 0 12 5 -1.</_>
                <_>
                  9 0 6 5 2.</_></rects>
              <tilted>0</tilted></feature>
            <threshold>-4.2554911487968639e-005</threshold>
            <left_val>0.2952050864696503</left_val>
            <right_val>-0.3736135959625244</right_val></_></_>
        <_>
          <_>
            <feature>
              <rects>
                <_>
                  1 0 18 9 -1.</_>
                <_>
                  7 3 6 3 9.</_></rects>
              <tilted>0</tilted></feature>
            <threshold>0.0371519699692726</threshold>
            <left_val>-0.4393658041954041</left_val>
            <right_val>0.6040161848068237</right_val></_></_>
        <_>
          <_>
            <feature>
              <rects>
                <_>
                  7 6 9 2 -1.</_>
                <_>
                  10 6 3 2 3.</_></rects>
              <tilted>0</tilted></feature>
            <threshold>-2.0699089873232879e-005</threshold>
            <left_val>0.2676968872547150</left_val>
            <right_val>-0.4642925858497620</right_val></_></_>
        <_>
          <_>
            <feature>
              <rects>
                <_>
                  4 6 9 2 -1.</_>
                <_>
                  7 6 3 2 3.</_></rects>
              <tilted>0</tilted></feature>
            <threshold>-1.7971369379665703e-004</threshold>
            <left_val>0.6328281164169312</left_val>
            <right_val>-0.3986806869506836</right_val></_></_>
        <_>
          <_>
            <feature>
              <rects>
                <_>
                  4 4 12 5 -1.</_>
                <_>
                  7 4 6 5 2.</_></rects>
              <tilted>0</tilted></feature>
            <threshold>3.1466230284422636e-003</threshold>
            <left_val>-0.4328046143054962</left_val>
            <right_val>0.5703145861625671</right_val></_></_>
        <_>
          <_>
            <feature>
              <rects>
                <_>
                  3 22 14 4 -1.</_>
                <_>
                  3 22 7 2 2.</_>
                <_>
                  10 24 7 2 2.</_></rects>
              <tilted>0</tilted></feature>
            <threshold>-2.7582900656852871e-005</threshold>
            <left_val>0.5100331902503967</left_val>
            <right_val>-0.5614181160926819</right_val></_></_>
        <_>
          <_>
            <feature>
              <rects>
                <_>
                  10 17 10 4 -1.</_>
                <_>
                  15 17 5 2 2.</_>
                <_>
                  10 19 5 2 2.</_></rects>
              <tilted>0</tilted></feature>
            <threshold>-1.3817480066791177e-004</threshold>
            <left_val>0.4164445996284485</left_val>
            <right_val>-0.2588107883930206</right_val></_></_>
        <_>
          <_>
            <feature>
              <rects>
                <_>
                  0 17 10 4 -1.</_>
                <_>
                  0 17 5 2 2.</_>
                <_>
                  5 19 5 2 2.</_></rects>
              <tilted>0</tilted></feature>
            <threshold>8.9041661703959107e-004</threshold>
            <left_val>-0.3489986062049866</left_val>
            <right_val>0.5642796754837036</right_val></_></_></trees>
      <stage_threshold>-1.9014470577239990</stage_threshold>
      <parent>0</parent>
      <next>-1</next></_>
    <_>
      <trees>
        <_>
          <_>
            <feature>
              <rects>
                <_>
                  1 4 18 24 -1.</_>
                <_>
                  7 4 6 24 3.</_></rects>
              <tilted>0</tilted></feature>
            <threshold>0.3128140866756439</threshold>
            <left_val>-0.3244606852531433</left_val>
            <right_val>0.9474198818206787</right_val></_></_>
        <_>
          <_>
            <feature>
              <rects>
                <_>
                  1 1 18 20 -1.</_>
                <_>
                  1 11 18 10 2.</_></rects>
              <tilted>0</tilted></feature>
            <threshold>-4.2029388714581728e-004</threshold>
            <left_val>0.4210099875926971</left_val>
            <right_val>-0.7729995250701904</right_val></_></_>
        <_>
          <_>
            <feature>
              <rects>
                <_>
                  1 10 10 1 -1.</_>
                <_>
                  1 10 5 1 2.</_></rects>
              <tilted>1</tilted></feature>
            <threshold>-8.4709038492292166e-004</threshold>
            <left_val>0.4880014955997467</left_val>
            <right_val>-0.5046041011810303</right_val></_></_>
        <_>
          <_>
            <feature>
              <rects>
                <_>
                  11 11 6 4 -1.</_>
                <_>
                  11 11 3 4 2.</_></rects>
              <tilted>0</tilted></feature>
            <threshold>-3.6945189349353313e-003</threshold>
            <left_val>0.2731283903121948</left_val>
            <right_val>-0.1923892050981522</right_val></_></_>
        <_>
          <_>
            <feature>
              <rects>
                <_>
                  2 5 6 12 -1.</_>
                <_>
                  2 5 3 6 2.</_>
                <_>
                  5 11 3 6 2.</_></rects>
              <tilted>0</tilted></feature>
            <threshold>-5.6518631754443049e-004</threshold>
            <left_val>0.4355838000774384</left_val>
            <right_val>-0.3507285118103027</right_val></_></_>
        <_>
          <_>
            <feature>
              <rects>
                <_>
                  12 2 6 11 -1.</_>
                <_>
                  12 2 3 11 2.</_></rects>
              <tilted>1</tilted></feature>
            <threshold>-5.5748289451003075e-003</threshold>
            <left_val>0.2369828969240189</left_val>
            <right_val>-0.1031142026185989</right_val></_></_>
        <_>
          <_>
            <feature>
              <rects>
                <_>
                  4 4 4 11 -1.</_>
                <_>
                  6 4 2 11 2.</_></rects>
              <tilted>0</tilted></feature>
            <threshold>-0.0103650698438287</threshold>
            <left_val>0.6662222146987915</left_val>
            <right_val>-0.1810031980276108</right_val></_></_>
        <_>
          <_>
            <feature>
              <rects>
                <_>
                  9 7 4 6 -1.</_>
                <_>
                  9 9 4 2 3.</_></rects>
              <tilted>0</tilted></feature>
            <threshold>-0.0108643900603056</threshold>
            <left_val>-0.6305357217788696</left_val>
            <right_val>0.0979552492499352</right_val></_></_>
        <_>
          <_>
            <feature>
              <rects>
                <_>
                  1 16 4 14 -1.</_>
                <_>
                  3 16 2 14 2.</_></rects>
              <tilted>0</tilted></feature>
            <threshold>0.0116998497396708</threshold>
            <left_val>-0.1802071034908295</left_val>
            <right_val>0.6113368868827820</right_val></_></_>
        <_>
          <_>
            <feature>
              <rects>
                <_>
                  10 17 9 12 -1.</_>
                <_>
                  13 17 3 12 3.</_></rects>
              <tilted>0</tilted></feature>
            <threshold>-0.0134764397516847</threshold>
            <left_val>0.2410801053047180</left_val>
            <right_val>-0.2748729884624481</right_val></_></_>
        <_>
          <_>
            <feature>
              <rects>
                <_>
                  0 21 12 9 -1.</_>
                <_>
                  4 21 4 9 3.</_></rects>
              <tilted>0</tilted></feature>
            <threshold>-0.0141531797125936</threshold>
            <left_val>0.5186908245086670</left_val>
            <right_val>-0.2979550957679749</right_val></_></_>
        <_>
          <_>
            <feature>
              <rects>
                <_>
                  13 1 1 3 -1.</_>
                <_>
                  13 2 1 1 3.</_></rects>
              <tilted>0</tilted></feature>
            <threshold>-1.2334210332483053e-003</threshold>
            <left_val>0.6531059145927429</left_val>
            <right_val>-0.0463263504207134</right_val></_></_>
        <_>
          <_>
            <feature>
              <rects>
                <_>
                  0 3 8 3 -1.</_>
                <_>
                  4 3 4 3 2.</_></rects>
              <tilted>0</tilted></feature>
            <threshold>0.0174784101545811</threshold>
            <left_val>-0.1744427978992462</left_val>
            <right_val>0.6744322180747986</right_val></_></_>
        <_>
          <_>
            <feature>
              <rects>
                <_>
                  13 16 4 12 -1.</_>
                <_>
                  13 20 4 4 3.</_></rects>
              <tilted>0</tilted></feature>
            <threshold>2.4021299395826645e-005</threshold>
            <left_val>-0.3528850972652435</left_val>
            <right_val>0.2259176969528198</right_val></_></_>
        <_>
          <_>
            <feature>
              <rects>
                <_>
                  3 4 2 20 -1.</_>
                <_>
                  3 9 2 10 2.</_></rects>
              <tilted>0</tilted></feature>
            <threshold>-1.7274670244660228e-004</threshold>
            <left_val>0.4082615077495575</left_val>
            <right_val>-0.4761418104171753</right_val></_></_>
        <_>
          <_>
            <feature>
              <rects>
                <_>
                  11 12 6 2 -1.</_>
                <_>
                  11 12 3 2 2.</_></rects>
              <tilted>0</tilted></feature>
            <threshold>2.1448469851748087e-005</threshold>
            <left_val>-0.2619937956333160</left_val>
            <right_val>0.2915166020393372</right_val></_></_>
        <_>
          <_>
            <feature>
              <rects>
                <_>
                  3 12 6 2 -1.</_>
                <_>
                  6 12 3 2 2.</_></rects>
              <tilted>0</tilted></feature>
            <threshold>-3.4198368666693568e-005</threshold>
            <left_val>0.5518701076507568</left_val>
            <right_val>-0.4616982936859131</right_val></_></_>
        <_>
          <_>
            <feature>
              <rects>
                <_>
                  14 5 4 6 -1.</_>
                <_>
                  14 5 4 3 2.</_></rects>
              <tilted>1</tilted></feature>
            <threshold>-7.5335672590881586e-005</threshold>
            <left_val>0.2884024977684021</left_val>
            <right_val>-0.1114687994122505</right_val></_></_>
        <_>
          <_>
            <feature>
              <rects>
                <_>
                  10 1 6 1 -1.</_>
                <_>
                  10 1 3 1 2.</_></rects>
              <tilted>1</tilted></feature>
            <threshold>-1.2311120517551899e-003</threshold>
            <left_val>0.5515595078468323</left_val>
            <right_val>-0.2649813890457153</right_val></_></_>
        <_>
          <_>
            <feature>
              <rects>
                <_>
                  0 3 20 6 -1.</_>
                <_>
                  0 6 20 3 2.</_></rects>
              <tilted>0</tilted></feature>
            <threshold>-0.0280413795262575</threshold>
            <left_val>0.4852569103240967</left_val>
            <right_val>-0.2633154094219208</right_val></_></_>
        <_>
          <_>
            <feature>
              <rects>
                <_>
                  5 4 6 1 -1.</_>
                <_>
                  5 4 3 1 2.</_></rects>
              <tilted>1</tilted></feature>
            <threshold>-1.8814729628502391e-005</threshold>
            <left_val>0.4470396041870117</left_val>
            <right_val>-0.2763508856296539</right_val></_></_>
        <_>
          <_>
            <feature>
              <rects>
                <_>
                  16 9 4 5 -1.</_>
                <_>
                  16 9 2 5 2.</_></rects>
              <tilted>0</tilted></feature>
            <threshold>-0.0200169794261456</threshold>
            <left_val>0.8734984993934631</left_val>
            <right_val>-0.0454439707100391</right_val></_></_>
        <_>
          <_>
            <feature>
              <rects>
                <_>
                  0 9 4 5 -1.</_>
                <_>
                  2 9 2 5 2.</_></rects>
              <tilted>0</tilted></feature>
            <threshold>-6.6044558770954609e-003</threshold>
            <left_val>0.6659414768218994</left_val>
            <right_val>-0.1547856926918030</right_val></_></_></trees>
      <stage_threshold>-1.5269229412078857</stage_threshold>
      <parent>1</parent>
      <next>-1</next></_>
    <_>
      <trees>
        <_>
          <_>
            <feature>
              <rects>
                <_>
                  1 1 18 28 -1.</_>
                <_>
                  7 1 6 28 3.</_></rects>
              <tilted>0</tilted></feature>
            <threshold>0.3674835860729218</threshold>
            <left_val>-0.2879017889499664</left_val>
            <right_val>0.7800546884536743</right_val></_></_>
        <_>
          <_>
            <feature>
              <rects>
                <_>
                  10 1 10 12 -1.</_>
                <_>
                  15 1 5 6 2.</_>
                <_>
                  10 7 5 6 2.</_></rects>
              <tilted>0</tilted></feature>
            <threshold>0.0455500781536102</threshold>
            <left_val>-0.0810664519667625</left_val>
            <right_val>0.5309994220733643</right_val></_></_>
        <_>
          <_>
            <feature>
              <rects>
                <_>
                  3 4 9 26 -1.</_>
                <_>
                  3 17 9 13 2.</_></rects>
              <tilted>0</tilted></feature>
            <threshold>0.2056725025177002</threshold>
            <left_val>0.0972110927104950</left_val>
            <right_val>-0.8903238773345947</right_val></_></_>
        <_>
          <_>
            <feature>
              <rects>
                <_>
                  8 8 5 4 -1.</_>
                <_>
                  8 9 5 2 2.</_></rects>
              <tilted>0</tilted></feature>
            <threshold>3.9929482154548168e-003</threshold>
            <left_val>0.1114519014954567</left_val>
            <right_val>-0.6891129016876221</right_val></_></_>
        <_>
          <_>
            <feature>
              <rects>
                <_>
                  0 1 10 12 -1.</_>
                <_>
                  0 1 5 6 2.</_>
                <_>
                  5 7 5 6 2.</_></rects>
              <tilted>0</tilted></feature>
            <threshold>0.0539907999336720</threshold>
            <left_val>-0.1445195972919464</left_val>
            <right_val>0.7025504112243652</right_val></_></_>
        <_>
          <_>
            <feature>
              <rects>
                <_>
                  0 2 20 2 -1.</_>
                <_>
                  5 2 10 2 2.</_></rects>
              <tilted>0</tilted></feature>
            <threshold>0.0462134592235088</threshold>
            <left_val>-0.1235705018043518</left_val>
            <right_val>0.8884721994400024</right_val></_></_>
        <_>
          <_>
            <feature>
              <rects>
                <_>
                  9 18 2 4 -1.</_>
                <_>
                  9 19 2 2 2.</_></rects>
              <tilted>0</tilted></feature>
            <threshold>1.3121640076860785e-003</threshold>
            <left_val>0.1877541989088059</left_val>
            <right_val>-0.5513932704925537</right_val></_></_>
        <_>
          <_>
            <feature>
              <rects>
                <_>
                  9 18 2 4 -1.</_>
                <_>
                  9 19 2 2 2.</_></rects>
              <tilted>0</tilted></feature>
            <threshold>-9.9734414834529161e-004</threshold>
            <left_val>-0.4898631870746613</left_val>
            <right_val>0.1633256971836090</right_val></_></_>
        <_>
          <_>
            <feature>
              <rects>
                <_>
                  4 4 12 5 -1.</_>
                <_>
                  8 4 4 5 3.</_></rects>
              <tilted>0</tilted></feature>
            <threshold>-0.0121209798380733</threshold>
            <left_val>0.3690091967582703</left_val>
            <right_val>-0.2040655016899109</right_val></_></_>
        <_>
          <_>
            <feature>
              <rects>
                <_>
                  9 9 3 3 -1.</_>
                <_>
                  9 10 3 1 3.</_></rects>
              <tilted>0</tilted></feature>
            <threshold>-1.5790120232850313e-003</threshold>
            <left_val>-0.4727520942687988</left_val>
            <right_val>0.1125722974538803</right_val></_></_>
        <_>
          <_>
            <feature>
              <rects>
                <_>
                  2 5 2 23 -1.</_>
                <_>
                  3 5 1 23 2.</_></rects>
              <tilted>0</tilted></feature>
            <threshold>0.0113518098369241</threshold>
            <left_val>-0.1279363036155701</left_val>
            <right_val>0.5462114214897156</right_val></_></_>
        <_>
          <_>
            <feature>
              <rects>
                <_>
                  4 2 15 12 -1.</_>
                <_>
                  4 8 15 6 2.</_></rects>
              <tilted>0</tilted></feature>
            <threshold>-0.0123085500672460</threshold>
            <left_val>0.1682744026184082</left_val>
            <right_val>-0.2774600088596344</right_val></_></_>
        <_>
          <_>
            <feature>
              <rects>
                <_>
                  1 6 4 18 -1.</_>
                <_>
                  1 6 2 9 2.</_>
                <_>
                  3 15 2 9 2.</_></rects>
              <tilted>0</tilted></feature>
            <threshold>-0.0181238204240799</threshold>
            <left_val>0.4669147133827210</left_val>
            <right_val>-0.1405192017555237</right_val></_></_>
        <_>
          <_>
            <feature>
              <rects>
                <_>
                  9 5 8 10 -1.</_>
                <_>
                  9 5 4 10 2.</_></rects>
              <tilted>0</tilted></feature>
            <threshold>0.0349267013370991</threshold>
            <left_val>-0.0899721980094910</left_val>
            <right_val>0.2605192959308624</right_val></_></_>
        <_>
          <_>
            <feature>
              <rects>
                <_>
                  4 9 12 2 -1.</_>
                <_>
                  4 9 6 1 2.</_>
                <_>
                  10 10 6 1 2.</_></rects>
              <tilted>0</tilted></feature>
            <threshold>5.2198870107531548e-003</threshold>
            <left_val>0.0926465466618538</left_val>
            <right_val>-0.7017862796783447</right_val></_></_>
        <_>
          <_>
            <feature>
              <rects>
                <_>
                  4 10 12 20 -1.</_>
                <_>
                  4 10 6 20 2.</_></rects>
              <tilted>0</tilted></feature>
            <threshold>-0.1200262010097504</threshold>
            <left_val>0.4870905876159668</left_val>
            <right_val>-0.1660488992929459</right_val></_></_>
        <_>
          <_>
            <feature>
              <rects>
                <_>
                  10 17 8 5 -1.</_>
                <_>
                  10 17 4 5 2.</_></rects>
              <tilted>1</tilted></feature>
            <threshold>0.0458421297371387</threshold>
            <left_val>-0.1114742979407311</left_val>
            <right_val>0.5084419846534729</right_val></_></_>
        <_>
          <_>
            <feature>
              <rects>
                <_>
                  16 1 4 18 -1.</_>
                <_>
                  18 1 2 9 2.</_>
                <_>
                  16 10 2 9 2.</_></rects>
              <tilted>0</tilted></feature>
            <threshold>0.0211289990693331</threshold>
            <left_val>-0.0715310573577881</left_val>
            <right_val>0.4358631968498230</right_val></_></_>
        <_>
          <_>
            <feature>
              <rects>
                <_>
                  6 18 3 2 -1.</_>
                <_>
                  6 19 3 1 2.</_></rects>
              <tilted>0</tilted></feature>
            <threshold>1.0530030122026801e-003</threshold>
            <left_val>0.1537013053894043</left_val>
            <right_val>-0.4433172047138214</right_val></_></_>
        <_>
          <_>
            <feature>
              <rects>
                <_>
                  13 8 6 5 -1.</_>
                <_>
                  15 10 2 5 3.</_></rects>
              <tilted>1</tilted></feature>
            <threshold>0.0539121702313423</threshold>
            <left_val>-0.0266334097832441</left_val>
            <right_val>0.7302203178405762</right_val></_></_>
        <_>
          <_>
            <feature>
              <rects>
                <_>
                  7 8 5 6 -1.</_>
                <_>
                  5 10 5 2 3.</_></rects>
              <tilted>1</tilted></feature>
            <threshold>-0.0351490303874016</threshold>
            <left_val>0.7163041234016419</left_val>
            <right_val>-0.0854195728898048</right_val></_></_>
        <_>
          <_>
            <feature>
              <rects>
                <_>
                  4 12 12 10 -1.</_>
                <_>
                  8 12 4 10 3.</_></rects>
              <tilted>0</tilted></feature>
            <threshold>-0.0237540304660797</threshold>
            <left_val>0.4228098094463348</left_val>
            <right_val>-0.1444907933473587</right_val></_></_></trees>
      <stage_threshold>-1.0019539594650269</stage_threshold>
      <parent>2</parent>
      <next>-1</next></_>
    <_>
      <trees>
        <_>
          <_>
            <feature>
              <rects>
                <_>
                  2 3 16 27 -1.</_>
                <_>
                  6 3 8 27 2.</_></rects>
              <tilted>0</tilted></feature>
            <threshold>0.2146227061748505</threshold>
            <left_val>-0.2860018908977509</left_val>
            <right_val>0.6866332292556763</right_val></_></_>
        <_>
          <_>
            <feature>
              <rects>
                <_>
                  13 11 6 5 -1.</_>
                <_>
                  13 11 3 5 2.</_></rects>
              <tilted>0</tilted></feature>
            <threshold>-0.0267672594636679</threshold>
            <left_val>0.4549292027950287</left_val>
            <right_val>4.6556238085031509e-003</right_val></_></_>
        <_>
          <_>
            <feature>
              <rects>
                <_>
                  1 11 6 5 -1.</_>
                <_>
                  4 11 3 5 2.</_></rects>
              <tilted>0</tilted></feature>
            <threshold>0.0207055900245905</threshold>
            <left_val>-0.1535422950983048</left_val>
            <right_val>0.5114120841026306</right_val></_></_>
        <_>
          <_>
            <feature>
              <rects>
                <_>
                  11 5 8 23 -1.</_>
                <_>
                  13 5 4 23 2.</_></rects>
              <tilted>0</tilted></feature>
            <threshold>-0.0726523697376251</threshold>
            <left_val>0.5535578131675720</left_val>
            <right_val>-0.0966560468077660</right_val></_></_>
        <_>
          <_>
            <feature>
              <rects>
                <_>
                  6 9 8 2 -1.</_>
                <_>
                  6 10 8 1 2.</_></rects>
              <tilted>0</tilted></feature>
            <threshold>2.2758760023862123e-003</threshold>
            <left_val>0.1625280976295471</left_val>
            <right_val>-0.5795077085494995</right_val></_></_>
        <_>
          <_>
            <feature>
              <rects>
                <_>
                  12 4 6 26 -1.</_>
                <_>
                  14 4 2 26 3.</_></rects>
              <tilted>0</tilted></feature>
            <threshold>0.0351746305823326</threshold>
            <left_val>-0.1352515965700150</left_val>
            <right_val>0.2508108913898468</right_val></_></_>
        <_>
          <_>
            <feature>
              <rects>
                <_>
                  2 4 6 26 -1.</_>
                <_>
                  4 4 2 26 3.</_></rects>
              <tilted>0</tilted></feature>
            <threshold>-0.0502191409468651</threshold>
            <left_val>0.6978809237480164</left_val>
            <right_val>-0.1100156977772713</right_val></_></_>
        <_>
          <_>
            <feature>
              <rects>
                <_>
                  18 2 2 8 -1.</_>
                <_>
                  18 6 2 4 2.</_></rects>
              <tilted>0</tilted></feature>
            <threshold>-0.0172762405127287</threshold>
            <left_val>0.3832617104053497</left_val>
            <right_val>-0.0614432506263256</right_val></_></_>
        <_>
          <_>
            <feature>
              <rects>
                <_>
                  1 3 6 1 -1.</_>
                <_>
                  3 5 2 1 3.</_></rects>
              <tilted>1</tilted></feature>
            <threshold>-0.0106560802087188</threshold>
            <left_val>0.6319425106048584</left_val>
            <right_val>-0.1016722992062569</right_val></_></_>
        <_>
          <_>
            <feature>
              <rects>
                <_>
                  15 0 4 4 -1.</_>
                <_>
                  14 1 4 2 2.</_></rects>
              <tilted>1</tilted></feature>
            <threshold>-0.0126168699935079</threshold>
            <left_val>0.4105890095233917</left_val>
            <right_val>-0.0393126793205738</right_val></_></_>
        <_>
          <_>
            <feature>
              <rects>
                <_>
                  5 0 4 4 -1.</_>
                <_>
                  6 1 2 4 2.</_></rects>
              <tilted>1</tilted></feature>
            <threshold>0.0120844403281808</threshold>
            <left_val>-0.0974641367793083</left_val>
            <right_val>0.6516814827919006</right_val></_></_>
        <_>
          <_>
            <feature>
              <rects>
                <_>
                  7 2 6 8 -1.</_>
                <_>
                  7 2 3 8 2.</_></rects>
              <tilted>0</tilted></feature>
            <threshold>0.0222727302461863</threshold>
            <left_val>0.1523105949163437</left_val>
            <right_val>-0.4985468983650208</right_val></_></_>
        <_>
          <_>
            <feature>
              <rects>
                <_>
                  3 0 6 4 -1.</_>
                <_>
                  3 0 3 2 2.</_>
                <_>
                  6 2 3 2 2.</_></rects>
              <tilted>0</tilted></feature>
            <threshold>5.3636119700968266e-003</threshold>
            <left_val>-0.1610770970582962</left_val>
            <right_val>0.4454169869422913</right_val></_></_>
        <_>
          <_>
            <feature>
              <rects>
                <_>
                  1 0 18 3 -1.</_>
                <_>
                  1 0 9 3 2.</_></rects>
              <tilted>0</tilted></feature>
            <threshold>-0.0437445007264614</threshold>
            <left_val>-0.5050544738769531</left_val>
            <right_val>0.1280854046344757</right_val></_></_>
        <_>
          <_>
            <feature>
              <rects>
                <_>
                  7 2 1 2 -1.</_>
                <_>
                  7 2 1 1 2.</_></rects>
              <tilted>1</tilted></feature>
            <threshold>4.0453390101902187e-004</threshold>
            <left_val>0.2095873057842255</left_val>
            <right_val>-0.2741053104400635</right_val></_></_>
        <_>
          <_>
            <feature>
              <rects>
                <_>
                  15 14 4 6 -1.</_>
                <_>
                  15 14 2 6 2.</_></rects>
              <tilted>0</tilted></feature>
            <threshold>6.8221939727663994e-003</threshold>
            <left_val>-0.0889464393258095</left_val>
            <right_val>0.2050178050994873</right_val></_></_>
        <_>
          <_>
            <feature>
              <rects>
                <_>
                  3 16 4 3 -1.</_>
                <_>
                  3 17 4 1 3.</_></rects>
              <tilted>0</tilted></feature>
            <threshold>2.7343570254743099e-003</threshold>
            <left_val>0.0764608830213547</left_val>
            <right_val>-0.7115383744239807</right_val></_></_>
        <_>
          <_>
            <feature>
              <rects>
                <_>
                  4 0 16 3 -1.</_>
                <_>
                  4 1 16 1 3.</_></rects>
              <tilted>0</tilted></feature>
            <threshold>6.6900597885251045e-003</threshold>
            <left_val>-0.0981318727135658</left_val>
            <right_val>0.3975015878677368</right_val></_></_>
        <_>
          <_>
            <feature>
              <rects>
                <_>
                  1 14 4 6 -1.</_>
                <_>
                  3 14 2 6 2.</_></rects>
              <tilted>0</tilted></feature>
            <threshold>0.0208545401692390</threshold>
            <left_val>-0.0722838714718819</left_val>
            <right_val>0.7468659281730652</right_val></_></_>
        <_>
          <_>
            <feature>
              <rects>
                <_>
                  6 3 8 10 -1.</_>
                <_>
                  6 8 8 5 2.</_></rects>
              <tilted>0</tilted></feature>
            <threshold>0.0321186408400536</threshold>
            <left_val>0.1125342994928360</left_val>
            <right_val>-0.6053249835968018</right_val></_></_>
        <_>
          <_>
            <feature>
              <rects>
                <_>
                  3 5 4 3 -1.</_>
                <_>
                  2 6 4 1 3.</_></rects>
              <tilted>1</tilted></feature>
            <threshold>-4.5767989940941334e-003</threshold>
            <left_val>0.4126524031162262</left_val>
            <right_val>-0.1331429034471512</right_val></_></_>
        <_>
          <_>
            <feature>
              <rects>
                <_>
                  14 18 6 10 -1.</_>
                <_>
                  16 18 2 10 3.</_></rects>
              <tilted>0</tilted></feature>
            <threshold>-0.0318414904177189</threshold>
            <left_val>0.6246206164360046</left_val>
            <right_val>-0.0609285905957222</right_val></_></_>
        <_>
          <_>
            <feature>
              <rects>
                <_>
                  9 19 2 2 -1.</_>
                <_>
                  9 20 2 1 2.</_></rects>
              <tilted>0</tilted></feature>
            <threshold>1.2242400553077459e-003</threshold>
            <left_val>0.1157350018620491</left_val>
            <right_val>-0.5549983978271484</right_val></_></_>
        <_>
          <_>
            <feature>
              <rects>
                <_>
                  14 18 6 10 -1.</_>
                <_>
                  16 18 2 10 3.</_></rects>
              <tilted>0</tilted></feature>
            <threshold>0.0434660501778126</threshold>
            <left_val>-0.0774705410003662</left_val>
            <right_val>0.7625641226768494</right_val></_></_>
        <_>
          <_>
            <feature>
              <rects>
                <_>
                  0 18 6 10 -1.</_>
                <_>
                  2 18 2 10 3.</_></rects>
              <tilted>0</tilted></feature>
            <threshold>-0.0206872895359993</threshold>
            <left_val>0.5605980157852173</left_val>
            <right_val>-0.1088896989822388</right_val></_></_>
        <_>
          <_>
            <feature>
              <rects>
                <_>
                  16 18 3 3 -1.</_>
                <_>
                  16 19 3 1 3.</_></rects>
              <tilted>0</tilted></feature>
            <threshold>1.1209939839318395e-003</threshold>
            <left_val>0.0736497417092323</left_val>
            <right_val>-0.2117370963096619</right_val></_></_>
        <_>
          <_>
            <feature>
              <rects>
                <_>
                  1 18 3 3 -1.</_>
                <_>
                  1 19 3 1 3.</_></rects>
              <tilted>0</tilted></feature>
            <threshold>-8.7034818716347218e-004</threshold>
            <left_val>-0.4456464946269989</left_val>
            <right_val>0.1404507011175156</right_val></_></_>
        <_>
          <_>
            <feature>
              <rects>
                <_>
                  1 0 19 6 -1.</_>
                <_>
                  1 2 19 2 3.</_></rects>
              <tilted>0</tilted></feature>
            <threshold>0.0306564196944237</threshold>
            <left_val>-0.0905393213033676</left_val>
            <right_val>0.5034189224243164</right_val></_></_>
        <_>
          <_>
            <feature>
              <rects>
                <_>
                  0 5 1 12 -1.</_>
                <_>
                  0 9 1 4 3.</_></rects>
              <tilted>0</tilted></feature>
            <threshold>-0.0171038694679737</threshold>
            <left_val>0.7576991915702820</left_val>
            <right_val>-0.0717103928327560</right_val></_></_>
        <_>
          <_>
            <feature>
              <rects>
                <_>
                  10 14 5 8 -1.</_>
                <_>
                  10 16 5 4 2.</_></rects>
              <tilted>0</tilted></feature>
            <threshold>0.0193047095090151</threshold>
            <left_val>0.0367137305438519</left_val>
            <right_val>-0.4328306913375855</right_val></_></_>
        <_>
          <_>
            <feature>
              <rects>
                <_>
                  1 13 4 7 -1.</_>
                <_>
                  2 13 2 7 2.</_></rects>
              <tilted>0</tilted></feature>
            <threshold>9.3476846814155579e-003</threshold>
            <left_val>-0.0890619382262230</left_val>
            <right_val>0.6281815767288208</right_val></_></_>
        <_>
          <_>
            <feature>
              <rects>
                <_>
                  9 5 8 12 -1.</_>
                <_>
                  9 5 4 12 2.</_></rects>
              <tilted>0</tilted></feature>
            <threshold>3.4485219512134790e-003</threshold>
            <left_val>-0.1187169998884201</left_val>
            <right_val>0.1368107050657272</right_val></_></_>
        <_>
          <_>
            <feature>
              <rects>
                <_>
                  5 0 10 4 -1.</_>
                <_>
                  10 0 5 4 2.</_></rects>
              <tilted>0</tilted></feature>
            <threshold>-0.0360214114189148</threshold>
            <left_val>-0.5573405027389526</left_val>
            <right_val>0.0915357470512390</right_val></_></_>
        <_>
          <_>
            <feature>
              <rects>
                <_>
                  11 14 3 8 -1.</_>
                <_>
                  11 16 3 4 2.</_></rects>
              <tilted>0</tilted></feature>
            <threshold>-7.1601891249883920e-005</threshold>
            <left_val>-0.1014482975006104</left_val>
            <right_val>0.0986669436097145</right_val></_></_></trees>
      <stage_threshold>-1.1975049972534180</stage_threshold>
      <parent>3</parent>
      <next>-1</next></_>
    <_>
      <trees>
        <_>
          <_>
            <feature>
              <rects>
                <_>
                  0 5 20 12 -1.</_>
                <_>
                  5 5 10 12 2.</_></rects>
              <tilted>0</tilted></feature>
            <threshold>0.2304743975400925</threshold>
            <left_val>-0.2106177955865860</left_val>
            <right_val>0.6787245273590088</right_val></_></_>
        <_>
          <_>
            <feature>
              <rects>
                <_>
                  8 4 11 26 -1.</_>
                <_>
                  8 17 11 13 2.</_></rects>
              <tilted>0</tilted></feature>
            <threshold>-0.3446165025234222</threshold>
            <left_val>-0.8009700179100037</left_val>
            <right_val>0.0807326808571815</right_val></_></_>
        <_>
          <_>
            <feature>
              <rects>
                <_>
                  6 19 6 2 -1.</_>
                <_>
                  6 20 6 1 2.</_></rects>
              <tilted>0</tilted></feature>
            <threshold>-8.8474911171942949e-004</threshold>
            <left_val>-0.3573361039161682</left_val>
            <right_val>0.1770711988210678</right_val></_></_>
        <_>
          <_>
            <feature>
              <rects>
                <_>
                  13 5 6 19 -1.</_>
                <_>
                  15 5 2 19 3.</_></rects>
              <tilted>0</tilted></feature>
            <threshold>-0.0412914194166660</threshold>
            <left_val>0.3216333985328674</left_val>
            <right_val>-0.0754701867699623</right_val></_></_>
        <_>
          <_>
            <feature>
              <rects>
                <_>
                  0 15 9 3 -1.</_>
                <_>
                  3 15 3 3 3.</_></rects>
              <tilted>0</tilted></feature>
            <threshold>-0.0201276801526546</threshold>
            <left_val>0.5549327135086060</left_val>
            <right_val>-0.1189031973481178</right_val></_></_>
        <_>
          <_>
            <feature>
              <rects>
                <_>
                  15 8 4 21 -1.</_>
                <_>
                  15 8 2 21 2.</_></rects>
              <tilted>0</tilted></feature>
            <threshold>0.0520106889307499</threshold>
            <left_val>-0.0882218778133392</left_val>
            <right_val>0.4866487979888916</right_val></_></_>
        <_>
          <_>
            <feature>
              <rects>
                <_>
                  0 1 1 12 -1.</_>
                <_>
                  0 7 1 6 2.</_></rects>
              <tilted>0</tilted></feature>
            <threshold>-0.0117548396810889</threshold>
            <left_val>0.4253756105899811</left_val>
            <right_val>-0.1501324027776718</right_val></_></_>
        <_>
          <_>
            <feature>
              <rects>
                <_>
                  16 0 3 8 -1.</_>
                <_>
                  16 2 3 4 2.</_></rects>
              <tilted>0</tilted></feature>
            <threshold>-0.0171071495860815</threshold>
            <left_val>0.5435084104537964</left_val>
            <right_val>-0.0252616200596094</right_val></_></_>
        <_>
          <_>
            <feature>
              <rects>
                <_>
                  1 0 3 8 -1.</_>
                <_>
                  1 2 3 4 2.</_></rects>
              <tilted>0</tilted></feature>
            <threshold>-6.0824640095233917e-003</threshold>
            <left_val>0.4827029109001160</left_val>
            <right_val>-0.1174238026142120</right_val></_></_>
        <_>
          <_>
            <feature>
              <rects>
                <_>
                  1 1 18 6 -1.</_>
                <_>
                  1 3 18 2 3.</_></rects>
              <tilted>0</tilted></feature>
            <threshold>0.0291221197694540</threshold>
            <left_val>-0.0936802327632904</left_val>
            <right_val>0.5621067285537720</right_val></_></_>
        <_>
          <_>
            <feature>
              <rects>
                <_>
                  1 8 4 21 -1.</_>
                <_>
                  3 8 2 21 2.</_></rects>
              <tilted>0</tilted></feature>
            <threshold>0.0583546310663223</threshold>
            <left_val>-0.0697636082768440</left_val>
            <right_val>0.7569373846054077</right_val></_></_>
        <_>
          <_>
            <feature>
              <rects>
                <_>
                  8 22 8 3 -1.</_>
                <_>
                  8 22 4 3 2.</_></rects>
              <tilted>0</tilted></feature>
            <threshold>-0.0259910691529512</threshold>
            <left_val>0.3197577893733978</left_val>
            <right_val>-6.8812198005616665e-003</right_val></_></_>
        <_>
          <_>
            <feature>
              <rects>
                <_>
                  4 22 8 3 -1.</_>
                <_>
                  8 22 4 3 2.</_></rects>
              <tilted>0</tilted></feature>
            <threshold>0.0316227413713932</threshold>
            <left_val>-0.0674387812614441</left_val>
            <right_val>0.8457102775573731</right_val></_></_>
        <_>
          <_>
            <feature>
              <rects>
                <_>
                  16 4 4 8 -1.</_>
                <_>
                  18 4 2 4 2.</_>
                <_>
                  16 8 2 4 2.</_></rects>
              <tilted>0</tilted></feature>
            <threshold>-0.0118904700502753</threshold>
            <left_val>0.3763794004917145</left_val>
            <right_val>-0.0519485585391521</right_val></_></_>
        <_>
          <_>
            <feature>
              <rects>
                <_>
                  8 10 2 2 -1.</_>
                <_>
                  8 11 2 1 2.</_></rects>
              <tilted>0</tilted></feature>
            <threshold>1.2675930047407746e-003</threshold>
            <left_val>0.0803687423467636</left_val>
            <right_val>-0.6650813221931458</right_val></_></_>
        <_>
          <_>
            <feature>
              <rects>
                <_>
                  16 4 4 8 -1.</_>
                <_>
                  18 4 2 4 2.</_>
                <_>
                  16 8 2 4 2.</_></rects>
              <tilted>0</tilted></feature>
            <threshold>0.0151503803208470</threshold>
            <left_val>-0.0681507065892220</left_val>
            <right_val>0.4660232961177826</right_val></_></_>
        <_>
          <_>
            <feature>
              <rects>
                <_>
                  0 4 4 8 -1.</_>
                <_>
                  0 4 2 4 2.</_>
                <_>
                  2 8 2 4 2.</_></rects>
              <tilted>0</tilted></feature>
            <threshold>-0.0147753702476621</threshold>
            <left_val>0.7130727767944336</left_val>
            <right_val>-0.0729418620467186</right_val></_></_>
        <_>
          <_>
            <feature>
              <rects>
                <_>
                  10 18 2 2 -1.</_>
                <_>
                  11 18 1 1 2.</_>
                <_>
                  10 19 1 1 2.</_></rects>
              <tilted>0</tilted></feature>
            <threshold>1.0861010523512959e-003</threshold>
            <left_val>0.0604456216096878</left_val>
            <right_val>-0.5519719123840332</right_val></_></_>
        <_>
          <_>
            <feature>
              <rects>
                <_>
                  2 4 8 6 -1.</_>
                <_>
                  6 4 4 6 2.</_></rects>
              <tilted>0</tilted></feature>
            <threshold>0.0462724901735783</threshold>
            <left_val>-0.1192701980471611</left_val>
            <right_val>0.4973396956920624</right_val></_></_>
        <_>
          <_>
            <feature>
              <rects>
                <_>
                  19 6 1 16 -1.</_>
                <_>
                  19 10 1 8 2.</_></rects>
              <tilted>0</tilted></feature>
            <threshold>-0.0168477799743414</threshold>
            <left_val>0.7782536149024963</left_val>
            <right_val>-0.0518189296126366</right_val></_></_>
        <_>
          <_>
            <feature>
              <rects>
                <_>
                  1 16 4 12 -1.</_>
                <_>
                  2 16 2 12 2.</_></rects>
              <tilted>0</tilted></feature>
            <threshold>-0.0160780902951956</threshold>
            <left_val>0.7517896890640259</left_val>
            <right_val>-0.0675090104341507</right_val></_></_>
        <_>
          <_>
            <feature>
              <rects>
                <_>
                  0 23 20 4 -1.</_>
                <_>
                  10 23 10 2 2.</_>
                <_>
                  0 25 10 2 2.</_></rects>
              <tilted>0</tilted></feature>
            <threshold>0.0162481907755136</threshold>
            <left_val>0.1050489023327828</left_val>
            <right_val>-0.5512096881866455</right_val></_></_>
        <_>
          <_>
            <feature>
              <rects>
                <_>
                  1 8 3 19 -1.</_>
                <_>
                  2 8 1 19 3.</_></rects>
              <tilted>0</tilted></feature>
            <threshold>2.1301431115716696e-003</threshold>
            <left_val>-0.1826023012399674</left_val>
            <right_val>0.2951044142246246</right_val></_></_>
        <_>
          <_>
            <feature>
              <rects>
                <_>
                  9 7 5 3 -1.</_>
                <_>
                  9 8 5 1 3.</_></rects>
              <tilted>0</tilted></feature>
            <threshold>6.5311249345541000e-003</threshold>
            <left_val>0.0545341484248638</left_val>
            <right_val>-0.8270028233528137</right_val></_></_>
        <_>
          <_>
            <feature>
              <rects>
                <_>
                  0 8 1 9 -1.</_>
                <_>
                  0 11 1 3 3.</_></rects>
              <tilted>0</tilted></feature>
            <threshold>-8.9781982824206352e-003</threshold>
            <left_val>0.7073218226432800</left_val>
            <right_val>-0.0799622535705566</right_val></_></_>
        <_>
          <_>
            <feature>
              <rects>
                <_>
                  19 2 1 12 -1.</_>
                <_>
                  19 6 1 4 3.</_></rects>
              <tilted>0</tilted></feature>
            <threshold>-0.0107707800343633</threshold>
            <left_val>0.4478465020656586</left_val>
            <right_val>-0.0766158103942871</right_val></_></_>
        <_>
          <_>
            <feature>
              <rects>
                <_>
                  1 15 11 3 -1.</_>
                <_>
                  1 16 11 1 3.</_></rects>
              <tilted>0</tilted></feature>
            <threshold>4.3595628812909126e-003</threshold>
            <left_val>0.0974325388669968</left_val>
            <right_val>-0.5093194246292114</right_val></_></_>
        <_>
          <_>
            <feature>
              <rects>
                <_>
                  5 0 10 4 -1.</_>
                <_>
                  5 1 10 2 2.</_></rects>
              <tilted>0</tilted></feature>
            <threshold>5.1982649601995945e-003</threshold>
            <left_val>-0.1225645989179611</left_val>
            <right_val>0.4352220892906189</right_val></_></_>
        <_>
          <_>
            <feature>
              <rects>
                <_>
                  3 0 11 6 -1.</_>
                <_>
                  3 2 11 2 3.</_></rects>
              <tilted>0</tilted></feature>
            <threshold>-0.0116279497742653</threshold>
            <left_val>0.4233412146568298</left_val>
            <right_val>-0.1187478974461556</right_val></_></_>
        <_>
          <_>
            <feature>
              <rects>
                <_>
                  8 3 4 5 -1.</_>
                <_>
                  9 3 2 5 2.</_></rects>
              <tilted>0</tilted></feature>
            <threshold>-0.0106076300144196</threshold>
            <left_val>-0.7813584208488464</left_val>
            <right_val>0.0711025819182396</right_val></_></_>
        <_>
          <_>
            <feature>
              <rects>
                <_>
                  1 20 6 4 -1.</_>
                <_>
                  3 20 2 4 3.</_></rects>
              <tilted>0</tilted></feature>
            <threshold>0.0202771499752998</threshold>
            <left_val>-0.0716275572776794</left_val>
            <right_val>0.8462960720062256</right_val></_></_>
        <_>
          <_>
            <feature>
              <rects>
                <_>
                  13 9 1 2 -1.</_>
                <_>
                  13 10 1 1 2.</_></rects>
              <tilted>0</tilted></feature>
            <threshold>3.8797719753347337e-004</threshold>
            <left_val>0.0686278566718102</left_val>
            <right_val>-0.2935316860675812</right_val></_></_>
        <_>
          <_>
            <feature>
              <rects>
                <_>
                  6 9 1 2 -1.</_>
                <_>
                  6 10 1 1 2.</_></rects>
              <tilted>0</tilted></feature>
            <threshold>2.1660649508703500e-004</threshold>
            <left_val>0.1286945044994354</left_val>
            <right_val>-0.3831270933151245</right_val></_></_>
        <_>
          <_>
            <feature>
              <rects>
                <_>
                  17 2 2 9 -1.</_>
                <_>
                  17 5 2 3 3.</_></rects>
              <tilted>0</tilted></feature>
            <threshold>-0.0135699799284339</threshold>
            <left_val>0.4232732057571411</left_val>
            <right_val>-0.0676481723785400</right_val></_></_>
        <_>
          <_>
            <feature>
              <rects>
                <_>
                  1 2 2 9 -1.</_>
                <_>
                  1 5 2 3 3.</_></rects>
              <tilted>0</tilted></feature>
            <threshold>-0.0121502401307225</threshold>
            <left_val>0.5090876221656799</left_val>
            <right_val>-0.0940824672579765</right_val></_></_></trees>
      <stage_threshold>-1.1937079429626465</stage_threshold>
      <parent>4</parent>
      <next>-1</next></_>
    <_>
      <trees>
        <_>
          <_>
            <feature>
              <rects>
                <_>
                  0 1 20 19 -1.</_>
                <_>
                  5 1 10 19 2.</_></rects>
              <tilted>0</tilted></feature>
            <threshold>0.2225970029830933</threshold>
            <left_val>-0.3345201909542084</left_val>
            <right_val>0.7033377289772034</right_val></_></_>
        <_>
          <_>
            <feature>
              <rects>
                <_>
                  1 18 18 10 -1.</_>
                <_>
                  7 18 6 10 3.</_></rects>
              <tilted>0</tilted></feature>
            <threshold>0.1579678058624268</threshold>
            <left_val>-0.1186766028404236</left_val>
            <right_val>0.7131360769271851</right_val></_></_>
        <_>
          <_>
            <feature>
              <rects>
                <_>
                  6 18 2 3 -1.</_>
                <_>
                  6 19 2 1 3.</_></rects>
              <tilted>0</tilted></feature>
            <threshold>-1.4510160544887185e-003</threshold>
            <left_val>-0.6375864148139954</left_val>
            <right_val>0.1237339973449707</right_val></_></_>
        <_>
          <_>
            <feature>
              <rects>
                <_>
                  0 0 20 5 -1.</_>
                <_>
                  5 0 10 5 2.</_></rects>
              <tilted>0</tilted></feature>
            <threshold>-0.0718532800674438</threshold>
            <left_val>0.6462296843528748</left_val>
            <right_val>-0.1418816000223160</right_val></_></_>
        <_>
          <_>
            <feature>
              <rects>
                <_>
                  6 17 6 3 -1.</_>
                <_>
                  6 18 6 1 3.</_></rects>
              <tilted>0</tilted></feature>
            <threshold>-3.6436319351196289e-003</threshold>
            <left_val>-0.7230408191680908</left_val>
            <right_val>0.1283535957336426</right_val></_></_>
        <_>
          <_>
            <feature>
              <rects>
                <_>
                  6 7 10 3 -1.</_>
                <_>
                  6 8 10 1 3.</_></rects>
              <tilted>0</tilted></feature>
            <threshold>-4.2682839557528496e-003</threshold>
            <left_val>-0.5327960252761841</left_val>
            <right_val>0.0689204633235931</right_val></_></_>
        <_>
          <_>
            <feature>
              <rects>
                <_>
                  6 7 5 3 -1.</_>
                <_>
                  6 8 5 1 3.</_></rects>
              <tilted>0</tilted></feature>
            <threshold>2.4792770855128765e-003</threshold>
            <left_val>0.1270108073949814</left_val>
            <right_val>-0.6100860834121704</right_val></_></_>
        <_>
          <_>
            <feature>
              <rects>
                <_>
                  9 14 8 16 -1.</_>
                <_>
                  11 14 4 16 2.</_></rects>
              <tilted>0</tilted></feature>
            <threshold>-0.0285411104559898</threshold>
            <left_val>0.4444926083087921</left_val>
            <right_val>-0.1127498969435692</right_val></_></_>
        <_>
          <_>
            <feature>
              <rects>
                <_>
                  1 13 12 16 -1.</_>
                <_>
                  5 13 4 16 3.</_></rects>
              <tilted>0</tilted></feature>
            <threshold>-0.0783494263887405</threshold>
            <left_val>0.5554568171501160</left_val>
            <right_val>-0.1300881057977676</right_val></_></_>
        <_>
          <_>
            <feature>
              <rects>
                <_>
                  14 18 6 12 -1.</_>
                <_>
                  14 18 3 12 2.</_></rects>
              <tilted>0</tilted></feature>
            <threshold>-0.0566736608743668</threshold>
            <left_val>0.5872790217399597</left_val>
            <right_val>-0.0547174699604511</right_val></_></_>
        <_>
          <_>
            <feature>
              <rects>
                <_>
                  0 18 6 12 -1.</_>
                <_>
                  3 18 3 12 2.</_></rects>
              <tilted>0</tilted></feature>
            <threshold>0.0501355193555355</threshold>
            <left_val>-0.0732869580388069</left_val>
            <right_val>0.8404725790023804</right_val></_></_>
        <_>
          <_>
            <feature>
              <rects>
                <_>
                  9 17 3 3 -1.</_>
                <_>
                  9 18 3 1 3.</_></rects>
              <tilted>0</tilted></feature>
            <threshold>2.4872738867998123e-003</threshold>
            <left_val>0.0847168266773224</left_val>
            <right_val>-0.6481152176856995</right_val></_></_>
        <_>
